{"learner":{"attributes":{"scikit_learn":"{\"_estimator_type\": \"classifier\"}"},"feature_names":[],"feature_types":[],"gradient_booster":{"model":{"cats":{"enc":[],"feature_segments":[],"sorted_idx":[]},"gbtree_model_param":{"num_parallel_tree":"1","num_trees":"900"},"iteration_indptr":[0,3,6,9,12,15,18,21,24,27,30,33,36,39,42,45,48,51,54,57,60,63,66,69,72,75,78,81,84,87,90,93,96,99,102,105,108,111,114,117,120,123,126,129,132,135,138,141,144,147,150,153,156,159,162,165,168,171,174,177,180,183,186,189,192,195,198,201,204,207,210,213,216,219,222,225,228,231,234,237,240,243,246,249,252,255,258,261,264,267,270,273,276,279,282,285,288,291,294,297,300,303,306,309,312,315,318,321,324,327,330,333,336,339,342,345,348,351,354,357,360,363,366,369,372,375,378,381,384,387,390,393,396,399,402,405,408,411,414,417,420,423,426,429,432,435,438,441,444,447,450,453,456,459,462,465,468,471,474,477,480,483,486,489,492,495,498,501,504,507,510,513,516,519,522,525,528,531,534,537,540,543,546,549,552,555,558,561,564,567,570,573,576,579,582,585,588,591,594,597,600,603,606,609,612,615,618,621,624,627,630,633,636,639,642,645,648,651,654,657,660,663,666,669,672,675,678,681,684,687,690,693,696,699,702,705,708,711,714,717,720,723,726,729,732,735,738,741,744,747,750,753,756,759,762,765,768,771,774,777,780,783,786,789,792,795,798,801,804,807,810,813,816,819,822,825,828,831,834,837,840,843,846,849,852,855,858,861,864,867,870,873,876,879,882,885,888,891,894,897,900],"tree_info":[0,1,2,0,1,2,0,1,2,0,1,2,0,1,2,0,1,2,0,1,2,0,1,2,0,1,2,0,1,2,0,1,2,0,1,2,0,1,2,0,1,2,0,1,2,0,1,2,0,1,2,0,1,2,0,1,2,0,1,2,0,1,2,0,1,2,0,1,2,0,1,2,0,1,2,0,1,2,0,1,2,0,1,2,0,1,2,0,1,2,0,1,2,0,1,2,0,1,2,0,1,2,0,1,2,0,1,2,0,1,2,0,1,2,0,1,2,0,1,2,0,1,2,0,1,2,0,1,2,0,1,2,0,1,2,0,1,2,0,1,2,0,1,2,0,1,2,0,1,2,0,1,2,0,1,2,0,1,2,0,1,2,0,1,2,0,1,2,0,1,2,0,1,2,0,1,2,0,1,2,0,1,2,0,1,2,0,1,2,0,1,2,0,1,2,0,1,2,0,1,2,0,1,2,0,1,2,0,1,2,0,1,2,0,1,2,0,1,2,0,1,2,0,1,2,0,1,2,0,1,2,0,1,2,0,1,2,0,1,2,0,1,2,0,1,2,0,1,2,0,1,2,0,1,2,0,1,2,0,1,2,0,1,2,0,1,2,0,1,2,0,1,2,0,1,2,0,1,2,0,1,2,0,1,2,0,1,2,0,1,2,0,1,2,0,1,2,0,1,2,0,1,2,0,1,2,0,1,2,0,1,2,0,1,2,0,1,2,0,1,2,0,1,2,0,1,2,0,1,2,0,1,2,0,1,2,0,1,2,0,1,2,0,1,2,0,1,2,0,1,2,0,1,2,0,1,2,0,1,2,0,1,2,0,1,2,0,1,2,0,1,2,0,1,2,0,1,2,0,1,2,0,1,2,0,1,2,0,1,2,0,1,2,0,1,2,0,1,2,0,1,2,0,1,2,0,1,2,0,1,2,0,1,2,0,1,2,0,1,2,0,1,2,0,1,2,0,1,2,0,1,2,0,1,2,0,1,2,0,1,2,0,1,2,0,1,2,0,1,2,0,1,2,0,1,2,0,1,2,0,1,2,0,1,2,0,1,2,0,1,2,0,1,2,0,1,2,0,1,2,0,1,2,0,1,2,0,1,2,0,1,2,0,1,2,0,1,2,0,1,2,0,1,2,0,1,2,0,1,2,0,1,2,0,1,2,0,1,2,0,1,2,0,1,2,0,1,2,0,1,2,0,1,2,0,1,2,0,1,2,0,1,2,0,1,2,0,1,2,0,1,2,0,1,2,0,1,2,0,1,2,0,1,2,0,1,2,0,1,2,0,1,2,0,1,2,0,1,2,0,1,2,0,1,2,0,1,2,0,1,2,0,1,2,0,1,2,0,1,2,0,1,2,0,1,2,0,1,2,0,1,2,0,1,2,0,1,2,0,1,2,0,1,2,0,1,2,0,1,2,0,1,2,0,1,2,0,1,2,0,1,2,0,1,2,0,1,2,0,1,2,0,1,2,0,1,2,0,1,2,0,1,2,0,1,2,0,1,2,0,1,2,0,1,2,0,1,2,0,1,2,0,1,2,0,1,2,0,1,2,0,1,2,0,1,2,0,1,2,0,1,2,0,1,2,0,1,2,0,1,2,0,1,2,0,1,2,0,1,2,0,1,2,0,1,2,0,1,2,0,1,2,0,1,2,0,1,2,0,1,2,0,1,2,0,1,2,0,1,2,0,1,2,0,1,2,0,1,2,0,1,2,0,1,2,0,1,2,0,1,2,0,1,2,0,1,2,0,1,2,0,1,2,0,1,2,0,1,2,0,1,2,0,1,2,0,1,2,0,1,2,0,1,2,0,1,2,0,1,2,0,1,2,0,1,2,0,1,2,0,1,2,0,1,2,0,1,2,0,1,2,0,1,2,0,1,2,0,1,2,0,1,2,0,1,2,0,1,2,0,1,2,0,1,2,0,1,2,0,1,2,0,1,2,0,1,2,0,1,2,0,1,2,0,1,2,0,1,2,0,1,2,0,1,2,0,1,2,0,1,2,0,1,2,0,1,2,0,1,2],"trees":[{"base_weights":[1.1611481E-3,-1.1778849E-1,9.7321525E-2,-5.244192E-1,-1.06541775E-1,4.7769353E-2,1.6355938E-1,-6.221251E-3,-1.885213E-2,2.6040445E-3,-3.4241697E-3,4.355471E-3,8.811607E-4,5.447267E-3,2.245955E-3],"categories":[],"categories_nodes":[],"categories_segments":[],"categories_sizes":[],"default_left":[0,0,1,0,0,0,0,0,0,0,0,0,0,0,0],"id":0,"left_children":[1,3,5,7,9,11,13,-1,-1,-1,-1,-1,-1,-1,-1],"loss_changes":[1.7856065E2,3.1635246E1,2.8294174E1,5.4984055E0,1.00334015E1,8.84115E0,5.831787E0,0E0,0E0,0E0,0E0,0E0,0E0,0E0,0E0],"parents":[2147483647,0,0,1,1,2,2,3,3,4,4,5,5,6,6],"right_children":[2,4,6,8,10,12,14,-1,-1,-1,-1,-1,-1,-1,-1],"split_conditions":[-3.1354806E-1,-1.3687993E0,3.693726E-1,-6.674813E-2,-7.415337E-1,-9.403225E-1,4.7835702E-1,-6.221251E-3,-1.885213E-2,2.6040445E-3,-3.4241697E-3,4.355471E-3,8.811607E-4,5.447267E-3,2.245955E-3],"split_indices":[10,10,10,17,22,22,22,0,0,0,0,0,0,0,0],"split_type":[0,0,0,0,0,0,0,0,0,0,0,0,0,0,0],"sum_hessian":[1.5600837E4,6.973521E3,8.627315E3,1.8154457E2,6.791976E3,4.9401914E3,3.6871243E3,4.853518E1,1.3300938E2,2.5482219E2,6.537154E3,7.793121E2,4.1608794E3,3.0602656E3,6.268586E2],"tree_param":{"num_deleted":"0","num_feature":"46","num_nodes":"15","size_leaf_vector":"1"}},{"base_weights":[9.00399E-4,3.0062813E-1,-3.5678843E-1,3.885042E-1,1.7311122E-2,-1.5007941E-1,-4.4249174E-1,3.7646633E-2,1.0868526E-2,2.9699204E-3,-4.356027E-3,-7.0127985E-3,-5.234118E-4,-1.0370143E-2,-1.5031761E-2],"categories":[],"categories_nodes":[],"categories_segments":[],"categories_sizes":[],"default_left":[0,0,1,0,1,1,0,0,0,0,0,0,0,0,0],"id":1,"left_children":[1,3,5,7,9,11,13,-1,-1,-1,-1,-1,-1,-1,-1],"loss_changes":[1.0999534E3,1.3894547E2,8.253583E1,9.450958E1,1.7684639E1,1.527973E1,1.7869812E1,0E0,0E0,0E0,0E0,0E0,0E0,0E0,0E0],"parents":[2147483647,0,0,1,1,2,2,3,3,4,4,5,5,6,6],"right_children":[2,4,6,8,10,12,14,-1,-1,-1,-1,-1,-1,-1,-1],"split_conditions":[-1.7439432E-1,-3.1943497E-1,7.97571E-2,-1.3687993E0,4.4882745E-3,-1.4143876E-2,4.601846E-1,3.7646633E-2,1.0868526E-2,2.9699204E-3,-4.356027E-3,-7.0127985E-3,-5.234118E-4,-1.0370143E-2,-1.5031761E-2],"split_indices":[20,10,20,10,4,17,10,0,0,0,0,0,0,0,0],"split_type":[0,0,0,0,0,0,0,0,0,0,0,0,0,0,0],"sum_hessian":[1.024987E4,5.5772085E3,4.6726616E3,4.255446E3,1.3217626E3,1.3735449E3,3.2991165E3,1.18120125E2,4.1373257E3,8.8092316E2,4.4083942E2,8.398522E2,5.336927E2,1.2564762E3,2.0426404E3],"tree_param":{"num_deleted":"0","num_feature":"46","num_nodes":"15","size_leaf_vector":"1"}},{"base_weights":[1.2738853E-3,9.7875096E-2,-1.0040405E-1,3.5409112E-3,1.5210253E-1,4.0466834E-2,-1.2872694E-1,2.337742E-3,-1.3634921E-3,3.5902113E-3,6.6886498E-3,-1.7333626E-3,2.3894338E-3,-4.8316494E-3,1.008514E-4],"categories":[],"categories_nodes":[],"categories_segments":[],"categories_sizes":[],"default_left":[0,0,0,1,0,1,1,0,0,0,0,0,0,0,0],"id":2,"left_children":[1,3,5,7,9,11,13,-1,-1,-1,-1,-1,-1,-1,-1],"loss_changes":[1.2919331E2,3.450107E1,2.5594086E1,9.008222E0,9.707039E0,4.166985E0,2.2791298E1,0E0,0E0,0E0,0E0,0E0,0E0,0E0,0E0],"parents":[2147483647,0,0,1,1,2,2,3,3,4,4,5,5,6,6],"right_children":[2,4,6,8,10,12,14,-1,-1,-1,-1,-1,-1,-1,-1],"split_conditions":[2.6521623E-1,-2.052371E-1,-1.79824E-1,-2.30665E-1,6.3926417E-1,-1.2281346E0,6.6150147E-1,2.337742E-3,-1.3634921E-3,3.5902113E-3,6.6886498E-3,-1.7333626E-3,2.3894338E-3,-4.8316494E-3,1.008514E-4],"split_indices":[35,34,22,22,12,19,11,0,0,0,0,0,0,0,0],"split_type":[0,0,0,0,0,0,0,0,0,0,0,0,0,0,0],"sum_hessian":[1.3143178E4,6.7399434E3,6.4032344E3,2.4621345E3,4.2778086E3,1.0715371E3,5.3316973E3,9.7651404E2,1.4856205E3,2.9438628E3,1.3339458E3,3.0482367E2,7.6671344E2,4.282484E3,1.0492134E3],"tree_param":{"num_deleted":"0","num_feature":"46","num_nodes":"15","size_leaf_vector":"1"}},{"base_weights":[6.6484476E-4,-1.1640896E-1,9.5362335E-2,-4.6257982E-1,-1.0383112E-1,4.7962256E-2,1.584315E-1,-5.443948E-3,-1.7931731E-2,-3.601383E-3,-5.323257E-4,4.3083215E-3,8.436196E-4,5.276223E-3,2.1727565E-3],"categories":[],"categories_nodes":[],"categories_segments":[],"categories_sizes":[],"default_left":[0,0,1,0,1,0,0,0,0,0,0,0,0,0,0],"id":3,"left_children":[1,3,5,7,9,11,13,-1,-1,-1,-1,-1,-1,-1,-1],"loss_changes":[1.7303076E2,3.014727E1,2.5755661E1,8.698681E0,9.3988495E0,9.342031E0,5.486931E0,0E0,0E0,0E0,0E0,0E0,0E0,0E0,0E0],"parents":[2147483647,0,0,1,1,2,2,3,3,4,4,5,5,6,6],"right_children":[2,4,6,8,10,12,14,-1,-1,-1,-1,-1,-1,-1,-1],"split_conditions":[-3.1354806E-1,-1.3107557E0,3.693726E-1,-6.674813E-2,3.3839133E-1,-8.9426583E-1,4.7835702E-1,-5.443948E-3,-1.7931731E-2,-3.601383E-3,-5.323257E-4,4.3083215E-3,8.436196E-4,5.276223E-3,2.1727565E-3],"split_indices":[10,10,10,17,16,22,22,0,0,0,0,0,0,0,0],"split_type":[0,0,0,0,0,0,0,0,0,0,0,0,0,0,0],"sum_hessian":[1.5597198E4,6.974066E3,8.623132E3,2.3824109E2,6.7358247E3,4.928149E3,3.6949832E3,8.11514E1,1.5708969E2,5.6665283E3,1.0692964E3,8.41315E2,4.086834E3,3.067625E3,6.273582E2],"tree_param":{"num_deleted":"0","num_feature":"46","num_nodes":"15","size_leaf_vector":"1"}},{"base_weights":[-7.9230015E-4,-2.5286567E-1,2.4566992E-1,-3.630208E-2,-3.9947897E-1,-3.2794397E-2,3.2761315E-1,-9.364805E-3,1.6710266E-3,-1.4801132E-2,-8.671691E-3,-6.487454E-3,1.8884555E-3,1.2252915E-2,3.5167564E-4],"categories":[],"categories_nodes":[],"categories_segments":[],"categories_sizes":[],"default_left":[0,0,0,0,1,0,1,0,0,0,0,0,0,0,0],"id":4,"left_children":[1,3,5,7,9,11,13,-1,-1,-1,-1,-1,-1,-1,-1],"loss_changes":[6.3784326E2,1.6108444E2,1.1850806E2,5.2230076E1,3.0661133E1,2.087895E1,1.02384155E2,0E0,0E0,0E0,0E0,0E0,0E0,0E0,0E0],"parents":[2147483647,0,0,1,1,2,2,3,3,4,4,5,5,6,6],"right_children":[2,4,6,8,10,12,14,-1,-1,-1,-1,-1,-1,-1,-1],"split_conditions":[2.4095874E-1,-1.501661E-1,0E0,-6.668827E-1,-3.5268846E-1,-6.4841413E-1,6.0316104E-1,-9.364805E-3,1.6710266E-3,-1.4801132E-2,-8.671691E-3,-6.487454E-3,1.8884555E-3,1.2252915E-2,3.5167564E-4],"split_indices":[35,34,22,22,22,22,12,0,0,0,0,0,0,0,0],"split_type":[0,0,0,0,0,0,0,0,0,0,0,0,0,0,0],"sum_hessian":[1.0256838E4,5.070633E3,5.186205E3,2.0495159E3,3.021117E3,1.1798315E3,4.0063733E3,5.095966E2,1.5399193E3,1.623402E3,1.3977151E3,4.0243265E2,7.773989E2,3.1890288E3,8.173446E2],"tree_param":{"num_deleted":"0","num_feature":"46","num_nodes":"15","size_leaf_vector":"1"}},{"base_weights":[6.756824E-4,-1.18724816E-1,1.383033E-1,-7.458556E-2,-1.8366684E-1,7.213966E-2,1.7189825E-1,-4.7415285E-3,-1.0420709E-3,-6.4708954E-3,-6.2845065E-4,2.751098E-4,3.4657656E-3,5.2399514E-3,-7.6495903E-3],"categories":[],"categories_nodes":[],"categories_segments":[],"categories_sizes":[],"default_left":[0,0,1,0,1,0,0,0,0,0,0,0,0,0,0],"id":5,"left_children":[1,3,5,7,9,11,13,-1,-1,-1,-1,-1,-1,-1,-1],"loss_changes":[2.1625366E2,2.013044E1,1.3526436E1,1.3954157E1,1.4820374E1,5.6426573E0,5.0072937E0,0E0,0E0,0E0,0E0,0E0,0E0,0E0,0E0],"parents":[2147483647,0,0,1,1,2,2,3,3,4,4,5,5,6,6],"right_children":[2,4,6,8,10,12,14,-1,-1,-1,-1,-1,-1,-1,-1],"split_conditions":[-1.8839146E-1,-1.7893891E-1,1.2043535E-1,-7.6763743E-1,-1.3104987E-1,3.875477E-4,8.00001E0,-4.7415285E-3,-1.0420709E-3,-6.4708954E-3,-6.2845065E-4,2.751098E-4,3.4657656E-3,5.2399514E-3,-7.6495903E-3],"split_indices":[20,32,20,20,32,45,31,0,0,0,0,0,0,0,0],"split_type":[0,0,0,0,0,0,0,0,0,0,0,0,0,0,0],"sum_hessian":[1.314988E4,7.0415684E3,6.108311E3,4.1986245E3,2.842944E3,2.0623496E3,4.0459614E3,1.3520111E3,2.8466133E3,2.374013E3,4.6893112E2,8.437726E2,1.218577E3,4.022842E3,2.3119352E1],"tree_param":{"num_deleted":"0","num_feature":"46","num_nodes":"15","size_leaf_vector":"1"}},{"base_weights":[8.048918E-4,1.21419534E-1,-5.266684E-2,4.5185935E-2,1.6907586E-1,-9.709594E-2,2.3759425E-2,3.5061862E-3,-2.3575434E-4,4.573666E-3,7.4839867E-3,-3.8763334E-3,-3.3686316E-4,2.96836E-5,2.7819981E-3],"categories":[],"categories_nodes":[],"categories_segments":[],"categories_sizes":[],"default_left":[0,0,0,0,1,1,0,0,0,0,0,0,0,0,0],"id":6,"left_children":[1,3,5,7,9,11,13,-1,-1,-1,-1,-1,-1,-1,-1],"loss_changes":[1.0076762E2,1.7396805E1,3.6768883E1,7.050256E0,3.7529755E0,1.8873123E1,6.2558856E0,0E0,0E0,0E0,0E0,0E0,0E0,0E0,0E0],"parents":[2147483647,0,0,1,1,2,2,3,3,4,4,5,5,6,6],"right_children":[2,4,6,8,10,12,14,-1,-1,-1,-1,-1,-1,-1,-1],"split_conditions":[-2.9581693E-1,-1.66147E-1,-1.9093634E-1,-9.166219E-1,2.60459E-1,4.2238805E-1,3.36656E-2,3.5061862E-3,-2.3575434E-4,4.573666E-3,7.4839867E-3,-3.8763334E-3,-3.3686316E-4,2.96836E-5,2.7819981E-3],"split_indices":[22,34,34,22,32,12,4,0,0,0,0,0,0,0,0],"split_type":[0,0,0,0,0,0,0,0,0,0,0,0,0,0,0],"sum_hessian":[1.5614203E4,4.79405E3,1.0820153E4,1.8478582E3,2.9461917E3,6.8415713E3,3.978582E3,7.832787E2,1.0645795E3,2.4534375E3,4.9275406E2,4.977436E3,1.8641349E3,2.9949475E3,9.836345E2],"tree_param":{"num_deleted":"0","num_feature":"46","num_nodes":"15","size_leaf_vector":"1"}},{"base_weights":[-2.4179942E-3,3.0624765E-1,-3.2418713E-1,1.3281986E0,2.889822E-1,-1.2284317E-1,-4.3353885E-1,4.5317817E-2,2.5272705E-2,3.6470671E-3,1.0648122E-2,-6.160736E-3,-1.649701E-4,-9.767222E-3,-1.4554263E-2],"categories":[],"categories_nodes":[],"categories_segments":[],"categories_sizes":[],"default_left":[0,0,1,1,0,1,0,0,0,0,0,0,0,0,0],"id":7,"left_children":[1,3,5,7,9,11,13,-1,-1,-1,-1,-1,-1,-1,-1],"loss_changes":[1.02157587E3,9.0710815E1,1.1061261E2,1.2419739E0,5.685901E1,1.7223902E1,1.7381409E1,0E0,0E0,0E0,0E0,0E0,0E0,0E0,0E0],"parents":[2147483647,0,0,1,1,2,2,3,3,4,4,5,5,6,6],"right_children":[2,4,6,8,10,12,14,-1,-1,-1,-1,-1,-1,-1,-1],"split_conditions":[-2.4203353E-1,-1.4112395E0,7.97571E-2,-2.2379306E-1,1.4818048E-1,-7.249124E-2,4.3146282E-1,4.5317817E-2,2.5272705E-2,3.6470671E-3,1.0648122E-2,-6.160736E-3,-1.649701E-4,-9.767222E-3,-1.4554263E-2],"split_indices":[20,20,20,32,22,17,20,0,0,0,0,0,0,0,0],"split_type":[0,0,0,0,0,0,0,0,0,0,0,0,0,0,0],"sum_hessian":[1.0275799E4,5.244813E3,5.030986E3,8.082945E1,5.1639834E3,1.7744304E3,3.2565554E3,5.1096E1,2.9733452E1,1.4634752E3,3.7005083E3,1.0396284E3,7.3480194E2,1.0649675E3,2.191588E3],"tree_param":{"num_deleted":"0","num_feature":"46","num_nodes":"15","size_leaf_vector":"1"}},{"base_weights":[6.1622506E-4,9.57134E-2,-9.787185E-2,4.4704147E-2,1.5699314E-1,5.312385E-2,-1.1952122E-1,4.678161E-3,4.2013582E-4,4.049124E-3,6.765584E-3,-1.6073566E-3,3.0357284E-3,-4.4558505E-3,1.7920556E-4],"categories":[],"categories_nodes":[],"categories_segments":[],"categories_sizes":[],"default_left":[0,1,0,1,0,0,1,0,0,0,0,0,0,0,0],"id":8,"left_children":[1,3,5,7,9,11,13,-1,-1,-1,-1,-1,-1,-1,-1],"loss_changes":[1.2323E2,2.088876E1,2.1160385E1,1.2487596E1,4.433693E0,4.2018137E0,2.0587997E1,0E0,0E0,0E0,0E0,0E0,0E0,0E0,0E0],"parents":[2147483647,0,0,1,1,2,2,3,3,4,4,5,5,6,6],"right_children":[2,4,6,8,10,12,14,-1,-1,-1,-1,-1,-1,-1,-1],"split_conditions":[2.5878116E-1,3.6923975E-1,-3.5268846E-1,-9.484134E-1,6.029459E-1,-1.258815E0,6.6150147E-1,4.678161E-3,4.2013582E-4,4.049124E-3,6.765584E-3,-1.6073566E-3,3.0357284E-3,-4.4558505E-3,1.7920556E-4],"split_indices":[35,45,22,17,16,19,11,0,0,0,0,0,0,0,0],"split_type":[0,0,0,0,0,0,0,0,0,0,0,0,0,0,0],"sum_hessian":[1.3147254E4,6.688844E3,6.4584097E3,3.6550383E3,3.033806E3,8.0896124E2,5.649448E3,7.861538E2,2.8688845E3,2.3071912E3,7.266146E2,2.5106276E2,5.5789844E2,4.588041E3,1.0614075E3],"tree_param":{"num_deleted":"0","num_feature":"46","num_nodes":"15","size_leaf_vector":"1"}},{"base_weights":[1.9136339E-3,-1.0605568E-1,1.0082721E-1,-5.491027E-1,-9.832057E-2,4.7888014E-2,1.5907674E-1,-1.9569704E-2,-9.542829E-3,-3.4684304E-3,-2.3493303E-4,3.0820458E-3,2.3744648E-4,4.2511895E-3,6.276817E-3],"categories":[],"categories_nodes":[],"categories_segments":[],"categories_sizes":[],"default_left":[0,0,1,0,1,0,0,0,0,0,0,0,0,0,0],"id":9,"left_children":[1,3,5,7,9,11,13,-1,-1,-1,-1,-1,-1,-1,-1],"loss_changes":[1.6654774E2,2.5282509E1,2.5059105E1,1.9872742E0,1.1472992E1,9.359367E0,3.2255325E0,0E0,0E0,0E0,0E0,0E0,0E0,0E0,0E0],"parents":[2147483647,0,0,1,1,2,2,3,3,4,4,5,5,6,6],"right_children":[2,4,6,8,10,12,14,-1,-1,-1,-1,-1,-1,-1,-1],"split_conditions":[-2.8330222E-1,-1.4112395E0,3.1543764E-1,-8.239644E-1,3.3839133E-1,-2.3462045E-1,3.3258983E-1,-1.9569704E-2,-9.542829E-3,-3.4684304E-3,-2.3493303E-4,3.0820458E-3,2.3744648E-4,4.2511895E-3,6.276817E-3],"split_indices":[20,20,20,34,16,16,4,0,0,0,0,0,0,0,0],"split_type":[0,0,0,0,0,0,0,0,0,0,0,0,0,0,0],"sum_hessian":[1.5584889E4,7.4511787E3,8.13371E3,1.218523E2,7.3293267E3,4.265859E3,3.867851E3,7.791758E1,4.393472E1,6.152174E3,1.1771528E3,1.795043E3,2.4708162E3,2.887016E3,9.808349E2],"tree_param":{"num_deleted":"0","num_feature":"46","num_nodes":"15","size_leaf_vector":"1"}},{"base_weights":[3.7956442E-4,2.820815E-1,-3.490035E-1,1.2920828E0,2.6573014E-1,-1.4907378E-1,-4.3251503E-1,2.1041702E-2,4.2455457E-2,2.6222982E-3,1.0079188E-2,-6.764397E-3,-8.0024934E-4,-9.856595E-3,-1.4470653E-2],"categories":[],"categories_nodes":[],"categories_segments":[],"categories_sizes":[],"default_left":[0,0,1,0,0,1,0,0,0,0,0,0,0,0,0],"id":10,"left_children":[1,3,5,7,9,11,13,-1,-1,-1,-1,-1,-1,-1,-1],"loss_changes":[1.01042346E3,9.21478E1,7.619116E1,1.5270233E0,6.998923E1,1.2668358E1,1.5942627E1,0E0,0E0,0E0,0E0,0E0,0E0,0E0,0E0],"parents":[2147483647,0,0,1,1,2,2,3,3,4,4,5,5,6,6],"right_children":[2,4,6,8,10,12,14,-1,-1,-1,-1,-1,-1,-1,-1],"split_conditions":[-1.7439432E-1,-1.4112395E0,7.97571E-2,-5.2896213E-2,1.1735367E-1,0E0,4.3146282E-1,2.1041702E-2,4.2455457E-2,2.6222982E-3,1.0079188E-2,-6.764397E-3,-8.0024934E-4,-9.856595E-3,-1.4470653E-2],"split_indices":[20,20,20,23,36,17,20,0,0,0,0,0,0,0,0],"split_type":[0,0,0,0,0,0,0,0,0,0,0,0,0,0,0],"sum_hessian":[1.0256247E4,5.6786255E3,4.5776216E3,8.425427E1,5.594371E3,1.3528276E3,3.2247937E3,2.030574E1,6.3948536E1,1.5841154E3,4.0102559E3,8.303067E2,5.225209E2,1.0573074E3,2.1674866E3],"tree_param":{"num_deleted":"0","num_feature":"46","num_nodes":"15","size_leaf_vector":"1"}},{"base_weights":[1.5494061E-3,-1.1591263E-1,1.3601492E-1,-7.371308E-2,-1.7785142E-1,7.445457E-2,1.6720447E-1,-9.366903E-3,-1.822702E-3,-6.3502425E-3,-2.3665809E-4,3.8218996E-4,3.5087809E-3,5.2584494E-3,7.7024574E-4],"categories":[],"categories_nodes":[],"categories_segments":[],"categories_sizes":[],"default_left":[0,0,1,0,1,0,0,0,0,0,0,0,0,0,0],"id":11,"left_children":[1,3,5,7,9,11,13,-1,-1,-1,-1,-1,-1,-1,-1],"loss_changes":[2.0774387E2,1.8284103E1,1.17124405E1,1.2835152E1,1.6325333E1,5.425769E0,4.625923E0,0E0,0E0,0E0,0E0,0E0,0E0,0E0,0E0],"parents":[2147483647,0,0,1,1,2,2,3,3,4,4,5,5,6,6],"right_children":[2,4,6,8,10,12,14,-1,-1,-1,-1,-1,-1,-1,-1],"split_conditions":[-1.8839146E-1,-1.7893891E-1,1.2043535E-1,-1.1902814E0,-1.3104987E-1,3.875477E-4,3.601964E0,-9.366903E-3,-1.822702E-3,-6.3502425E-3,-2.3665809E-4,3.8218996E-4,3.5087809E-3,5.2584494E-3,7.7024574E-4],"split_indices":[20,32,20,20,32,45,32,0,0,0,0,0,0,0,0],"split_type":[0,0,0,0,0,0,0,0,0,0,0,0,0,0,0],"sum_hessian":[1.3142855E4,7.0153247E3,6.1275303E3,4.179047E3,2.836278E3,2.0662344E3,4.061296E3,2.0936136E2,3.9696853E3,2.3645044E3,4.7177353E2,8.453402E2,1.2208943E3,3.8409011E3,2.2039487E2],"tree_param":{"num_deleted":"0","num_feature":"46","num_nodes":"15","size_leaf_vector":"1"}},{"base_weights":[2.855853E-3,-1.09863214E-1,9.3652554E-2,-5.3911686E-1,-1.0197437E-1,4.173242E-2,1.5756279E-1,-5.802654E-3,-1.8169794E-2,-1.9306721E-3,-4.230996E-3,2.7452426E-3,1.4752401E-4,5.1166443E-3,2.659663E-3],"categories":[],"categories_nodes":[],"categories_segments":[],"categories_sizes":[],"default_left":[0,0,1,0,0,1,0,0,0,0,0,0,0,0,0],"id":12,"left_children":[1,3,5,7,9,11,13,-1,-1,-1,-1,-1,-1,-1,-1],"loss_changes":[1.5984375E2,2.3320747E1,2.8670265E1,2.2800407E0,1.0017174E1,8.756277E0,3.393982E0,0E0,0E0,0E0,0E0,0E0,0E0,0E0,0E0],"parents":[2147483647,0,0,1,1,2,2,3,3,4,4,5,5,6,6],"right_children":[2,4,6,8,10,12,14,-1,-1,-1,-1,-1,-1,-1,-1],"split_conditions":[-3.2671285E-1,-1.4112395E0,3.1543764E-1,-6.28949E-3,5.529162E-1,-3.2976717E-1,1.9015425E-1,-5.802654E-3,-1.8169794E-2,-1.9306721E-3,-4.230996E-3,2.7452426E-3,1.4752401E-4,5.1166443E-3,2.659663E-3],"split_indices":[20,20,20,17,35,19,35,0,0,0,0,0,0,0,0],"split_type":[0,0,0,0,0,0,0,0,0,0,0,0,0,0,0],"sum_hessian":[1.5608073E4,6.962931E3,8.645143E3,1.1957973E2,6.843351E3,4.7745796E3,3.8705632E3,2.2455517E1,9.712421E1,3.4926875E3,3.3506638E3,2.0268066E3,2.7477727E3,3.2503547E3,6.2020844E2],"tree_param":{"num_deleted":"0","num_feature":"46","num_nodes":"15","size_leaf_vector":"1"}},{"base_weights":[-9.2797313E-4,3.061862E-1,-2.9130498E-1,1.1123241E0,2.8382206E-1,-1.129223E-1,-4.218488E-1,1.243102E-2,4.0433116E-2,3.3552467E-3,1.02774E-2,-5.437866E-3,1.1590391E-3,-1.3053052E-2,1.3238332E-3],"categories":[],"categories_nodes":[],"categories_segments":[],"categories_sizes":[],"default_left":[0,0,1,0,0,1,0,0,0,0,0,0,0,0,0],"id":13,"left_children":[1,3,5,7,9,11,13,-1,-1,-1,-1,-1,-1,-1,-1],"loss_changes":[9.152816E2,8.83475E1,1.226102E2,1.9052185E1,4.8920197E1,2.3195082E1,1.8896667E1,0E0,0E0,0E0,0E0,0E0,0E0,0E0,0E0],"parents":[2147483647,0,0,1,1,2,2,3,3,4,4,5,5,6,6],"right_children":[2,4,6,8,10,12,14,-1,-1,-1,-1,-1,-1,-1,-1],"split_conditions":[-2.7097335E-1,-1.3687993E0,1.4317478E-1,0E0,1.1735367E-1,0E0,2.1469958E0,1.243102E-2,4.0433116E-2,3.3552467E-3,1.02774E-2,-5.437866E-3,1.1590391E-3,-1.3053052E-2,1.3238332E-3],"split_indices":[10,10,10,17,22,27,31,0,0,0,0,0,0,0,0],"split_type":[0,0,0,0,0,0,0,0,0,0,0,0,0,0,0],"sum_hessian":[1.0253433E4,4.982972E3,5.27046E3,1.2792972E2,4.8550425E3,2.2310918E3,3.0393684E3,3.575055E1,9.217917E1,1.2400417E3,3.615001E3,1.5370339E3,6.9405774E2,2.9556377E3,8.373067E1],"tree_param":{"num_deleted":"0","num_feature":"46","num_nodes":"15","size_leaf_vector":"1"}},{"base_weights":[1.06005056E-4,-1.15031116E-1,1.3160871E-1,-7.414033E-2,-1.7507306E-1,7.1922965E-2,1.6551475E-1,-4.7123535E-3,-1.0336202E-3,-6.216831E-3,-3.8183425E-4,4.8908046E-3,1.3012274E-3,5.2281134E-3,5.330259E-4],"categories":[],"categories_nodes":[],"categories_segments":[],"categories_sizes":[],"default_left":[0,0,1,0,1,1,0,0,0,0,0,0,0,0,0],"id":14,"left_children":[1,3,5,7,9,11,13,-1,-1,-1,-1,-1,-1,-1,-1],"loss_changes":[1.9930495E2,1.7166473E1,1.2376114E1,1.3743727E1,1.4810463E1,5.7777014E0,5.0490265E0,0E0,0E0,0E0,0E0,0E0,0E0,0E0,0E0],"parents":[2147483647,0,0,1,1,2,2,3,3,4,4,5,5,6,6],"right_children":[2,4,6,8,10,12,14,-1,-1,-1,-1,-1,-1,-1,-1],"split_conditions":[-1.8839146E-1,-1.7893891E-1,1.5823355E-1,-7.6763743E-1,-1.3104987E-1,-1.0359954E0,3.601964E0,-4.7123535E-3,-1.0336202E-3,-6.216831E-3,-3.8183425E-4,4.8908046E-3,1.3012274E-3,5.2281134E-3,5.330259E-4],"split_indices":[20,32,20,20,32,18,32,0,0,0,0,0,0,0,0],"split_type":[0,0,0,0,0,0,0,0,0,0,0,0,0,0,0],"sum_hessian":[1.31534E4,7.0134253E3,6.1399746E3,4.17873E3,2.8346953E3,2.2300188E3,3.909956E3,1.3476228E3,2.8311074E3,2.3649106E3,4.6978467E2,5.2645575E2,1.703563E3,3.6903625E3,2.195935E2],"tree_param":{"num_deleted":"0","num_feature":"46","num_nodes":"15","size_leaf_vector":"1"}},{"base_weights":[1.3456907E-3,-1.0614843E-1,8.536094E-2,-3.2775125E-1,-8.6750425E-2,4.625044E-2,1.4890854E-1,-5.103378E-3,-1.4617179E-2,-3.0808407E-3,6.553473E-5,2.3842074E-3,-4.9908504E-5,3.917776E-3,6.252306E-3],"categories":[],"categories_nodes":[],"categories_segments":[],"categories_sizes":[],"default_left":[0,0,1,0,1,1,1,0,0,0,0,0,0,0,0],"id":15,"left_children":[1,3,5,7,9,11,13,-1,-1,-1,-1,-1,-1,-1,-1],"loss_changes":[1.4096191E2,2.9292633E1,2.1739857E1,1.3396965E1,8.938934E0,8.645194E0,3.4990234E0,0E0,0E0,0E0,0E0,0E0,0E0,0E0,0E0],"parents":[2147483647,0,0,1,1,2,2,3,3,4,4,5,5,6,6],"right_children":[2,4,6,8,10,12,14,-1,-1,-1,-1,-1,-1,-1,-1],"split_conditions":[-3.250746E-1,-1.1399747E0,4.601846E-1,-5.39996E-2,3.5189933E-1,-7.5896354E-3,3.300416E-3,-5.103378E-3,-1.4617179E-2,-3.0808407E-3,6.553473E-5,2.3842074E-3,-4.9908504E-5,3.917776E-3,6.252306E-3],"split_indices":[10,10,10,17,16,23,32,0,0,0,0,0,0,0,0],"split_type":[0,0,0,0,0,0,0,0,0,0,0,0,0,0,0],"sum_hessian":[1.5598404E4,6.8424487E3,8.755955E3,5.4434705E2,6.298102E3,5.4254756E3,3.3304797E3,2.7895746E2,2.6538962E2,5.3399766E3,9.581252E2,3.2019683E3,2.223507E3,2.5587961E3,7.716837E2],"tree_param":{"num_deleted":"0","num_feature":"46","num_nodes":"15","size_leaf_vector":"1"}},{"base_weights":[-1.2529751E-3,-2.4192832E-1,2.2475289E-1,-7.569074E-2,-4.1968122E-1,-3.0883227E-2,2.9780552E-1,-9.66238E-3,3.5929683E-4,-1.5033268E-2,-9.753009E-3,1.2483357E-3,-6.9467765E-3,1.1486083E-2,8.3699886E-4],"categories":[],"categories_nodes":[],"categories_segments":[],"categories_sizes":[],"default_left":[0,0,0,1,1,0,1,0,0,0,0,0,0,0,0],"id":16,"left_children":[1,3,5,7,9,11,13,-1,-1,-1,-1,-1,-1,-1,-1],"loss_changes":[5.587764E2,1.4684583E2,9.8982635E1,5.5679253E1,1.769278E1,1.7243801E1,9.455798E1,0E0,0E0,0E0,0E0,0E0,0E0,0E0,0E0],"parents":[2147483647,0,0,1,1,2,2,3,3,4,4,5,5,6,6],"right_children":[2,4,6,8,10,12,14,-1,-1,-1,-1,-1,-1,-1,-1],"split_conditions":[2.4095874E-1,5.8602532E-3,0E0,-6.668827E-1,-4.4355807E-1,-1.08470604E-1,5.238173E-1,-9.66238E-3,3.5929683E-4,-1.5033268E-2,-9.753009E-3,1.2483357E-3,-6.9467765E-3,1.1486083E-2,8.3699886E-4],"split_indices":[35,34,22,22,22,34,12,0,0,0,0,0,0,0,0],"split_type":[0,0,0,0,0,0,0,0,0,0,0,0,0,0,0],"sum_hessian":[1.0262753E4,4.969908E3,5.292845E3,2.5718235E3,2.3980845E3,1.1770013E3,4.1158438E3,6.7142285E2,1.9004006E3,1.2770986E3,1.120986E3,8.675582E2,3.094431E2,3.1279429E3,9.879008E2],"tree_param":{"num_deleted":"0","num_feature":"46","num_nodes":"15","size_leaf_vector":"1"}},{"base_weights":[3.5148524E-4,-1.1642145E-1,1.1808347E-1,-7.5573884E-2,-1.8175736E-1,5.660791E-2,1.5931627E-1,-2.8614542E-3,1.5673466E-3,-6.330946E-3,-6.341934E-4,1.876396E-3,-6.163232E-3,4.869816E-3,-4.2714346E-3],"categories":[],"categories_nodes":[],"categories_segments":[],"categories_sizes":[],"default_left":[0,0,1,0,1,0,0,0,0,0,0,0,0,0,0],"id":17,"left_children":[1,3,5,7,9,11,13,-1,-1,-1,-1,-1,-1,-1,-1],"loss_changes":[1.8079613E2,1.7551628E1,1.6554138E1,1.0332052E1,1.1903114E1,4.167491E0,3.6735458E0,0E0,0E0,0E0,0E0,0E0,0E0,0E0,0E0],"parents":[2147483647,0,0,1,1,2,2,3,3,4,4,5,5,6,6],"right_children":[2,4,6,8,10,12,14,-1,-1,-1,-1,-1,-1,-1,-1],"split_conditions":[-2.219049E-1,-1.7744954E-1,1.7810518E-1,4.1394418E-1,-1.2815553E-1,9.3948966E-1,8.00001E0,-2.8614542E-3,1.5673466E-3,-6.330946E-3,-6.341934E-4,1.876396E-3,-6.163232E-3,4.869816E-3,-4.2714346E-3],"split_indices":[10,32,10,18,32,35,33,0,0,0,0,0,0,0,0],"split_type":[0,0,0,0,0,0,0,0,0,0,0,0,0,0,0],"sum_hessian":[1.3140809E4,6.5973027E3,6.543506E3,4.0660308E3,2.531272E3,2.6316875E3,3.911818E3,3.5215667E3,5.444642E2,2.1397173E3,3.9155453E2,2.5770913E3,5.4596188E1,3.8754512E3,3.6367035E1],"tree_param":{"num_deleted":"0","num_feature":"46","num_nodes":"15","size_leaf_vector":"1"}},{"base_weights":[2.1743821E-4,-1.07904054E-1,8.883142E-2,-4.8554945E-1,-9.770537E-2,4.0540863E-2,1.4734395E-1,-5.2300566E-3,-1.7486125E-2,-3.7577355E-3,-1.2559941E-3,2.8170976E-3,2.9195225E-4,3.8768877E-3,5.8539067E-3],"categories":[],"categories_nodes":[],"categories_segments":[],"categories_sizes":[],"default_left":[0,0,1,0,0,1,0,0,0,0,0,0,0,0,0],"id":18,"left_children":[1,3,5,7,9,11,13,-1,-1,-1,-1,-1,-1,-1,-1],"loss_changes":[1.4931903E2,2.6799194E1,2.4171555E1,5.044594E0,1.0499283E1,7.721305E0,3.2245178E0,0E0,0E0,0E0,0E0,0E0,0E0,0E0,0E0],"parents":[2147483647,0,0,1,1,2,2,3,3,4,4,5,5,6,6],"right_children":[2,4,6,8,10,12,14,-1,-1,-1,-1,-1,-1,-1,-1],"split_conditions":[-3.2171765E-1,-1.3687993E0,3.1543764E-1,-6.674813E-2,-4.8650727E-1,-5.5878115E-1,2.7488163E-1,-5.2300566E-3,-1.7486125E-2,-3.7577355E-3,-1.2559941E-3,2.8170976E-3,2.9195225E-4,3.8768877E-3,5.8539067E-3],"split_indices":[20,10,20,17,10,19,4,0,0,0,0,0,0,0,0],"split_type":[0,0,0,0,0,0,0,0,0,0,0,0,0,0,0],"sum_hessian":[1.5574785E4,7.0147354E3,8.56005E3,1.7833014E2,6.836405E3,4.694298E3,3.8657524E3,4.580657E1,1.3252356E2,4.5734976E3,2.2629072E3,1.7144957E3,2.979802E3,2.816589E3,1.0491633E3],"tree_param":{"num_deleted":"0","num_feature":"46","num_nodes":"15","size_leaf_vector":"1"}},{"base_weights":[-8.503455E-4,2.9394677E-1,-2.8205398E-1,1.0599737E0,2.7203998E-1,-1.07933894E-1,-4.1703007E-1,1.2188651E-2,3.791886E-2,3.416384E-3,9.79971E-3,-5.2669556E-3,1.240116E-3,-1.2918649E-2,1.6140761E-3],"categories":[],"categories_nodes":[],"categories_segments":[],"categories_sizes":[],"default_left":[0,0,1,0,0,1,0,0,0,0,0,0,0,0,0],"id":19,"left_children":[1,3,5,7,9,11,13,-1,-1,-1,-1,-1,-1,-1,-1],"loss_changes":[8.5010516E2,8.257181E1,1.2312332E2,1.5762634E1,4.1916412E1,2.3241787E1,1.9024658E1,0E0,0E0,0E0,0E0,0E0,0E0,0E0,0E0],"parents":[2147483647,0,0,1,1,2,2,3,3,4,4,5,5,6,6],"right_children":[2,4,6,8,10,12,14,-1,-1,-1,-1,-1,-1,-1,-1],"split_conditions":[-2.7739432E-1,-1.3687993E0,1.542751E-1,0E0,1.2778753E-1,0E0,2.1469958E0,1.2188651E-2,3.791886E-2,3.416384E-3,9.79971E-3,-5.2669556E-3,1.240116E-3,-1.2918649E-2,1.6140761E-3],"split_indices":[10,10,10,17,22,27,31,0,0,0,0,0,0,0,0],"split_type":[0,0,0,0,0,0,0,0,0,0,0,0,0,0,0],"sum_hessian":[1.024483E4,5.0014165E3,5.243413E3,1.3246619E2,4.86895E3,2.2936223E3,2.9497908E3,3.506338E1,9.74028E1,1.2537509E3,3.6151995E3,1.577853E3,7.157695E2,2.8674429E3,8.234795E1],"tree_param":{"num_deleted":"0","num_feature":"46","num_nodes":"15","size_leaf_vector":"1"}},{"base_weights":[-1.1179594E-3,-1.1757462E-1,1.15847304E-1,-7.643128E-2,-1.8006131E-1,5.689463E-2,1.5548533E-1,-2.9406105E-3,1.5275741E-3,-6.2946538E-3,-3.2678669E-4,2.0582925E-3,-2.9585136E-3,2.2028633E-3,5.1497947E-3],"categories":[],"categories_nodes":[],"categories_segments":[],"categories_sizes":[],"default_left":[0,0,1,0,1,1,1,0,0,0,0,0,0,0,0],"id":20,"left_children":[1,3,5,7,9,11,13,-1,-1,-1,-1,-1,-1,-1,-1],"loss_changes":[1.7902446E2,1.6862549E1,1.5278313E1,1.0966789E1,1.31336975E1,4.851074E0,5.1370163E0,0E0,0E0,0E0,0E0,0E0,0E0,0E0,0E0],"parents":[2147483647,0,0,1,1,2,2,3,3,4,4,5,5,6,6],"right_children":[2,4,6,8,10,12,14,-1,-1,-1,-1,-1,-1,-1,-1],"split_conditions":[-2.219049E-1,-1.7893891E-1,1.7810518E-1,3.460213E-1,-1.2815553E-1,1.4628553E0,-5.3217167E-1,-2.9406105E-3,1.5275741E-3,-6.2946538E-3,-3.2678669E-4,2.0582925E-3,-2.9585136E-3,2.2028633E-3,5.1497947E-3],"split_indices":[10,32,10,18,32,27,45,0,0,0,0,0,0,0,0],"split_type":[0,0,0,0,0,0,0,0,0,0,0,0,0,0,0],"sum_hessian":[1.3132897E4,6.580743E3,6.552154E3,3.97475E3,2.6059932E3,2.6391646E3,3.9129893E3,3.399587E3,5.7516327E2,2.2151055E3,3.9088763E2,2.4568755E3,1.8228905E2,6.488647E2,3.2641248E3],"tree_param":{"num_deleted":"0","num_feature":"46","num_nodes":"15","size_leaf_vector":"1"}},{"base_weights":[1.3713415E-3,-9.626066E-2,8.8027276E-2,-4.291479E-1,-8.483319E-2,4.468692E-2,1.4448519E-1,-5.3250417E-3,-1.6453573E-2,2.0269798E-3,-2.778195E-3,3.9078384E-3,7.9071603E-4,4.69712E-3,1.4723908E-3],"categories":[],"categories_nodes":[],"categories_segments":[],"categories_sizes":[],"default_left":[0,0,1,0,0,0,1,0,0,0,0,0,0,0,0],"id":21,"left_children":[1,3,5,7,9,11,13,-1,-1,-1,-1,-1,-1,-1,-1],"loss_changes":[1.3197156E2,2.7720299E1,2.0188606E1,6.7848854E0,8.439545E0,7.3272324E0,4.096977E0,0E0,0E0,0E0,0E0,0E0,0E0,0E0,0E0],"parents":[2147483647,0,0,1,1,2,2,3,3,4,4,5,5,6,6],"right_children":[2,4,6,8,10,12,14,-1,-1,-1,-1,-1,-1,-1,-1],"split_conditions":[-2.7739432E-1,-1.3107557E0,3.9931417E-1,-6.674813E-2,-6.668827E-1,-9.166219E-1,8.084473E-1,-5.3250417E-3,-1.6453573E-2,2.0269798E-3,-2.778195E-3,3.9078384E-3,7.9071603E-4,4.69712E-3,1.4723908E-3],"split_indices":[10,10,10,17,22,22,19,0,0,0,0,0,0,0,0],"split_type":[0,0,0,0,0,0,0,0,0,0,0,0,0,0,0],"sum_hessian":[1.5588744E4,7.3298843E3,8.25886E3,2.3720576E2,7.0926787E3,4.677273E3,3.5815872E3,8.029027E1,1.569155E2,3.4234775E2,6.7503306E3,8.1973145E2,3.8575415E3,3.1760557E3,4.0553156E2],"tree_param":{"num_deleted":"0","num_feature":"46","num_nodes":"15","size_leaf_vector":"1"}},{"base_weights":[-1.90298E-3,2.8111637E-1,-2.7998623E-1,1.0094252E0,2.604276E-1,-1.05695E-1,-4.1015726E-1,1.0976212E-2,3.6557302E-2,3.0883616E-3,9.417588E-3,-5.1580677E-3,1.1727604E-3,-1.2719008E-2,1.6824425E-3],"categories":[],"categories_nodes":[],"categories_segments":[],"categories_sizes":[],"default_left":[0,0,1,0,0,1,0,0,0,0,0,0,0,0,0],"id":22,"left_children":[1,3,5,7,9,11,13,-1,-1,-1,-1,-1,-1,-1,-1],"loss_changes":[8.074059E2,7.529553E1,1.1718198E2,1.6439896E1,4.1542847E1,2.1316385E1,1.9180176E1,0E0,0E0,0E0,0E0,0E0,0E0,0E0,0E0],"parents":[2147483647,0,0,1,1,2,2,3,3,4,4,5,5,6,6],"right_children":[2,4,6,8,10,12,14,-1,-1,-1,-1,-1,-1,-1,-1],"split_conditions":[-2.7097335E-1,-1.3687993E0,1.4317478E-1,0E0,1.1735367E-1,0E0,2.1469958E0,1.0976212E-2,3.6557302E-2,3.0883616E-3,9.417588E-3,-5.1580677E-3,1.1727604E-3,-1.2719008E-2,1.6824425E-3],"split_indices":[10,10,10,17,22,27,31,0,0,0,0,0,0,0,0],"split_type":[0,0,0,0,0,0,0,0,0,0,0,0,0,0,0],"sum_hessian":[1.0248904E4,5.0793447E3,5.1695596E3,1.3370099E2,4.9456436E3,2.2140884E3,2.9554714E3,3.6166054E1,9.753493E1,1.2576636E3,3.68798E3,1.518453E3,6.956353E2,2.8708909E3,8.458049E1],"tree_param":{"num_deleted":"0","num_feature":"46","num_nodes":"15","size_leaf_vector":"1"}},{"base_weights":[3.3291156E-4,-1.0992252E-1,1.1930941E-1,-7.1409255E-2,-1.6718547E-1,6.3046955E-2,1.5323962E-1,-2.762685E-3,1.4179613E-3,-5.844842E-3,-3.7932675E-4,2.2383681E-3,-2.6165734E-3,4.086794E-3,6.762967E-3],"categories":[],"categories_nodes":[],"categories_segments":[],"categories_sizes":[],"default_left":[0,0,1,0,1,1,1,0,0,0,0,0,0,0,0],"id":23,"left_children":[1,3,5,7,9,11,13,-1,-1,-1,-1,-1,-1,-1,-1],"loss_changes":[1.7243623E2,1.4986893E1,1.2021408E1,1.0054327E1,1.1691826E1,4.180875E0,4.6862946E0,0E0,0E0,0E0,0E0,0E0,0E0,0E0,0E0],"parents":[2147483647,0,0,1,1,2,2,3,3,4,4,5,5,6,6],"right_children":[2,4,6,8,10,12,14,-1,-1,-1,-1,-1,-1,-1,-1],"split_conditions":[-1.9136782E-1,-1.7893891E-1,1.7810518E-1,3.460213E-1,-1.2815553E-1,1.4628553E0,7.208602E-1,-2.762685E-3,1.4179613E-3,-5.844842E-3,-3.7932675E-4,2.2383681E-3,-2.6165734E-3,4.086794E-3,6.762967E-3],"split_indices":[10,32,10,18,32,27,23,0,0,0,0,0,0,0,0],"split_type":[0,0,0,0,0,0,0,0,0,0,0,0,0,0,0],"sum_hessian":[1.3135204E4,6.8176626E3,6.317542E3,4.0828804E3,2.734782E3,2.3820166E3,3.9355254E3,3.477935E3,6.049452E2,2.31873E3,4.16052E2,2.2141226E3,1.6789392E2,3.1966309E3,7.3889453E2],"tree_param":{"num_deleted":"0","num_feature":"46","num_nodes":"15","size_leaf_vector":"1"}},{"base_weights":[6.648696E-4,4.894072E-2,-1.09724246E-1,1.4503182E-1,1.2592136E-2,-1.0113569E-1,-4.229204E-1,3.6728703E-3,5.6338324E-3,-9.253019E-4,1.8584874E-3,-7.634892E-4,-3.9397446E-3,-1.9569648E-2,-7.1251397E-3],"categories":[],"categories_nodes":[],"categories_segments":[],"categories_sizes":[],"default_left":[0,0,0,0,0,0,1,0,0,0,0,0,0,0,0],"id":24,"left_children":[1,3,5,7,9,11,13,-1,-1,-1,-1,-1,-1,-1,-1],"loss_changes":[8.3176254E1,3.7918625E1,1.2560204E1,2.7651787E0,1.691206E1,1.0559437E1,4.5497627E0,0E0,0E0,0E0,0E0,0E0,0E0,0E0,0E0],"parents":[2147483647,0,0,1,1,2,2,3,3,4,4,5,5,6,6],"right_children":[2,4,6,8,10,12,14,-1,-1,-1,-1,-1,-1,-1,-1],"split_conditions":[5.1953566E-1,-7.415337E-1,1.3817619E0,4.2421347E-4,-1.714783E-1,-3.188353E-1,-7.23127E-1,3.6728703E-3,5.6338324E-3,-9.253019E-4,1.8584874E-3,-7.634892E-4,-3.9397446E-3,-1.9569648E-2,-7.1251397E-3],"split_indices":[35,22,35,17,34,17,17,0,0,0,0,0,0,0,0],"split_type":[0,0,0,0,0,0,0,0,0,0,0,0,0,0,0],"sum_hessian":[1.5597816E4,1.0853917E4,4.743899E3,2.9747964E3,7.879121E3,4.6237207E3,1.2017834E2,1.958773E3,1.0160234E3,4.191975E3,3.687146E3,1.3210302E3,3.3026907E3,4.8089706E1,7.208863E1],"tree_param":{"num_deleted":"0","num_feature":"46","num_nodes":"15","size_leaf_vector":"1"}},{"base_weights":[-1.016843E-3,-2.3255354E-1,2.13817E-1,-7.3252924E-2,-4.0815827E-1,-2.0196246E-2,2.7916518E-1,-9.279596E-3,2.7084546E-4,-1.4604015E-2,-9.36633E-3,-5.565798E-3,1.8838923E-3,1.0945702E-2,1.2773338E-3],"categories":[],"categories_nodes":[],"categories_segments":[],"categories_sizes":[],"default_left":[0,0,0,1,1,0,1,0,0,0,0,0,0,0,0],"id":25,"left_children":[1,3,5,7,9,11,13,-1,-1,-1,-1,-1,-1,-1,-1],"loss_changes":[5.0962265E2,1.3778922E2,8.129732E1,5.035292E1,1.6929504E1,1.603997E1,8.4151184E1,0E0,0E0,0E0,0E0,0E0,0E0,0E0,0E0],"parents":[2147483647,0,0,1,1,2,2,3,3,4,4,5,5,6,6],"right_children":[2,4,6,8,10,12,14,-1,-1,-1,-1,-1,-1,-1,-1],"split_conditions":[2.4656986E-1,5.8602532E-3,0E0,-6.668827E-1,-3.9700752E-1,-6.4841413E-1,4.7022066E-1,-9.279596E-3,2.7084546E-4,-1.4604015E-2,-9.36633E-3,-5.565798E-3,1.8838923E-3,1.0945702E-2,1.2773338E-3],"split_indices":[35,34,36,36,36,36,12,0,0,0,0,0,0,0,0],"split_type":[0,0,0,0,0,0,0,0,0,0,0,0,0,0,0],"sum_hessian":[1.0235338E4,4.925971E3,5.3093667E3,2.586606E3,2.3393652E3,1.1597461E3,4.1496206E3,6.6497534E2,1.9216306E3,1.274426E3,1.0649392E3,3.8553714E2,7.742089E2,3.0442776E3,1.1053431E3],"tree_param":{"num_deleted":"0","num_feature":"46","num_nodes":"15","size_leaf_vector":"1"}},{"base_weights":[-3.2967867E-4,-1.08033784E-1,1.1597186E-1,-7.05844E-2,-1.6409868E-1,6.3257284E-2,1.5110207E-1,-2.7066418E-3,1.5246583E-3,-5.7736933E-3,-1.5025733E-4,2.2717747E-3,-2.3255474E-3,2.1975453E-3,4.99712E-3],"categories":[],"categories_nodes":[],"categories_segments":[],"categories_sizes":[],"default_left":[0,0,1,0,1,1,1,0,0,0,0,0,0,0,0],"id":26,"left_children":[1,3,5,7,9,11,13,-1,-1,-1,-1,-1,-1,-1,-1],"loss_changes":[1.6472105E2,1.4276939E1,1.1661125E1,9.802427E0,1.2313164E1,4.482706E0,4.5037766E0,0E0,0E0,0E0,0E0,0E0,0E0,0E0,0E0],"parents":[2147483647,0,0,1,1,2,2,3,3,4,4,5,5,6,6],"right_children":[2,4,6,8,10,12,14,-1,-1,-1,-1,-1,-1,-1,-1],"split_conditions":[-1.9136782E-1,-1.7893891E-1,2.1383369E-1,4.1394418E-1,-1.2815553E-1,1.3223054E0,-5.2292085E-1,-2.7066418E-3,1.5246583E-3,-5.7736933E-3,-1.5025733E-4,2.2717747E-3,-2.3255474E-3,2.1975453E-3,4.99712E-3],"split_indices":[10,32,10,18,32,27,45,0,0,0,0,0,0,0,0],"split_type":[0,0,0,0,0,0,0,0,0,0,0,0,0,0,0],"sum_hessian":[1.314017E4,6.822432E3,6.317738E3,4.0970444E3,2.7253877E3,2.5321409E3,3.7855967E3,3.5277322E3,5.693124E2,2.3121912E3,4.1319632E2,2.3282383E3,2.0390248E2,6.322544E2,3.1533423E3],"tree_param":{"num_deleted":"0","num_feature":"46","num_nodes":"15","size_leaf_vector":"1"}},{"base_weights":[2.5178303E-3,-9.410716E-2,9.079011E-2,-5.003889E-1,-8.718453E-2,4.4206027E-2,1.418585E-1,-5.048747E-3,-1.6897516E-2,-3.3012563E-3,-5.2269606E-4,2.5311806E-3,-4.527629E-5,4.533717E-3,1.792066E-3],"categories":[],"categories_nodes":[],"categories_segments":[],"categories_sizes":[],"default_left":[0,0,1,0,1,0,1,0,0,0,0,0,0,0,0],"id":27,"left_children":[1,3,5,7,9,11,13,-1,-1,-1,-1,-1,-1,-1,-1],"loss_changes":[1.3306105E2,2.0729408E1,1.9363297E1,2.1089287E0,1.1677246E1,7.842642E0,2.912346E0,0E0,0E0,0E0,0E0,0E0,0E0,0E0,0E0],"parents":[2147483647,0,0,1,1,2,2,3,3,4,4,5,5,6,6],"right_children":[2,4,6,8,10,12,14,-1,-1,-1,-1,-1,-1,-1,-1],"split_conditions":[-2.8330222E-1,-1.4112395E0,3.1543764E-1,-6.28949E-3,1.3114709E-1,-3.5654973E-2,7.9885423E-1,-5.048747E-3,-1.6897516E-2,-3.3012563E-3,-5.2269606E-4,2.5311806E-3,-4.527629E-5,4.533717E-3,1.792066E-3],"split_indices":[20,20,20,17,16,16,19,0,0,0,0,0,0,0,0],"split_type":[0,0,0,0,0,0,0,0,0,0,0,0,0,0,0],"sum_hessian":[1.5590442E4,7.442915E3,8.147527E3,1.1872379E2,7.3241914E3,4.265713E3,3.8818137E3,2.1822353E1,9.6901436E1,5.514481E3,1.8097103E3,2.2684033E3,1.9973097E3,3.4844812E3,3.9733255E2],"tree_param":{"num_deleted":"0","num_feature":"46","num_nodes":"15","size_leaf_vector":"1"}},{"base_weights":[-3.5984322E-4,2.703545E-1,-2.7634466E-1,9.594976E-1,2.504846E-1,-9.7494654E-2,-3.978359E-1,1.1146681E-2,3.4409568E-2,4.730168E-3,1.0246276E-2,-4.9538612E-3,1.5324478E-3,-1.2346502E-2,1.9422009E-3],"categories":[],"categories_nodes":[],"categories_segments":[],"categories_sizes":[],"default_left":[0,0,1,0,0,1,0,0,0,0,0,0,0,0,0],"id":28,"left_children":[1,3,5,7,9,11,13,-1,-1,-1,-1,-1,-1,-1,-1],"loss_changes":[7.6637866E2,6.970538E1,1.1017413E2,1.3671265E1,4.2324524E1,2.0755604E1,1.9311218E1,0E0,0E0,0E0,0E0,0E0,0E0,0E0,0E0],"parents":[2147483647,0,0,1,1,2,2,3,3,4,4,5,5,6,6],"right_children":[2,4,6,8,10,12,14,-1,-1,-1,-1,-1,-1,-1,-1],"split_conditions":[-2.6535755E-1,-1.3687993E0,1.1167488E-1,0E0,-1.9186991E-1,0E0,2.1469958E0,1.1146681E-2,3.4409568E-2,4.730168E-3,1.0246276E-2,-4.9538612E-3,1.5324478E-3,-1.2346502E-2,1.9422009E-3],"split_indices":[10,10,10,17,32,27,31,0,0,0,0,0,0,0,0],"split_type":[0,0,0,0,0,0,0,0,0,0,0,0,0,0,0],"sum_hessian":[1.0247628E4,5.173261E3,5.074366E3,1.3835316E2,5.034908E3,2.0562812E3,3.018085E3,3.7056614E1,1.01296555E2,2.5001982E3,2.53471E3,1.4126606E3,6.4362054E2,2.9317188E3,8.636623E1],"tree_param":{"num_deleted":"0","num_feature":"46","num_nodes":"15","size_leaf_vector":"1"}},{"base_weights":[1.1660142E-3,8.622913E-2,-8.791266E-2,2.1387879E-2,1.3874876E-1,3.8085673E-2,-1.13738574E-1,-1.009703E-3,1.9620487E-3,3.605728E-3,6.63752E-3,-1.7921493E-3,2.3181727E-3,-4.2521716E-3,5.0397334E-4],"categories":[],"categories_nodes":[],"categories_segments":[],"categories_sizes":[],"default_left":[0,0,0,1,1,1,1,0,0,0,0,0,0,0,0],"id":29,"left_children":[1,3,5,7,9,11,13,-1,-1,-1,-1,-1,-1,-1,-1],"loss_changes":[9.9693214E1,2.2903976E1,2.0934433E1,7.3219323E0,5.5586014E0,4.228174E0,1.951117E1,0E0,0E0,0E0,0E0,0E0,0E0,0E0,0E0],"parents":[2147483647,0,0,1,1,2,2,3,3,4,4,5,5,6,6],"right_children":[2,4,6,8,10,12,14,-1,-1,-1,-1,-1,-1,-1,-1],"split_conditions":[2.5878116E-1,-8.874598E-2,-1.79824E-1,-6.2793575E-2,7.3926467E-1,-1.2281346E0,7.255102E-1,-1.009703E-3,1.9620487E-3,3.605728E-3,6.63752E-3,-1.7921493E-3,2.3181727E-3,-4.2521716E-3,5.0397334E-4],"split_indices":[35,34,22,45,23,19,11,0,0,0,0,0,0,0,0],"split_type":[0,0,0,0,0,0,0,0,0,0,0,0,0,0,0],"sum_hessian":[1.3146807E4,6.725062E3,6.4217446E3,3.0126504E3,3.7124116E3,1.0919608E3,5.3297837E3,1.3391074E3,1.6735431E3,3.040722E3,6.716899E2,3.1156418E2,7.8039667E2,4.388102E3,9.416818E2],"tree_param":{"num_deleted":"0","num_feature":"46","num_nodes":"15","size_leaf_vector":"1"}},{"base_weights":[1.4744181E-3,4.7696725E-2,-1.04046255E-1,1.3220602E-1,1.1443342E-2,-9.7897224E-2,-5.3828204E-1,4.161732E-3,-1.0386959E-3,-9.200314E-4,1.8119016E-3,-4.68999E-4,-3.6632472E-3,-1.984103E-2,-6.5885787E-3],"categories":[],"categories_nodes":[],"categories_segments":[],"categories_sizes":[],"default_left":[0,1,0,0,0,0,0,0,0,0,0,0,0,0,0],"id":30,"left_children":[1,3,5,7,9,11,13,-1,-1,-1,-1,-1,-1,-1,-1],"loss_changes":[7.608553E1,3.3227043E1,1.2424438E1,3.5648232E0,1.5669597E1,9.334602E0,1.8325386E0,0E0,0E0,0E0,0E0,0E0,0E0,0E0,0E0],"parents":[2147483647,0,0,1,1,2,2,3,3,4,4,5,5,6,6],"right_children":[2,4,6,8,10,12,14,-1,-1,-1,-1,-1,-1,-1,-1],"split_conditions":[5.1953566E-1,-6.668827E-1,8.00001E0,2.1469958E0,-1.714783E-1,-3.6944407E-1,-7.4142617E-1,4.161732E-3,-1.0386959E-3,-9.200314E-4,1.8119016E-3,-4.68999E-4,-3.6632472E-3,-1.984103E-2,-6.5885787E-3],"split_indices":[35,22,33,31,34,17,34,0,0,0,0,0,0,0,0],"split_type":[0,0,0,0,0,0,0,0,0,0,0,0,0,0,0],"sum_hessian":[1.5589494E4,1.0842696E4,4.746798E3,3.2510427E3,7.5916533E3,4.6865605E3,6.0237198E1,3.1296045E3,1.2143818E2,4.082038E3,3.509615E3,1.0675342E3,3.6190264E3,3.9574165E1,2.0663033E1],"tree_param":{"num_deleted":"0","num_feature":"46","num_nodes":"15","size_leaf_vector":"1"}},{"base_weights":[-1.2110067E-3,-2.4493282E-1,1.889289E-1,-8.5989244E-2,-4.1130614E-1,-8.6525746E-2,2.4517304E-1,-9.641244E-3,-1.2055948E-5,-1.465173E-2,-9.527075E-3,2.883038E-4,-6.897675E-3,8.977213E-3,-8.528567E-4],"categories":[],"categories_nodes":[],"categories_segments":[],"categories_sizes":[],"default_left":[0,0,0,1,1,0,1,0,0,0,0,0,0,0,0],"id":31,"left_children":[1,3,5,7,9,11,13,-1,-1,-1,-1,-1,-1,-1,-1],"loss_changes":[4.7451392E2,1.1848987E2,8.922151E1,4.6361496E1,1.5057251E1,1.3507711E1,7.072391E1,0E0,0E0,0E0,0E0,0E0,0E0,0E0,0E0],"parents":[2147483647,0,0,1,1,2,2,3,3,4,4,5,5,6,6],"right_children":[2,4,6,8,10,12,14,-1,-1,-1,-1,-1,-1,-1,-1],"split_conditions":[1.8338323E-1,5.8602532E-3,-1.9260347E-1,-6.668827E-1,-4.283289E-1,-2.2501636E-1,4.712052E-1,-9.641244E-3,-1.2055948E-5,-1.465173E-2,-9.527075E-3,2.883038E-4,-6.897675E-3,8.977213E-3,-8.528567E-4],"split_indices":[35,34,22,22,22,34,16,0,0,0,0,0,0,0,0],"split_type":[0,0,0,0,0,0,0,0,0,0,0,0,0,0,0],"sum_hessian":[1.0229567E4,4.4824766E3,5.747091E3,2.2963037E3,2.186173E3,9.740426E2,4.7730483E3,6.086359E2,1.6876677E3,1.1880917E3,9.9808136E2,5.859055E2,3.8813712E2,3.9850745E3,7.879737E2],"tree_param":{"num_deleted":"0","num_feature":"46","num_nodes":"15","size_leaf_vector":"1"}},{"base_weights":[2.8084134E-4,-1.06813364E-1,1.2081612E-1,-6.6534474E-2,-1.6968966E-1,7.010636E-2,1.5044262E-1,-4.4053462E-3,-8.6166995E-4,-6.078878E-3,-3.8571437E-4,4.6945172E-3,1.2751077E-3,4.7519687E-3,5.038774E-4],"categories":[],"categories_nodes":[],"categories_segments":[],"categories_sizes":[],"default_left":[0,0,1,0,1,1,0,0,0,0,0,0,0,0,0],"id":32,"left_children":[1,3,5,7,9,11,13,-1,-1,-1,-1,-1,-1,-1,-1],"loss_changes":[1.6986514E2,1.7590698E1,9.248344E0,1.2901499E1,1.402597E1,5.4326315E0,4.137451E0,0E0,0E0,0E0,0E0,0E0,0E0,0E0,0E0],"parents":[2147483647,0,0,1,1,2,2,3,3,4,4,5,5,6,6],"right_children":[2,4,6,8,10,12,14,-1,-1,-1,-1,-1,-1,-1,-1],"split_conditions":[-1.8839146E-1,-1.7744954E-1,1.6934513E-1,-7.6763743E-1,-1.3104987E-1,-1.0359954E0,3.601964E0,-4.4053462E-3,-8.6166995E-4,-6.078878E-3,-3.8571437E-4,4.6945172E-3,1.2751077E-3,4.7519687E-3,5.038774E-4],"split_indices":[20,32,20,20,32,18,32,0,0,0,0,0,0,0,0],"split_type":[0,0,0,0,0,0,0,0,0,0,0,0,0,0,0],"sum_hessian":[1.3149039E4,6.963033E3,6.1860054E3,4.250458E3,2.712575E3,2.2874888E3,3.8985164E3,1.3559966E3,2.8944617E3,2.2405344E3,4.720407E2,5.483104E2,1.7391785E3,3.678594E3,2.1992238E2],"tree_param":{"num_deleted":"0","num_feature":"46","num_nodes":"15","size_leaf_vector":"1"}},{"base_weights":[1.2833502E-3,-9.724663E-2,8.076792E-2,-4.552687E-1,-8.752176E-2,3.232125E-2,1.3383767E-1,-2.0454789E-2,-9.9170115E-3,-3.252624E-3,-7.552539E-4,2.1698412E-3,-3.8479568E-4,4.8594126E-3,3.2151788E-3],"categories":[],"categories_nodes":[],"categories_segments":[],"categories_sizes":[],"default_left":[0,0,1,1,1,0,1,0,0,0,0,0,0,0,0],"id":33,"left_children":[1,3,5,7,9,11,13,-1,-1,-1,-1,-1,-1,-1,-1],"loss_changes":[1.2225283E2,2.4068565E1,2.2192509E1,4.046852E0,8.836147E0,8.174835E0,3.0062485E0,0E0,0E0,0E0,0E0,0E0,0E0,0E0,0E0],"parents":[2147483647,0,0,1,1,2,2,3,3,4,4,5,5,6,6],"right_children":[2,4,6,8,10,12,14,-1,-1,-1,-1,-1,-1,-1,-1],"split_conditions":[-3.2671285E-1,-1.3687993E0,2.6071817E-1,-2.9434484E-1,1.3114709E-1,-7.5896354E-3,-7.2386926E-1,-2.0454789E-2,-9.9170115E-3,-3.252624E-3,-7.552539E-4,2.1698412E-3,-3.8479568E-4,4.8594126E-3,3.2151788E-3],"split_indices":[20,10,20,18,16,23,18,0,0,0,0,0,0,0,0],"split_type":[0,0,0,0,0,0,0,0,0,0,0,0,0,0,0],"sum_hessian":[1.5600157E4,6.9650654E3,8.635092E3,1.7812964E2,6.786936E3,4.5183735E3,4.1167183E3,5.530797E1,1.2282166E2,5.0802905E3,1.7066453E3,2.3939832E3,2.1243904E3,1.9905175E3,2.126201E3],"tree_param":{"num_deleted":"0","num_feature":"46","num_nodes":"15","size_leaf_vector":"1"}},{"base_weights":[-1.0776039E-3,-2.2274032E-1,1.9852613E-1,-7.012705E-2,-3.9483294E-1,-3.129287E-2,2.6206982E-1,-8.925028E-3,1.502574E-4,-1.4351978E-2,-8.992528E-3,-5.7520443E-3,1.4459157E-3,1.0257106E-2,1.1695278E-3],"categories":[],"categories_nodes":[],"categories_segments":[],"categories_sizes":[],"default_left":[0,0,0,1,1,0,1,0,0,0,0,0,0,0,0],"id":34,"left_children":[1,3,5,7,9,11,13,-1,-1,-1,-1,-1,-1,-1,-1],"loss_changes":[4.5280734E2,1.27216965E2,7.868167E1,4.401707E1,1.7383453E1,1.4979212E1,7.507544E1,0E0,0E0,0E0,0E0,0E0,0E0,0E0,0E0],"parents":[2147483647,0,0,1,1,2,2,3,3,4,4,5,5,6,6],"right_children":[2,4,6,8,10,12,14,-1,-1,-1,-1,-1,-1,-1,-1],"split_conditions":[2.4656986E-1,5.8602532E-3,0E0,-6.856028E-1,-4.4355807E-1,-6.4841413E-1,4.7022066E-1,-8.925028E-3,1.502574E-4,-1.4351978E-2,-8.992528E-3,-5.7520443E-3,1.4459157E-3,1.0257106E-2,1.1695278E-3],"split_indices":[35,34,22,22,22,22,12,0,0,0,0,0,0,0,0],"split_type":[0,0,0,0,0,0,0,0,0,0,0,0,0,0,0],"sum_hessian":[1.0224161E4,4.8441196E3,5.3800415E3,2.5710908E3,2.2730288E3,1.1658911E3,4.214151E3,6.349179E2,1.936173E3,1.1990458E3,1.0739829E3,3.839235E2,7.819676E2,3.1015588E3,1.1125917E3],"tree_param":{"num_deleted":"0","num_feature":"46","num_nodes":"15","size_leaf_vector":"1"}},{"base_weights":[8.796262E-4,-1.0669338E-1,1.07489616E-1,-6.6199385E-2,-1.6817917E-1,4.9744446E-2,1.4105204E-1,-2.5867464E-3,1.6603803E-3,-5.8491067E-3,-5.418583E-4,1.7631147E-3,-4.8035313E-3,3.7026987E-3,6.207891E-3],"categories":[],"categories_nodes":[],"categories_segments":[],"categories_sizes":[],"default_left":[0,0,1,0,1,1,1,0,0,0,0,0,0,0,0],"id":35,"left_children":[1,3,5,7,9,11,13,-1,-1,-1,-1,-1,-1,-1,-1],"loss_changes":[1.5100471E2,1.6262405E1,1.2781578E1,9.661961E0,1.0435814E1,4.666202E0,4.7262115E0,0E0,0E0,0E0,0E0,0E0,0E0,0E0,0E0],"parents":[2147483647,0,0,1,1,2,2,3,3,4,4,5,5,6,6],"right_children":[2,4,6,8,10,12,14,-1,-1,-1,-1,-1,-1,-1,-1],"split_conditions":[-2.219049E-1,-1.7893891E-1,1.3304256E-1,3.6549857E-1,-1.2815553E-1,1.7506398E0,5.920208E-1,-2.5867464E-3,1.6603803E-3,-5.8491067E-3,-5.418583E-4,1.7631147E-3,-4.8035313E-3,3.7026987E-3,6.207891E-3],"split_indices":[10,32,10,18,32,29,23,0,0,0,0,0,0,0,0],"split_type":[0,0,0,0,0,0,0,0,0,0,0,0,0,0,0],"sum_hessian":[1.3157073E4,6.5489565E3,6.608117E3,3.954766E3,2.5941902E3,2.4335427E3,4.1745747E3,3.3966035E3,5.581625E2,2.2000574E3,3.9413278E2,2.3366448E3,9.68979E1,3.3046294E3,8.69945E2],"tree_param":{"num_deleted":"0","num_feature":"46","num_nodes":"15","size_leaf_vector":"1"}},{"base_weights":[8.4831414E-4,4.385752E-2,-1.01348035E-1,1.3321097E-1,1.0362694E-2,-9.285674E-2,-4.070156E-1,4.1924985E-3,-4.9569743E-4,-9.878414E-4,1.6661572E-3,-6.2460685E-4,-3.6414887E-3,-2.0630568E-2,-7.813068E-3],"categories":[],"categories_nodes":[],"categories_segments":[],"categories_sizes":[],"default_left":[0,0,0,0,0,0,1,0,0,0,0,0,0,0,0],"id":36,"left_children":[1,3,5,7,9,11,13,-1,-1,-1,-1,-1,-1,-1,-1],"loss_changes":[6.84912E1,3.2815956E1,1.1790585E1,2.9388466E0,1.56199875E1,9.228821E0,4.176016E0,0E0,0E0,0E0,0E0,0E0,0E0,0E0,0E0],"parents":[2147483647,0,0,1,1,2,2,3,3,4,4,5,5,6,6],"right_children":[2,4,6,8,10,12,14,-1,-1,-1,-1,-1,-1,-1,-1],"split_conditions":[5.307516E-1,-7.415337E-1,1.3817619E0,1.9661319E0,-1.9576241E-1,-3.188353E-1,-1.4619061E0,4.1924985E-3,-4.9569743E-4,-9.878414E-4,1.6661572E-3,-6.2460685E-4,-3.6414887E-3,-2.0630568E-2,-7.813068E-3],"split_indices":[35,22,35,31,34,17,23,0,0,0,0,0,0,0,0],"split_type":[0,0,0,0,0,0,0,0,0,0,0,0,0,0,0],"sum_hessian":[1.5572475E4,1.0961989E4,4.6104854E3,2.9847498E3,7.9772397E3,4.492213E3,1.1827251E2,2.8601772E3,1.2457256E2,4.074306E3,3.9029338E3,1.276741E3,3.2154717E3,3.4244255E1,8.402825E1],"tree_param":{"num_deleted":"0","num_feature":"46","num_nodes":"15","size_leaf_vector":"1"}},{"base_weights":[-2.848737E-3,2.5455594E-1,-2.6419315E-1,9.05894E-1,2.3493017E-1,-9.9702604E-2,-3.937564E-1,1.2087783E-2,3.173644E-2,4.3838355E-3,9.656068E-3,-4.93156E-3,1.2418802E-3,-1.2224528E-2,1.8915443E-3],"categories":[],"categories_nodes":[],"categories_segments":[],"categories_sizes":[],"default_left":[0,0,1,0,0,1,0,0,0,0,0,0,0,0,0],"id":37,"left_children":[1,3,5,7,9,11,13,-1,-1,-1,-1,-1,-1,-1,-1],"loss_changes":[6.8879663E2,6.4876465E1,1.0808185E2,9.2693405E0,3.8477173E1,2.052588E1,1.7940338E1,0E0,0E0,0E0,0E0,0E0,0E0,0E0,0E0],"parents":[2147483647,0,0,1,1,2,2,3,3,4,4,5,5,6,6],"right_children":[2,4,6,8,10,12,14,-1,-1,-1,-1,-1,-1,-1,-1],"split_conditions":[-2.7739432E-1,-1.3687993E0,1.4317478E-1,-5.2896213E-2,-1.9186991E-1,0E0,2.1469958E0,1.2087783E-2,3.173644E-2,4.3838355E-3,9.656068E-3,-4.93156E-3,1.2418802E-3,-1.2224528E-2,1.8915443E-3],"split_indices":[10,10,10,23,32,27,31,0,0,0,0,0,0,0,0],"split_type":[0,0,0,0,0,0,0,0,0,0,0,0,0,0,0],"sum_hessian":[1.0229091E4,5.153454E3,5.0756367E3,1.4413475E2,5.0093193E3,2.2402786E3,2.8353584E3,3.7683838E1,1.0645091E2,2.4847314E3,2.5245881E3,1.5355316E3,7.047469E2,2.7531611E3,8.2197365E1],"tree_param":{"num_deleted":"0","num_feature":"46","num_nodes":"15","size_leaf_vector":"1"}},{"base_weights":[1.1080232E-3,-1.0360191E-1,1.18101254E-1,-2.9203549E-2,-1.338628E-1,6.3392356E-2,1.455837E-1,-1.194187E-3,6.2452867E-3,-2.7699715E-3,-6.0611693E-3,1.5766693E-4,3.087216E-3,4.447814E-3,-8.165497E-3],"categories":[],"categories_nodes":[],"categories_segments":[],"categories_sizes":[],"default_left":[0,0,1,1,0,0,0,0,0,0,0,0,0,0,0],"id":38,"left_children":[1,3,5,7,9,11,13,-1,-1,-1,-1,-1,-1,-1,-1],"loss_changes":[1.6121745E2,1.5615501E1,9.299118E0,5.111324E0,1.3880569E1,4.79204E0,4.8239746E0,0E0,0E0,0E0,0E0,0E0,0E0,0E0,0E0],"parents":[2147483647,0,0,1,1,2,2,3,3,4,4,5,5,6,6],"right_children":[2,4,6,8,10,12,14,-1,-1,-1,-1,-1,-1,-1,-1],"split_conditions":[-1.8839146E-1,2.6521623E-1,1.2043535E-1,1.1390611E0,-1.7744954E-1,3.875477E-4,8.00001E0,-1.194187E-3,6.2452867E-3,-2.7699715E-3,-6.0611693E-3,1.5766693E-4,3.087216E-3,4.447814E-3,-8.165497E-3],"split_indices":[20,35,20,11,32,45,31,0,0,0,0,0,0,0,0],"split_type":[0,0,0,0,0,0,0,0,0,0,0,0,0,0,0],"sum_hessian":[1.3150234E4,6.9397085E3,6.2105254E3,2.0093694E3,4.9303394E3,2.0821514E3,4.128374E3,1.9274408E3,8.192853E1,3.0712307E3,1.8591086E3,8.448374E2,1.237314E3,4.105296E3,2.3078417E1],"tree_param":{"num_deleted":"0","num_feature":"46","num_nodes":"15","size_leaf_vector":"1"}},{"base_weights":[1.0005211E-3,4.4960745E-2,-9.759195E-2,1.0817953E-1,2.8901226E-3,-8.7483056E-2,-3.4559828E-1,1.5264144E-3,4.1890843E-3,-9.89538E-4,1.3806206E-3,-3.161362E-3,-3.1495228E-4,-1.8586474E-2,-6.223329E-3],"categories":[],"categories_nodes":[],"categories_segments":[],"categories_sizes":[],"default_left":[0,1,0,0,0,1,1,0,0,0,0,0,0,0,0],"id":39,"left_children":[1,3,5,7,9,11,13,-1,-1,-1,-1,-1,-1,-1,-1],"loss_changes":[6.760544E1,2.8690933E1,1.1908356E1,7.733795E0,1.0038094E1,6.3711395E0,6.4232597E0,0E0,0E0,0E0,0E0,0E0,0E0,0E0,0E0],"parents":[2147483647,0,0,1,1,2,2,3,3,4,4,5,5,6,6],"right_children":[2,4,6,8,10,12,14,-1,-1,-1,-1,-1,-1,-1,-1],"split_conditions":[5.140008E-1,-3.245802E-1,1.3092399E0,-1.501661E-1,-1.714783E-1,5.238173E-1,-8.2402855E-1,1.5264144E-3,4.1890843E-3,-9.89538E-4,1.3806206E-3,-3.161362E-3,-3.1495228E-4,-1.8586474E-2,-6.223329E-3],"split_indices":[35,22,35,34,34,12,18,0,0,0,0,0,0,0,0],"split_type":[0,0,0,0,0,0,0,0,0,0,0,0,0,0,0],"sum_hessian":[1.5588264E4,1.0783055E4,4.805208E3,4.3054595E3,6.4775957E3,4.6235146E3,1.8169368E2,1.530571E3,2.7748884E3,3.5368909E3,2.9407046E3,3.7499626E3,8.7355176E2,5.5070282E1,1.26623405E2],"tree_param":{"num_deleted":"0","num_feature":"46","num_nodes":"15","size_leaf_vector":"1"}},{"base_weights":[-1.6974274E-3,1.5606195E-1,-2.4344735E-1,-8.8981695E-2,2.3430236E-1,-4.0750948E-1,-1.001256E-1,-6.673066E-3,8.8912033E-4,9.1030495E-3,-4.2765174E-4,-1.3990692E-2,-9.666278E-3,4.1560284E-4,-8.78652E-3],"categories":[],"categories_nodes":[],"categories_segments":[],"categories_sizes":[],"default_left":[0,0,1,0,1,0,0,0,0,0,0,0,0,0,0],"id":40,"left_children":[1,3,5,7,9,11,13,-1,-1,-1,-1,-1,-1,-1,-1],"loss_changes":[3.9000705E2,1.1874318E2,9.474669E1,2.3797787E1,8.064279E1,8.691589E0,4.7518456E1,0E0,0E0,0E0,0E0,0E0,0E0,0E0,0E0],"parents":[2147483647,0,0,1,1,2,2,3,3,4,4,5,5,6,6],"right_children":[2,4,6,8,10,12,14,-1,-1,-1,-1,-1,-1,-1,-1],"split_conditions":[-1.5564442E-1,-1.4410876E-1,-1.6772695E-1,-6.668827E-1,5.348333E-1,-8.9426583E-1,7.2725546E-1,-6.673066E-3,8.8912033E-4,9.1030495E-3,-4.2765174E-4,-1.3990692E-2,-9.666278E-3,4.1560284E-4,-8.78652E-3],"split_indices":[34,22,22,22,12,22,12,0,0,0,0,0,0,0,0],"split_type":[0,0,0,0,0,0,0,0,0,0,0,0,0,0,0],"sum_hessian":[1.021614E4,6.1830337E3,4.0331062E3,1.4962365E3,4.6867974E3,1.8761912E3,2.156915E3,7.020313E2,7.9420514E2,3.6660378E3,1.0207593E3,1.0970332E3,7.7915796E2,1.3583539E3,7.9856104E2],"tree_param":{"num_deleted":"0","num_feature":"46","num_nodes":"15","size_leaf_vector":"1"}},{"base_weights":[-1.6172074E-3,-1.0654279E-1,1.1156367E-1,-6.707067E-2,-1.6533627E-1,5.665993E-2,1.4042445E-1,-8.85143E-3,-1.639547E-3,-5.911602E-3,-2.0663298E-4,-1.4315244E-4,2.9702694E-3,4.2870534E-3,-7.315333E-3],"categories":[],"categories_nodes":[],"categories_segments":[],"categories_sizes":[],"default_left":[0,0,1,0,1,0,0,0,0,0,0,0,0,0,0],"id":41,"left_children":[1,3,5,7,9,11,13,-1,-1,-1,-1,-1,-1,-1,-1],"loss_changes":[1.5614961E2,1.577919E1,9.983528E0,1.1501587E1,1.3750046E1,5.6942043E0,4.1179733E0,0E0,0E0,0E0,0E0,0E0,0E0,0E0,0E0],"parents":[2147483647,0,0,1,1,2,2,3,3,4,4,5,5,6,6],"right_children":[2,4,6,8,10,12,14,-1,-1,-1,-1,-1,-1,-1,-1],"split_conditions":[-2.0093438E-1,-1.7893891E-1,1.2043535E-1,-1.1902814E0,-1.3104987E-1,3.875477E-4,8.00001E0,-8.85143E-3,-1.639547E-3,-5.911602E-3,-2.0663298E-4,-1.4315244E-4,2.9702694E-3,4.2870534E-3,-7.315333E-3],"split_indices":[20,32,20,20,32,45,31,0,0,0,0,0,0,0,0],"split_type":[0,0,0,0,0,0,0,0,0,0,0,0,0,0,0],"sum_hessian":[1.3138806E4,6.8182056E3,6.3205996E3,4.085818E3,2.7323877E3,2.182846E3,4.137754E3,2.0519904E2,3.8806191E3,2.275646E3,4.5674158E2,8.925486E2,1.2902974E3,4.1143696E3,2.338419E1],"tree_param":{"num_deleted":"0","num_feature":"46","num_nodes":"15","size_leaf_vector":"1"}},{"base_weights":[1.3973787E-3,-8.8727966E-2,8.346768E-2,-4.68458E-1,-8.223806E-2,4.185801E-2,1.291075E-1,-4.740879E-3,-1.5891695E-2,-3.0965458E-3,-5.5680313E-4,2.424324E-3,-8.916065E-5,4.9760425E-3,3.3013888E-3],"categories":[],"categories_nodes":[],"categories_segments":[],"categories_sizes":[],"default_left":[0,0,1,0,1,0,0,0,0,0,0,0,0,0,0],"id":42,"left_children":[1,3,5,7,9,11,13,-1,-1,-1,-1,-1,-1,-1,-1],"loss_changes":[1.1531229E2,1.811877E1,1.5468403E1,1.9357777E0,9.758446E0,7.4675097E0,2.6336975E0,0E0,0E0,0E0,0E0,0E0,0E0,0E0,0E0],"parents":[2147483647,0,0,1,1,2,2,3,3,4,4,5,5,6,6],"right_children":[2,4,6,8,10,12,14,-1,-1,-1,-1,-1,-1,-1,-1],"split_conditions":[-2.8330222E-1,-1.4112395E0,3.1543764E-1,-6.28949E-3,1.3114709E-1,-3.5654973E-2,-5.8564293E-1,-4.740879E-3,-1.5891695E-2,-3.0965458E-3,-5.5680313E-4,2.424324E-3,-8.916065E-5,4.9760425E-3,3.3013888E-3],"split_indices":[20,20,20,17,16,16,16,0,0,0,0,0,0,0,0],"split_type":[0,0,0,0,0,0,0,0,0,0,0,0,0,0,0],"sum_hessian":[1.5579869E4,7.4253403E3,8.154529E3,1.18792046E2,7.3065483E3,4.270613E3,3.8839163E3,2.2530062E1,9.626198E1,5.49349E3,1.8130583E3,2.2829478E3,1.987665E3,1.3130735E3,2.5708428E3],"tree_param":{"num_deleted":"0","num_feature":"46","num_nodes":"15","size_leaf_vector":"1"}},{"base_weights":[-1.0427296E-3,1.4884384E-1,-2.4793871E-1,-2.169471E-1,1.9959065E-1,-4.2847854E-1,-1.182893E-1,-7.4376976E-3,4.6143373E-3,7.366898E-3,-2.1553137E-3,-1.0781604E-2,-1.4362975E-2,-9.5643796E-4,-1.00582E-2],"categories":[],"categories_nodes":[],"categories_segments":[],"categories_sizes":[],"default_left":[0,0,1,0,1,1,0,0,0,0,0,0,0,0,0],"id":43,"left_children":[1,3,5,7,9,11,13,-1,-1,-1,-1,-1,-1,-1,-1],"loss_changes":[3.7861893E2,1.18392715E2,9.0211136E1,9.125793E0,6.988466E1,4.745636E0,4.225183E1,0E0,0E0,0E0,0E0,0E0,0E0,0E0,0E0],"parents":[2147483647,0,0,1,1,2,2,3,3,4,4,5,5,6,6],"right_children":[2,4,6,8,10,12,14,-1,-1,-1,-1,-1,-1,-1,-1],"split_conditions":[-1.3323352E-1,-6.292431E-1,-3.5268846E-1,1.9661319E0,6.665821E-1,3.5939157E-1,9.5490015E-1,-7.4376976E-3,4.6143373E-3,7.366898E-3,-2.1553137E-3,-1.0781604E-2,-1.4362975E-2,-9.5643796E-4,-1.00582E-2],"split_indices":[34,22,22,31,12,45,12,0,0,0,0,0,0,0,0],"split_type":[0,0,0,0,0,0,0,0,0,0,0,0,0,0,0],"sum_hessian":[1.0221189E4,6.36132E3,3.8598694E3,7.730049E2,5.588315E3,1.6084878E3,2.2513816E3,7.1493036E2,5.807455E1,4.7793223E3,8.0899286E2,6.94719E2,9.137688E2,1.6142749E3,6.371067E2],"tree_param":{"num_deleted":"0","num_feature":"46","num_nodes":"15","size_leaf_vector":"1"}},{"base_weights":[-6.2440673E-4,-9.8437816E-2,1.0470462E-1,-2.7891764E-2,-1.226021E-1,5.5157274E-2,1.3696983E-1,-1.7457292E-3,1.6777692E-3,-4.210094E-3,1.297534E-3,1.8655517E-3,-5.3983987E-3,1.2785179E-3,4.4711055E-3],"categories":[],"categories_nodes":[],"categories_segments":[],"categories_sizes":[],"default_left":[0,0,1,1,1,0,1,0,0,0,0,0,0,0,0],"id":44,"left_children":[1,3,5,7,9,11,13,-1,-1,-1,-1,-1,-1,-1,-1],"loss_changes":[1.3539198E2,1.1598442E1,1.0078026E1,4.4477515E0,1.4954231E1,4.193017E0,4.327545E0,0E0,0E0,0E0,0E0,0E0,0E0,0E0,0E0],"parents":[2147483647,0,0,1,1,2,2,3,3,4,4,5,5,6,6],"right_children":[2,4,6,8,10,12,14,-1,-1,-1,-1,-1,-1,-1,-1],"split_conditions":[-1.8501817E-1,7.5866975E-2,2.1383369E-1,-3.7705845E-1,8.771633E-1,8.754904E-1,-9.885133E-1,-1.7457292E-3,1.6777692E-3,-4.210094E-3,1.297534E-3,1.8655517E-3,-5.3983987E-3,1.2785179E-3,4.4711055E-3],"split_indices":[10,22,10,11,12,35,45,0,0,0,0,0,0,0,0],"split_type":[0,0,0,0,0,0,0,0,0,0,0,0,0,0,0],"sum_hessian":[1.3131545E4,6.8088545E3,6.3226904E3,1.739951E3,5.0689033E3,2.4988843E3,3.8238062E3,1.2790978E3,4.6085327E2,4.5799478E3,4.8895575E2,2.4299258E3,6.895845E1,4.3615417E2,3.387652E3],"tree_param":{"num_deleted":"0","num_feature":"46","num_nodes":"15","size_leaf_vector":"1"}},{"base_weights":[4.89909E-4,-8.8406965E-2,8.1890486E-2,-4.6754014E-1,-8.197899E-2,3.730665E-2,1.2532413E-1,-5.22805E-3,-1.5791422E-2,-3.1250748E-3,-6.728955E-4,2.2036918E-3,-3.8761398E-4,4.5571453E-3,2.9905513E-3],"categories":[],"categories_nodes":[],"categories_segments":[],"categories_sizes":[],"default_left":[0,0,1,0,1,1,1,0,0,0,0,0,0,0,0],"id":45,"left_children":[1,3,5,7,9,11,13,-1,-1,-1,-1,-1,-1,-1,-1],"loss_changes":[1.1286106E2,1.797673E1,1.5742249E1,1.6677532E0,9.683231E0,7.3123865E0,2.7333527E0,0E0,0E0,0E0,0E0,0E0,0E0,0E0,0E0],"parents":[2147483647,0,0,1,1,2,2,3,3,4,4,5,5,6,6],"right_children":[2,4,6,8,10,12,14,-1,-1,-1,-1,-1,-1,-1,-1],"split_conditions":[-2.8330222E-1,-1.4112395E0,2.6071817E-1,-6.28949E-3,8.859968E-2,-3.5654973E-2,-6.988774E-1,-5.22805E-3,-1.5791422E-2,-3.1250748E-3,-6.728955E-4,2.2036918E-3,-3.8761398E-4,4.5571453E-3,2.9905513E-3],"split_indices":[20,20,20,17,16,16,18,0,0,0,0,0,0,0,0],"split_type":[0,0,0,0,0,0,0,0,0,0,0,0,0,0,0],"sum_hessian":[1.5586604E4,7.450044E3,8.1365596E3,1.1822544E2,7.331819E3,4.0197026E3,4.116857E3,2.3066504E1,9.515894E1,5.3386846E3,1.9931344E3,2.336065E3,1.6836378E3,2.0092201E3,2.107637E3],"tree_param":{"num_deleted":"0","num_feature":"46","num_nodes":"15","size_leaf_vector":"1"}},{"base_weights":[-1.581704E-3,1.4779441E-1,-2.3450461E-1,-5.7671946E-2,2.3209143E-1,-4.1685885E-1,-1.0751984E-1,-6.505875E-3,1.2318791E-3,1.1503752E-2,3.5502056E-3,-8.915478E-3,-1.3472839E-2,-6.0257677E-4,-1.001144E-2],"categories":[],"categories_nodes":[],"categories_segments":[],"categories_sizes":[],"default_left":[0,0,1,0,1,0,0,0,0,0,0,0,0,0,0],"id":46,"left_children":[1,3,5,7,9,11,13,-1,-1,-1,-1,-1,-1,-1,-1],"loss_changes":[3.5597668E2,1.0803429E2,9.234633E1,2.8610754E1,7.589711E1,5.6569214E0,4.6706493E1,0E0,0E0,0E0,0E0,0E0,0E0,0E0,0E0],"parents":[2147483647,0,0,1,1,2,2,3,3,4,4,5,5,6,6],"right_children":[2,4,6,8,10,12,14,-1,-1,-1,-1,-1,-1,-1,-1],"split_conditions":[-1.5564442E-1,-4.03034E-3,-3.5268846E-1,-6.668827E-1,4.2860314E-2,5.82748E-2,9.5490015E-1,-6.505875E-3,1.2318791E-3,1.1503752E-2,3.5502056E-3,-8.915478E-3,-1.3472839E-2,-6.0257677E-4,-1.001144E-2],"split_indices":[34,22,22,22,12,34,12,0,0,0,0,0,0,0,0],"split_type":[0,0,0,0,0,0,0,0,0,0,0,0,0,0,0],"sum_hessian":[1.0221258E4,6.2286084E3,3.9926501E3,1.812466E3,4.416142E3,1.6343116E3,2.3583384E3,6.915279E2,1.120938E3,1.8896973E3,2.526445E3,3.5764413E2,1.2766676E3,1.7048032E3,6.5353516E2],"tree_param":{"num_deleted":"0","num_feature":"46","num_nodes":"15","size_leaf_vector":"1"}},{"base_weights":[-2.499987E-4,-6.420281E-2,8.7727286E-2,4.497737E-2,-1.03209056E-1,6.24967E-2,1.5352336E-1,-1.1923093E-3,2.1483274E-3,-3.7313893E-3,2.1106738E-3,3.1997177E-3,-2.8763607E-4,4.8833475E-3,-6.785092E-4],"categories":[],"categories_nodes":[],"categories_segments":[],"categories_sizes":[],"default_left":[0,0,0,1,1,1,0,0,0,0,0,0,0,0,0],"id":47,"left_children":[1,3,5,7,9,11,13,-1,-1,-1,-1,-1,-1,-1,-1],"loss_changes":[7.3964096E1,3.2441856E1,9.138191E0,4.5433817E0,2.0657852E1,1.2764507E1,2.5131378E0,0E0,0E0,0E0,0E0,0E0,0E0,0E0,0E0],"parents":[2147483647,0,0,1,1,2,2,3,3,4,4,5,5,6,6],"right_children":[2,4,6,8,10,12,14,-1,-1,-1,-1,-1,-1,-1,-1],"split_conditions":[-1.4465033E-1,-1.4410876E-1,7.4264574E-1,-1.0883709E0,8.771633E-1,0E0,1.1747084E0,-1.1923093E-3,2.1483274E-3,-3.7313893E-3,2.1106738E-3,3.1997177E-3,-2.8763607E-4,4.8833475E-3,-6.785092E-4],"split_indices":[34,22,12,23,12,22,32,0,0,0,0,0,0,0,0],"split_type":[0,0,0,0,0,0,0,0,0,0,0,0,0,0,0],"sum_hessian":[1.3135909E4,7.6073174E3,5.528592E3,2.0022281E3,5.6050894E3,4.003235E3,1.5253568E3,4.7829993E2,1.5239282E3,4.996997E3,6.080923E2,2.4809521E3,1.5222828E3,1.4495717E3,7.578517E1],"tree_param":{"num_deleted":"0","num_feature":"46","num_nodes":"15","size_leaf_vector":"1"}},{"base_weights":[1.628522E-4,4.2635884E-2,-9.7045384E-2,1.227156E-1,1.2291214E-2,-8.911794E-2,-3.8828886E-1,4.9526785E-3,2.801821E-3,1.1263362E-4,4.377615E-3,-6.103845E-4,-3.531889E-3,-1.8496023E-2,-6.536075E-3],"categories":[],"categories_nodes":[],"categories_segments":[],"categories_sizes":[],"default_left":[0,0,0,1,1,0,1,0,0,0,0,0,0,0,0],"id":48,"left_children":[1,3,5,7,9,11,13,-1,-1,-1,-1,-1,-1,-1,-1],"loss_changes":[6.4376854E1,2.6360792E1,1.0773548E1,3.6271324E0,8.980576E0,9.082748E0,4.157242E0,0E0,0E0,0E0,0E0,0E0,0E0,0E0,0E0],"parents":[2147483647,0,0,1,1,2,2,3,3,4,4,5,5,6,6],"right_children":[2,4,6,8,10,12,14,-1,-1,-1,-1,-1,-1,-1,-1],"split_conditions":[5.1953566E-1,-7.415337E-1,1.3817619E0,-8.444828E-1,3.300416E-3,-3.1101036E-1,-8.2402855E-1,4.9526785E-3,2.801821E-3,1.1263362E-4,4.377615E-3,-6.103845E-4,-3.531889E-3,-1.8496023E-2,-6.536075E-3],"split_indices":[35,22,35,18,32,17,18,0,0,0,0,0,0,0,0],"split_type":[0,0,0,0,0,0,0,0,0,0,0,0,0,0,0],"sum_hessian":[1.5582405E4,1.08462E4,4.7362056E3,2.9763582E3,7.8698423E3,4.6170625E3,1.191432E2,1.2077877E3,1.7685704E3,7.402107E3,4.6773495E2,1.3590267E3,3.2580356E3,4.5335754E1,7.380744E1],"tree_param":{"num_deleted":"0","num_feature":"46","num_nodes":"15","size_leaf_vector":"1"}},{"base_weights":[-1.1419955E-3,-2.3101355E-1,1.6965492E-1,-4.1206867E-1,-1.3117923E-1,1.0662758E-2,2.4825498E-1,-8.184881E-3,-1.3246405E-2,-1.5004602E-3,-9.968137E-3,1.7551387E-3,-7.3297652E-3,9.632793E-3,-2.9051295E-4],"categories":[],"categories_nodes":[],"categories_segments":[],"categories_sizes":[],"default_left":[0,1,0,0,0,1,1,0,0,0,0,0,0,0,0],"id":49,"left_children":[1,3,5,7,9,11,13,-1,-1,-1,-1,-1,-1,-1,-1],"loss_changes":[4.0127274E2,7.848123E1,7.326491E1,5.7439575E0,4.5872047E1,2.3799572E1,7.3732956E1,0E0,0E0,0E0,0E0,0E0,0E0,0E0,0E0],"parents":[2147483647,0,0,1,1,2,2,3,3,4,4,5,5,6,6],"right_children":[2,4,6,8,10,12,14,-1,-1,-1,-1,-1,-1,-1,-1],"split_conditions":[1.8338323E-1,-6.856028E-1,2.557684E-1,-1.1227186E0,7.8948784E-1,6.755057E-4,6.0316104E-1,-8.184881E-3,-1.3246405E-2,-1.5004602E-3,-9.968137E-3,1.7551387E-3,-7.3297652E-3,9.632793E-3,-2.9051295E-4],"split_indices":[35,36,36,23,12,12,12,0,0,0,0,0,0,0,0],"split_type":[0,0,0,0,0,0,0,0,0,0,0,0,0,0,0],"sum_hessian":[1.02105625E4,4.351806E3,5.8587563E3,1.5411704E3,2.8106355E3,1.9400673E3,3.918689E3,2.782311E2,1.2629393E3,2.0068737E3,8.0376196E2,1.6368147E3,3.032526E2,3.0548264E3,8.638625E2],"tree_param":{"num_deleted":"0","num_feature":"46","num_nodes":"15","size_leaf_vector":"1"}},{"base_weights":[1.1401562E-3,-9.7833484E-2,1.106812E-1,-5.857082E-2,-1.5822715E-1,6.08879E-2,1.3557175E-1,-8.664309E-3,-1.3885639E-3,-5.6476593E-3,-3.978682E-4,1.9722846E-3,-8.037664E-3,4.138764E-3,-7.3070503E-3],"categories":[],"categories_nodes":[],"categories_segments":[],"categories_sizes":[],"default_left":[0,0,1,0,1,0,0,0,0,0,0,0,0,0,0],"id":50,"left_children":[1,3,5,7,9,11,13,-1,-1,-1,-1,-1,-1,-1,-1],"loss_changes":[1.4239062E2,1.6314232E1,7.6850204E0,1.1782792E1,1.1807686E1,3.4192204E0,3.9259262E0,0E0,0E0,0E0,0E0,0E0,0E0,0E0,0E0],"parents":[2147483647,0,0,1,1,2,2,3,3,4,4,5,5,6,6],"right_children":[2,4,6,8,10,12,14,-1,-1,-1,-1,-1,-1,-1,-1],"split_conditions":[-1.8839146E-1,-1.7791563E-1,1.2043535E-1,-1.1902814E0,-1.3104987E-1,4E0,8.00001E0,-8.664309E-3,-1.3885639E-3,-5.6476593E-3,-3.978682E-4,1.9722846E-3,-8.037664E-3,4.138764E-3,-7.3070503E-3],"split_indices":[20,32,20,20,32,32,31,0,0,0,0,0,0,0,0],"split_type":[0,0,0,0,0,0,0,0,0,0,0,0,0,0,0],"sum_hessian":[1.3123643E4,6.8946514E3,6.228991E3,4.184261E3,2.7103901E3,2.081734E3,4.1472573E3,2.0625726E2,3.978004E3,2.2440603E3,4.663299E2,2.055386E3,2.634773E1,4.1244707E3,2.2786995E1],"tree_param":{"num_deleted":"0","num_feature":"46","num_nodes":"15","size_leaf_vector":"1"}},{"base_weights":[2.0213919E-3,-8.3529115E-2,8.025796E-2,-4.577923E-1,-7.7252716E-2,3.8476385E-2,1.2612271E-1,-6.7439117E-3,-1.6970903E-2,-2.9687611E-3,-4.7500114E-4,2.2797694E-3,-1.6792177E-4,4.6156105E-3,3.0601462E-3],"categories":[],"categories_nodes":[],"categories_segments":[],"categories_sizes":[],"default_left":[0,0,1,0,1,0,0,0,0,0,0,0,0,0,0],"id":51,"left_children":[1,3,5,7,9,11,13,-1,-1,-1,-1,-1,-1,-1,-1],"loss_changes":[1.0445454E2,1.7334381E1,1.5596352E1,2.4298363E0,9.774593E0,7.067054E0,2.5189514E0,0E0,0E0,0E0,0E0,0E0,0E0,0E0,0E0],"parents":[2147483647,0,0,1,1,2,2,3,3,4,4,5,5,6,6],"right_children":[2,4,6,8,10,12,14,-1,-1,-1,-1,-1,-1,-1,-1],"split_conditions":[-2.8330222E-1,-1.4112395E0,3.1543764E-1,9.7814876E-1,1.0590105E-1,-2.304295E-2,-1.533019E-1,-6.7439117E-3,-1.6970903E-2,-2.9687611E-3,-4.7500114E-4,2.2797694E-3,-1.6792177E-4,4.6156105E-3,3.0601462E-3],"split_indices":[20,20,20,35,16,16,12,0,0,0,0,0,0,0,0],"split_type":[0,0,0,0,0,0,0,0,0,0,0,0,0,0,0],"sum_hessian":[1.559611E4,7.4496704E3,8.1464404E3,1.1693796E2,7.3327324E3,4.267791E3,3.8786497E3,4.189395E1,7.504401E1,5.4157246E3,1.9170074E3,2.3034531E3,1.9643378E3,1.7916702E3,2.0869797E3],"tree_param":{"num_deleted":"0","num_feature":"46","num_nodes":"15","size_leaf_vector":"1"}},{"base_weights":[-3.4653933E-3,2.090358E-1,-3.0705604E-1,9.6579665E-1,1.9555697E-1,-1.24486454E-1,-3.9307934E-1,3.282365E-2,1.8267991E-2,7.008679E-3,3.3527176E-4,-6.0263677E-3,-1.059532E-4,-8.713452E-3,-1.3286626E-2],"categories":[],"categories_nodes":[],"categories_segments":[],"categories_sizes":[],"default_left":[0,0,1,1,0,1,0,0,0,0,0,0,0,0,0],"id":52,"left_children":[1,3,5,7,9,11,13,-1,-1,-1,-1,-1,-1,-1,-1],"loss_changes":[6.594403E2,6.038974E1,6.585547E1,1.4293365E0,4.149518E1,1.251932E1,1.3969116E1,0E0,0E0,0E0,0E0,0E0,0E0,0E0,0E0],"parents":[2147483647,0,0,1,1,2,2,3,3,4,4,5,5,6,6],"right_children":[2,4,6,8,10,12,14,-1,-1,-1,-1,-1,-1,-1,-1],"split_conditions":[-1.7439432E-1,-1.4112395E0,8.902344E-2,-2.2379306E-1,-3.2671285E-1,0E0,4.3146282E-1,3.282365E-2,1.8267991E-2,7.008679E-3,3.3527176E-4,-6.0263677E-3,-1.059532E-4,-8.713452E-3,-1.3286626E-2],"split_indices":[20,20,20,32,20,17,20,0,0,0,0,0,0,0,0],"split_type":[0,0,0,0,0,0,0,0,0,0,0,0,0,0,0],"sum_hessian":[1.0211786E4,6.0079917E3,4.2037944E3,9.895513E1,5.9090366E3,1.3502847E3,2.8535098E3,6.518535E1,3.3769787E1,4.8967607E3,1.01227606E3,8.2556866E2,5.2471606E2,9.4352057E2,1.9099893E3],"tree_param":{"num_deleted":"0","num_feature":"46","num_nodes":"15","size_leaf_vector":"1"}},{"base_weights":[-9.449339E-4,7.307927E-2,-8.128907E-2,2.3187879E-3,1.10810414E-1,1.2582957E-3,-1.1419444E-1,-6.594466E-4,3.32977E-3,2.5610856E-3,4.93298E-3,-7.045267E-4,3.4354888E-3,-4.416106E-3,1.9047027E-4],"categories":[],"categories_nodes":[],"categories_segments":[],"categories_sizes":[],"default_left":[0,0,0,0,0,0,1,0,0,0,0,0,0,0,0],"id":53,"left_children":[1,3,5,7,9,11,13,-1,-1,-1,-1,-1,-1,-1,-1],"loss_changes":[7.823368E1,1.827781E1,1.713435E1,6.31356E0,6.021332E0,5.065267E0,1.7950394E1,0E0,0E0,0E0,0E0,0E0,0E0,0E0,0E0],"parents":[2147483647,0,0,1,1,2,2,3,3,4,4,5,5,6,6],"right_children":[2,4,6,8,10,12,14,-1,-1,-1,-1,-1,-1,-1,-1],"split_conditions":[2.6521623E-1,-2.1993864E-1,1.4818048E-1,4E0,6.155777E-1,4.0654507E-2,6.9301736E-1,-6.594466E-4,3.32977E-3,2.5610856E-3,4.93298E-3,-7.045267E-4,3.4354888E-3,-4.416106E-3,1.9047027E-4],"split_indices":[35,34,36,18,12,34,11,0,0,0,0,0,0,0,0],"split_type":[0,0,0,0,0,0,0,0,0,0,0,0,0,0,0],"sum_hessian":[1.3144249E4,6.8414263E3,6.3028228E3,2.3811523E3,4.460274E3,1.7977483E3,4.505074E3,1.949268E3,4.3188443E2,3.0338396E3,1.4264342E3,1.4786774E3,3.1907092E2,3.5357532E3,9.6932117E2],"tree_param":{"num_deleted":"0","num_feature":"46","num_nodes":"15","size_leaf_vector":"1"}},{"base_weights":[1.889968E-3,-8.760368E-2,7.498986E-2,-3.5415784E-1,-7.559472E-2,2.0549178E-2,1.1002919E-1,-3.5019962E-3,-1.3830213E-2,-2.846541E-3,-5.1221676E-4,-3.0488244E-4,2.44991E-3,3.779809E-3,1.7888428E-3],"categories":[],"categories_nodes":[],"categories_segments":[],"categories_sizes":[],"default_left":[0,0,1,0,1,0,1,0,0,0,0,0,0,0,0],"id":54,"left_children":[1,3,5,7,9,11,13,-1,-1,-1,-1,-1,-1,-1,-1],"loss_changes":[1.020227E2,2.2309872E1,1.636261E1,7.3645287E0,7.5727806E0,6.324597E0,4.163601E0,0E0,0E0,0E0,0E0,0E0,0E0,0E0,0E0],"parents":[2147483647,0,0,1,1,2,2,3,3,4,4,5,5,6,6],"right_children":[2,4,6,8,10,12,14,-1,-1,-1,-1,-1,-1,-1,-1],"split_conditions":[-3.2171765E-1,-1.2642529E0,5.2728456E-2,-2.0746298E-1,1.3114709E-1,4.2239004E-3,3.1098115E-1,-3.5019962E-3,-1.3830213E-2,-2.846541E-3,-5.1221676E-4,-3.0488244E-4,2.44991E-3,3.779809E-3,1.7888428E-3],"split_indices":[20,10,20,17,16,3,19,0,0,0,0,0,0,0,0],"split_type":[0,0,0,0,0,0,0,0,0,0,0,0,0,0,0],"sum_hessian":[1.5585067E4,7.006393E3,8.578675E3,2.9590692E2,6.7104863E3,3.3624146E3,5.21626E3,9.508521E1,2.0082172E2,5.044561E3,1.665925E3,2.2406082E3,1.1218065E3,3.9557761E3,1.2604836E3],"tree_param":{"num_deleted":"0","num_feature":"46","num_nodes":"15","size_leaf_vector":"1"}},{"base_weights":[-4.4199643E-3,2.0406023E-1,-3.0565688E-1,2.6163527E-1,6.602904E-3,-1.232792E-1,-3.8910785E-1,2.4405608E-2,7.281186E-3,2.5716731E-3,-4.5879576E-3,-5.8994014E-3,-2.4226231E-4,-9.007954E-3,-1.34238275E-2],"categories":[],"categories_nodes":[],"categories_segments":[],"categories_sizes":[],"default_left":[0,0,1,0,1,1,0,0,0,0,0,0,0,0,0],"id":55,"left_children":[1,3,5,7,9,11,13,-1,-1,-1,-1,-1,-1,-1,-1],"loss_changes":[6.416336E2,6.86358E1,6.335913E1,4.7848938E1,1.7336136E1,1.1141756E1,1.4178986E1,0E0,0E0,0E0,0E0,0E0,0E0,0E0,0E0],"parents":[2147483647,0,0,1,1,2,2,3,3,4,4,5,5,6,6],"right_children":[2,4,6,8,10,12,14,-1,-1,-1,-1,-1,-1,-1,-1],"split_conditions":[-1.7439432E-1,-3.250746E-1,7.97571E-2,-1.3687993E0,4.4882745E-3,0E0,5.3103405E-1,2.4405608E-2,7.281186E-3,2.5716731E-3,-4.5879576E-3,-5.8994014E-3,-2.4226231E-4,-9.007954E-3,-1.34238275E-2],"split_indices":[20,10,20,10,4,17,20,0,0,0,0,0,0,0,0],"split_type":[0,0,0,0,0,0,0,0,0,0,0,0,0,0,0],"sum_hessian":[1.0206816E4,6.0330635E3,4.173753E3,4.6698057E3,1.3632576E3,1.3141449E3,2.8596077E3,1.4789783E2,4.521908E3,9.1285205E2,4.5040555E2,8.0069055E2,5.134544E2,1.1458209E3,1.7137869E3],"tree_param":{"num_deleted":"0","num_feature":"46","num_nodes":"15","size_leaf_vector":"1"}},{"base_weights":[-2.0500213E-4,7.383732E-2,-7.924195E-2,-7.0878193E-3,1.0936815E-1,5.9146047E-2,-9.96917E-2,1.5338592E-3,-1.4984378E-3,2.4107834E-3,4.621109E-3,-8.840535E-4,3.122008E-3,-3.7393996E-3,4.1481695E-4],"categories":[],"categories_nodes":[],"categories_segments":[],"categories_sizes":[],"default_left":[0,0,0,0,0,1,1,0,0,0,0,0,0,0,0],"id":56,"left_children":[1,3,5,7,9,11,13,-1,-1,-1,-1,-1,-1,-1,-1],"loss_changes":[7.695449E1,1.9525997E1,1.8029526E1,5.1931796E0,6.0520363E0,3.287501E0,1.57123375E1,0E0,0E0,0E0,0E0,0E0,0E0,0E0,0E0],"parents":[2147483647,0,0,1,1,2,2,3,3,4,4,5,5,6,6],"right_children":[2,4,6,8,10,12,14,-1,-1,-1,-1,-1,-1,-1,-1],"split_conditions":[2.5878116E-1,-2.7182323E-1,-3.5268846E-1,-1.6477513E-1,3.1509858E-1,-1.2281346E0,6.9301736E-1,1.5338592E-3,-1.4984378E-3,2.4107834E-3,4.621109E-3,-8.840535E-4,3.122008E-3,-3.7393996E-3,4.1481695E-4],"split_indices":[35,34,22,21,12,19,11,0,0,0,0,0,0,0,0],"split_type":[0,0,0,0,0,0,0,0,0,0,0,0,0,0,0],"sum_hessian":[1.3139942E4,6.784504E3,6.355438E3,2.0711807E3,4.713323E3,8.170202E2,5.5384175E3,8.778462E2,1.1933344E3,2.8660535E3,1.84727E3,2.7542166E2,5.415986E2,4.5399146E3,9.9850323E2],"tree_param":{"num_deleted":"0","num_feature":"46","num_nodes":"15","size_leaf_vector":"1"}},{"base_weights":[9.873372E-4,-8.1090316E-2,7.5749375E-2,-4.4161856E-1,-7.5070135E-2,1.3998796E-2,1.0437651E-1,-4.451982E-3,-1.4995786E-2,-2.7170873E-3,-3.78783E-4,-5.4079323E-4,2.346142E-3,3.4426912E-3,1.057685E-3],"categories":[],"categories_nodes":[],"categories_segments":[],"categories_sizes":[],"default_left":[0,0,1,0,1,0,1,0,0,0,0,0,0,0,0],"id":57,"left_children":[1,3,5,7,9,11,13,-1,-1,-1,-1,-1,-1,-1,-1],"loss_changes":[9.580829E1,1.5987965E1,1.4436546E1,1.6991005E0,7.0850906E0,5.340597E0,3.9845695E0,0E0,0E0,0E0,0E0,0E0,0E0,0E0,0E0],"parents":[2147483647,0,0,1,1,2,2,3,3,4,4,5,5,6,6],"right_children":[2,4,6,8,10,12,14,-1,-1,-1,-1,-1,-1,-1,-1],"split_conditions":[-2.8330222E-1,-1.4112395E0,1.5526968E-4,-6.28949E-3,4.6133816E-1,2.8386635E-3,8.084473E-1,-4.451982E-3,-1.4995786E-2,-2.7170873E-3,-3.78783E-4,-5.4079323E-4,2.346142E-3,3.4426912E-3,1.057685E-3],"split_indices":[20,20,20,17,12,3,19,0,0,0,0,0,0,0,0],"split_type":[0,0,0,0,0,0,0,0,0,0,0,0,0,0,0],"sum_hessian":[1.5603378E4,7.437586E3,8.165792E3,1.1621279E2,7.321373E3,2.5888726E3,5.5769194E3,2.2197535E1,9.401526E1,5.863678E3,1.4576951E3,1.7297085E3,8.59164E2,4.845905E3,7.3101495E2],"tree_param":{"num_deleted":"0","num_feature":"46","num_nodes":"15","size_leaf_vector":"1"}},{"base_weights":[-1.9437945E-3,1.94568E-1,-2.8487483E-1,2.708867E-1,6.2221076E-2,-1.6117893E-1,-4.1320544E-1,2.3712007E-2,7.4556484E-3,-1.712896E-3,4.340825E-3,-7.3221214E-3,-4.3067583E-4,-1.278922E-2,2.662066E-3],"categories":[],"categories_nodes":[],"categories_segments":[],"categories_sizes":[],"default_left":[0,0,1,0,0,0,0,0,0,0,0,0,0,0,0],"id":58,"left_children":[1,3,5,7,9,11,13,-1,-1,-1,-1,-1,-1,-1,-1],"loss_changes":[5.679154E2,6.0799973E1,6.612552E1,4.3421722E1,2.180006E1,2.6027306E1,1.3681335E1,0E0,0E0,0E0,0E0,0E0,0E0,0E0,0E0],"parents":[2147483647,0,0,1,1,2,2,3,3,4,4,5,5,6,6],"right_children":[2,4,6,8,10,12,14,-1,-1,-1,-1,-1,-1,-1,-1],"split_conditions":[-1.652754E-1,-4.8063812E-1,3.693726E-1,-1.3687993E0,-1.9186991E-1,0E0,2.283639E0,2.3712007E-2,7.4556484E-3,-1.712896E-3,4.340825E-3,-7.3221214E-3,-4.3067583E-4,-1.278922E-2,2.662066E-3],"split_indices":[10,10,10,10,32,27,31,0,0,0,0,0,0,0,0],"split_type":[0,0,0,0,0,0,0,0,0,0,0,0,0,0,0],"sum_hessian":[1.0204452E4,6.0228203E3,4.181632E3,3.816676E3,2.2061443E3,2.135009E3,2.0466227E3,1.5043964E2,3.6662363E3,9.022935E2,1.3038508E3,1.3624818E3,7.7252716E2,1.9952941E3,5.132858E1],"tree_param":{"num_deleted":"0","num_feature":"46","num_nodes":"15","size_leaf_vector":"1"}},{"base_weights":[2.4634867E-3,-9.41982E-2,1.0549426E-1,-2.6934626E-2,-1.2078727E-1,5.9958387E-2,1.3222094E-1,-1.8091935E-3,1.988793E-3,-1.2731679E-2,-3.433754E-3,2.496964E-4,3.0487382E-3,4.0558525E-3,-4.8379055E-3],"categories":[],"categories_nodes":[],"categories_segments":[],"categories_sizes":[],"default_left":[0,0,1,1,0,1,0,0,0,0,0,0,0,0,0],"id":59,"left_children":[1,3,5,7,9,11,13,-1,-1,-1,-1,-1,-1,-1,-1],"loss_changes":[1.3074149E2,1.2097645E1,7.6939163E0,6.010135E0,9.081787E0,5.071862E0,3.600586E0,0E0,0E0,0E0,0E0,0E0,0E0,0E0,0E0],"parents":[2147483647,0,0,1,1,2,2,3,3,4,4,5,5,6,6],"right_children":[2,4,6,8,10,12,14,-1,-1,-1,-1,-1,-1,-1,-1],"split_conditions":[-2.0093438E-1,2.5878116E-1,1.5823355E-1,3.4930632E-1,-1.4112395E0,3.875477E-4,8.00001E0,-1.8091935E-3,1.988793E-3,-1.2731679E-2,-3.433754E-3,2.496964E-4,3.0487382E-3,4.0558525E-3,-4.8379055E-3],"split_indices":[20,35,20,12,20,45,33,0,0,0,0,0,0,0,0],"split_type":[0,0,0,0,0,0,0,0,0,0,0,0,0,0,0],"sum_hessian":[1.3117813E4,6.768321E3,6.3494927E3,1.9203612E3,4.84796E3,2.3543901E3,3.9951025E3,1.4154514E3,5.049098E2,9.225109E1,4.7557085E3,1.0540946E3,1.3002957E3,3.9576921E3,3.7410393E1],"tree_param":{"num_deleted":"0","num_feature":"46","num_nodes":"15","size_leaf_vector":"1"}},{"base_weights":[3.807701E-4,-7.726354E-2,6.9078185E-2,-2.7213252E-1,-6.154694E-2,3.692469E-2,1.1646483E-1,-1.0839349E-2,-1.714506E-3,4.1298843E-3,-2.0113555E-3,1.4622719E-3,-2.3799795E-3,2.999074E-3,5.0726514E-3],"categories":[],"categories_nodes":[],"categories_segments":[],"categories_sizes":[],"default_left":[0,0,1,1,0,1,1,0,0,0,0,0,0,0,0],"id":60,"left_children":[1,3,5,7,9,11,13,-1,-1,-1,-1,-1,-1,-1,-1],"loss_changes":[8.312859E1,2.2322792E1,1.2577187E1,1.0336864E1,7.4684086E0,6.7974544E0,2.8150406E0,0E0,0E0,0E0,0E0,0E0,0E0,0E0,0E0],"parents":[2147483647,0,0,1,1,2,2,3,3,4,4,5,5,6,6],"right_children":[2,4,6,8,10,12,14,-1,-1,-1,-1,-1,-1,-1,-1],"split_conditions":[-2.7739432E-1,-1.1399747E0,4.601846E-1,6.443623E-2,-3.322843E-1,1.1344451E0,-4.050394E-3,-1.0839349E-2,-1.714506E-3,4.1298843E-3,-2.0113555E-3,1.4622719E-3,-2.3799795E-3,2.999074E-3,5.0726514E-3],"split_indices":[10,10,10,16,32,27,32,0,0,0,0,0,0,0,0],"split_type":[0,0,0,0,0,0,0,0,0,0,0,0,0,0,0],"sum_hessian":[1.5574766E4,7.3109927E3,8.263773E3,5.395521E2,6.771441E3,4.9285054E3,3.3352676E3,3.789518E2,1.6060036E2,1.7864574E2,6.592795E3,4.4763794E3,4.5212604E2,2.5503254E3,7.849421E2],"tree_param":{"num_deleted":"0","num_feature":"46","num_nodes":"15","size_leaf_vector":"1"}},{"base_weights":[-2.1871296E-3,1.891013E-1,-3.1253266E-1,2.4799415E-1,6.875825E-3,-2.0163764E-1,-4.2888048E-1,2.6588675E-2,6.9963816E-3,2.6321707E-3,-4.836497E-3,-2.861214E-3,-7.922139E-3,-1.3167563E-2,9.087071E-3],"categories":[],"categories_nodes":[],"categories_segments":[],"categories_sizes":[],"default_left":[0,0,1,0,1,1,0,0,0,0,0,0,0,0,0],"id":61,"left_children":[1,3,5,7,9,11,13,-1,-1,-1,-1,-1,-1,-1,-1],"loss_changes":[6.059E2,6.7755554E1,4.978308E1,4.3989258E1,2.110391E1,1.3156921E1,1.4583954E1,0E0,0E0,0E0,0E0,0E0,0E0,0E0,0E0],"parents":[2147483647,0,0,1,1,2,2,3,3,4,4,5,5,6,6],"right_children":[2,4,6,8,10,12,14,-1,-1,-1,-1,-1,-1,-1,-1],"split_conditions":[-1.3525636E-1,-3.250746E-1,4.1345853E-1,-1.4112395E0,4.4882745E-3,1.5526968E-4,8.00001E0,2.6588675E-2,6.9963816E-3,2.6321707E-3,-4.836497E-3,-2.861214E-3,-7.922139E-3,-1.3167563E-2,9.087071E-3],"split_indices":[20,10,20,20,4,20,33,0,0,0,0,0,0,0,0],"split_type":[0,0,0,0,0,0,0,0,0,0,0,0,0,0,0],"sum_hessian":[1.0196286E4,6.309338E3,3.8869485E3,4.766926E3,1.5424121E3,1.9971055E3,1.8898429E3,1.01220055E2,4.6657056E3,1.0430355E3,4.9937668E2,7.437908E2,1.2533147E3,1.8662437E3,2.3599283E1],"tree_param":{"num_deleted":"0","num_feature":"46","num_nodes":"15","size_leaf_vector":"1"}},{"base_weights":[-6.459608E-5,-9.6470386E-2,9.352568E-2,-5.8215685E-2,-1.490207E-1,4.618805E-2,1.24696516E-1,-2.3772689E-3,2.047289E-3,-5.16955E-3,-2.909258E-4,1.7218369E-3,-2.8590788E-3,7.675433E-4,4.122766E-3],"categories":[],"categories_nodes":[],"categories_segments":[],"categories_sizes":[],"default_left":[0,0,1,0,1,1,1,0,0,0,0,0,0,0,0],"id":62,"left_children":[1,3,5,7,9,11,13,-1,-1,-1,-1,-1,-1,-1,-1],"loss_changes":[1.1864802E2,1.297847E1,9.816761E0,1.0016581E1,8.838978E0,4.2405825E0,5.0543976E0,0E0,0E0,0E0,0E0,0E0,0E0,0E0,0E0],"parents":[2147483647,0,0,1,1,2,2,3,3,4,4,5,5,6,6],"right_children":[2,4,6,8,10,12,14,-1,-1,-1,-1,-1,-1,-1,-1],"split_conditions":[-2.219049E-1,-1.8185213E-1,1.7810518E-1,3.460213E-1,-1.2815553E-1,1.3917495E0,-9.736751E-1,-2.3772689E-3,2.047289E-3,-5.16955E-3,-2.909258E-4,1.7218369E-3,-2.8590788E-3,7.675433E-4,4.122766E-3],"split_indices":[10,32,10,18,32,27,45,0,0,0,0,0,0,0,0],"split_type":[0,0,0,0,0,0,0,0,0,0,0,0,0,0,0],"sum_hessian":[1.3140026E4,6.4725776E3,6.6674487E3,3.7518833E3,2.7206943E3,2.6521562E3,4.0152922E3,3.2185874E3,5.33296E2,2.3299036E3,3.9079074E2,2.460267E3,1.9188927E2,4.5870865E2,3.5565837E3],"tree_param":{"num_deleted":"0","num_feature":"46","num_nodes":"15","size_leaf_vector":"1"}},{"base_weights":[4.3255778E-4,-7.683374E-2,7.0816025E-2,-3.6356947E-1,-6.74516E-2,3.2973148E-2,1.1253611E-1,-3.9834403E-3,-1.4234013E-2,-2.4542264E-3,2.0708994E-4,2.0415194E-3,-2.1787452E-4,2.8703169E-3,4.846152E-3],"categories":[],"categories_nodes":[],"categories_segments":[],"categories_sizes":[],"default_left":[0,0,1,0,1,0,0,0,0,0,0,0,0,0,0],"id":63,"left_children":[1,3,5,7,9,11,13,-1,-1,-1,-1,-1,-1,-1,-1],"loss_changes":[8.477859E1,1.9868977E1,1.2861313E1,5.6819572E0,7.6904297E0,6.0499287E0,3.1265373E0,0E0,0E0,0E0,0E0,0E0,0E0,0E0,0E0],"parents":[2147483647,0,0,1,1,2,2,3,3,4,4,5,5,6,6],"right_children":[2,4,6,8,10,12,14,-1,-1,-1,-1,-1,-1,-1,-1],"split_conditions":[-2.8330222E-1,-1.3107557E0,3.1543764E-1,-6.674813E-2,3.3839133E-1,-3.5654973E-2,3.3258983E-1,-3.9834403E-3,-1.4234013E-2,-2.4542264E-3,2.0708994E-4,2.0415194E-3,-2.1787452E-4,2.8703169E-3,4.846152E-3],"split_indices":[20,10,20,17,16,16,4,0,0,0,0,0,0,0,0],"split_type":[0,0,0,0,0,0,0,0,0,0,0,0,0,0,0],"sum_hessian":[1.5579254E4,7.426288E3,8.152966E3,2.2931233E2,7.1969756E3,4.2798286E3,3.873137E3,7.7991516E1,1.5132082E2,6.031876E3,1.1650996E3,2.284629E3,1.9952E3,2.892691E3,9.804461E2],"tree_param":{"num_deleted":"0","num_feature":"46","num_nodes":"15","size_leaf_vector":"1"}},{"base_weights":[-3.104285E-3,-2.1547723E-1,1.4873536E-1,-7.139813E-2,-3.7719938E-1,-1.0143188E-3,2.213925E-1,-6.672557E-3,8.907427E-4,-1.3542185E-2,-8.645547E-3,-5.670671E-3,1.445967E-3,8.592528E-3,-5.4998125E-4],"categories":[],"categories_nodes":[],"categories_segments":[],"categories_sizes":[],"default_left":[0,0,0,1,1,0,1,0,0,0,0,0,0,0,0],"id":64,"left_children":[1,3,5,7,9,11,13,-1,-1,-1,-1,-1,-1,-1,-1],"loss_changes":[3.2925397E2,9.904999E1,6.4780914E1,3.4494537E1,1.2589539E1,1.8087927E1,6.251622E1,0E0,0E0,0E0,0E0,0E0,0E0,0E0,0E0],"parents":[2147483647,0,0,1,1,2,2,3,3,4,4,5,5,6,6],"right_children":[2,4,6,8,10,12,14,-1,-1,-1,-1,-1,-1,-1,-1],"split_conditions":[1.8338323E-1,5.8602532E-3,2.557684E-1,-1.17063574E-1,-3.9700752E-1,-7.02961E-1,6.9301736E-1,-6.672557E-3,8.907427E-4,-1.3542185E-2,-8.645547E-3,-5.670671E-3,1.445967E-3,8.592528E-3,-5.4998125E-4],"split_indices":[35,34,22,21,22,22,11,0,0,0,0,0,0,0,0],"split_type":[0,0,0,0,0,0,0,0,0,0,0,0,0,0,0],"sum_hessian":[1.0200522E4,4.251708E3,5.948815E3,2.2523157E3,1.9993921E3,1.9450037E3,4.003811E3,9.007138E2,1.3516019E3,1.0792891E3,9.20103E2,4.0055786E2,1.5444458E3,3.1487449E3,8.5506616E2],"tree_param":{"num_deleted":"0","num_feature":"46","num_nodes":"15","size_leaf_vector":"1"}},{"base_weights":[4.8006212E-4,7.054579E-2,-7.4665956E-2,2.1954377E-3,1.0846717E-1,6.1167516E-2,-9.377227E-2,1.8416974E-3,-1.1096484E-3,2.5559124E-3,4.6876054E-3,-8.397484E-4,3.2265475E-3,-3.5500163E-3,5.672828E-4],"categories":[],"categories_nodes":[],"categories_segments":[],"categories_sizes":[],"default_left":[0,0,0,0,0,1,1,0,0,0,0,0,0,0,0],"id":65,"left_children":[1,3,5,7,9,11,13,-1,-1,-1,-1,-1,-1,-1,-1],"loss_changes":[6.9190315E1,1.762513E1,1.6484612E1,5.6516542E0,4.7969666E0,3.2611752E0,1.5401482E1,0E0,0E0,0E0,0E0,0E0,0E0,0E0,0E0],"parents":[2147483647,0,0,1,1,2,2,3,3,4,4,5,5,6,6],"right_children":[2,4,6,8,10,12,14,-1,-1,-1,-1,-1,-1,-1,-1],"split_conditions":[2.5878116E-1,-2.052371E-1,-3.8189912E-1,-2.30665E-1,6.0316104E-1,-1.2281346E0,6.9301736E-1,1.8416974E-3,-1.1096484E-3,2.5559124E-3,4.6876054E-3,-8.397484E-4,3.2265475E-3,-3.5500163E-3,5.672828E-4],"split_indices":[35,34,22,22,12,19,11,0,0,0,0,0,0,0,0],"split_type":[0,0,0,0,0,0,0,0,0,0,0,0,0,0,0],"sum_hessian":[1.3131157E4,6.795436E3,6.335721E3,2.4267305E3,4.3687056E3,7.7992865E2,5.5557925E3,9.6543036E2,1.4613002E3,2.9473674E3,1.4213383E3,2.675769E2,5.1235175E2,4.5613E3,9.944929E2],"tree_param":{"num_deleted":"0","num_feature":"46","num_nodes":"15","size_leaf_vector":"1"}},{"base_weights":[6.4896955E-4,-7.9703555E-2,6.648945E-2,-4.322502E-1,-7.3475175E-2,1.4671627E-2,9.8987E-2,-5.072923E-3,-1.4486849E-2,-2.851418E-3,-4.7057675E-4,-4.6951717E-4,2.2529264E-3,3.2729185E-3,9.108202E-4],"categories":[],"categories_nodes":[],"categories_segments":[],"categories_sizes":[],"default_left":[0,0,1,0,1,0,1,0,0,0,0,0,0,0,0],"id":66,"left_children":[1,3,5,7,9,11,13,-1,-1,-1,-1,-1,-1,-1,-1],"loss_changes":[8.241994E1,1.5247517E1,1.4411938E1,1.2013874E0,8.594967E0,6.0636206E0,3.63406E0,0E0,0E0,0E0,0E0,0E0,0E0,0E0,0E0],"parents":[2147483647,0,0,1,1,2,2,3,3,4,4,5,5,6,6],"right_children":[2,4,6,8,10,12,14,-1,-1,-1,-1,-1,-1,-1,-1],"split_conditions":[-3.2171765E-1,-1.4112395E0,4.2991236E-2,-6.28949E-3,8.859968E-2,4.2239004E-3,7.9885423E-1,-5.072923E-3,-1.4486849E-2,-2.851418E-3,-4.7057675E-4,-4.6951717E-4,2.2529264E-3,3.2729185E-3,9.108202E-4],"split_indices":[20,20,20,17,16,3,19,0,0,0,0,0,0,0,0],"split_type":[0,0,0,0,0,0,0,0,0,0,0,0,0,0,0],"sum_hessian":[1.5568999E4,7.011287E3,8.557713E3,1.1577958E2,6.8955073E3,3.3011838E3,5.256529E3,2.2187374E1,9.35922E1,5.018816E3,1.8766913E3,2.200607E3,1.1005769E3,4.5789863E3,6.775421E2],"tree_param":{"num_deleted":"0","num_feature":"46","num_nodes":"15","size_leaf_vector":"1"}},{"base_weights":[-1.6058668E-3,1.8147604E-1,-3.0516505E-1,2.3773839E-1,5.731536E-3,-1.9327267E-1,-4.2433637E-1,2.545203E-2,6.7048306E-3,2.602418E-3,-4.9160677E-3,-2.6450078E-3,-7.66046E-3,-1.3026478E-2,8.441658E-3],"categories":[],"categories_nodes":[],"categories_segments":[],"categories_sizes":[],"default_left":[0,0,1,0,1,1,0,0,0,0,0,0,0,0,0],"id":67,"left_children":[1,3,5,7,9,11,13,-1,-1,-1,-1,-1,-1,-1,-1],"loss_changes":[5.666546E2,6.2880905E1,5.0739014E1,4.0957397E1,2.1333847E1,1.28552475E1,1.3532867E1,0E0,0E0,0E0,0E0,0E0,0E0,0E0,0E0],"parents":[2147483647,0,0,1,1,2,2,3,3,4,4,5,5,6,6],"right_children":[2,4,6,8,10,12,14,-1,-1,-1,-1,-1,-1,-1,-1],"split_conditions":[-1.3525636E-1,-3.250746E-1,4.1345853E-1,-1.4112395E0,4.4882745E-3,1.5526968E-4,8.00001E0,2.545203E-2,6.7048306E-3,2.602418E-3,-4.9160677E-3,-2.6450078E-3,-7.66046E-3,-1.3026478E-2,8.441658E-3],"split_indices":[20,10,20,20,4,20,33,0,0,0,0,0,0,0,0],"split_type":[0,0,0,0,0,0,0,0,0,0,0,0,0,0,0],"sum_hessian":[1.0186013E4,6.3551313E3,3.8308813E3,4.812657E3,1.5424741E3,1.9825416E3,1.8483397E3,1.0302485E2,4.7096323E3,1.0454974E3,4.9697668E2,7.406281E2,1.2419136E3,1.8247188E3,2.3620913E1],"tree_param":{"num_deleted":"0","num_feature":"46","num_nodes":"15","size_leaf_vector":"1"}},{"base_weights":[3.4608747E-4,6.8634704E-2,-7.414789E-2,3.6011278E-3,1.0482883E-1,5.6301117E-2,-9.24051E-2,-5.6437525E-4,3.0835578E-3,2.1845102E-3,4.4160616E-3,-9.12437E-4,2.9357737E-3,-3.1741788E-3,2.7686474E-3],"categories":[],"categories_nodes":[],"categories_segments":[],"categories_sizes":[],"default_left":[0,0,0,0,0,1,1,0,0,0,0,0,0,0,0],"id":68,"left_children":[1,3,5,7,9,11,13,-1,-1,-1,-1,-1,-1,-1,-1],"loss_changes":[6.673328E1,1.6108047E1,1.4968472E1,5.4613347E0,5.910446E0,2.8019824E0,1.367556E1,0E0,0E0,0E0,0E0,0E0,0E0,0E0,0E0],"parents":[2147483647,0,0,1,1,2,2,3,3,4,4,5,5,6,6],"right_children":[2,4,6,8,10,12,14,-1,-1,-1,-1,-1,-1,-1,-1],"split_conditions":[2.6521623E-1,-2.052371E-1,-3.8189912E-1,4E0,2.0111257E-1,-1.258815E0,1.1118226E0,-5.6437525E-4,3.0835578E-3,2.1845102E-3,4.4160616E-3,-9.12437E-4,2.9357737E-3,-3.1741788E-3,2.7686474E-3],"split_indices":[35,34,22,18,12,19,12,0,0,0,0,0,0,0,0],"split_type":[0,0,0,0,0,0,0,0,0,0,0,0,0,0,0],"sum_hessian":[1.3108159E4,6.8391265E3,6.2690327E3,2.4473062E3,4.3918203E3,7.683932E2,5.5006396E3,1.9995088E3,4.477975E2,2.5095308E3,1.8822894E3,2.4937776E2,5.1901544E2,5.130518E3,3.7012122E2],"tree_param":{"num_deleted":"0","num_feature":"46","num_nodes":"15","size_leaf_vector":"1"}},{"base_weights":[1.0898709E-3,3.8480524E-2,-8.7532796E-2,1.0921951E-1,1.2007983E-2,-7.964863E-2,-3.7385315E-1,3.442987E-3,-1.6272123E-3,-5.968545E-4,1.4576827E-3,-9.1582467E-4,-3.46444E-3,-6.603291E-3,-1.7343156E-2],"categories":[],"categories_nodes":[],"categories_segments":[],"categories_sizes":[],"default_left":[0,0,0,0,0,0,0,0,0,0,0,0,0,0,0],"id":69,"left_children":[1,3,5,7,9,11,13,-1,-1,-1,-1,-1,-1,-1,-1],"loss_changes":[5.1591187E1,2.049781E1,1.0279678E1,2.7340164E0,9.310195E0,7.9070244E0,3.2088966E0,0E0,0E0,0E0,0E0,0E0,0E0,0E0,0E0],"parents":[2147483647,0,0,1,1,2,2,3,3,4,4,5,5,6,6],"right_children":[2,4,6,8,10,12,14,-1,-1,-1,-1,-1,-1,-1,-1],"split_conditions":[5.307516E-1,-7.415337E-1,1.3817619E0,2.1469958E0,-1.714783E-1,-2.1155047E-1,3.6205835E0,3.442987E-3,-1.6272123E-3,-5.968545E-4,1.4576827E-3,-9.1582467E-4,-3.46444E-3,-6.603291E-3,-1.7343156E-2],"split_indices":[35,22,35,31,34,17,17,0,0,0,0,0,0,0,0],"split_type":[0,0,0,0,0,0,0,0,0,0,0,0,0,0,0],"sum_hessian":[1.5559165E4,1.0944441E4,4.6147236E3,2.976123E3,7.968319E3,4.4972764E3,1.1744696E2,2.8798884E3,9.6234634E1,4.257543E3,3.710776E3,1.9008131E3,2.5964634E3,7.293554E1,4.4511425E1],"tree_param":{"num_deleted":"0","num_feature":"46","num_nodes":"15","size_leaf_vector":"1"}},{"base_weights":[-3.561698E-3,1.7637733E-1,-3.0418465E-1,2.2887628E-1,5.8864453E-3,-1.939873E-1,-4.221218E-1,2.1645473E-2,6.35582E-3,2.4029817E-3,-4.50065E-3,-7.7962023E-3,-2.486519E-3,-1.296761E-2,9.176349E-3],"categories":[],"categories_nodes":[],"categories_segments":[],"categories_sizes":[],"default_left":[0,0,1,0,1,1,0,0,0,0,0,0,0,0,0],"id":70,"left_children":[1,3,5,7,9,11,13,-1,-1,-1,-1,-1,-1,-1,-1],"loss_changes":[5.511918E2,5.704698E1,4.9175537E1,4.0087677E1,1.7483318E1,1.4398102E1,1.4223206E1,0E0,0E0,0E0,0E0,0E0,0E0,0E0,0E0],"parents":[2147483647,0,0,1,1,2,2,3,3,4,4,5,5,6,6],"right_children":[2,4,6,8,10,12,14,-1,-1,-1,-1,-1,-1,-1,-1],"split_conditions":[-1.3525636E-1,-3.1943497E-1,4.1345853E-1,-1.3687993E0,4.4882745E-3,-2.0704113E-2,8.00001E0,2.1645473E-2,6.35582E-3,2.4029817E-3,-4.50065E-3,-7.7962023E-3,-2.486519E-3,-1.296761E-2,9.176349E-3],"split_indices":[20,10,20,10,4,17,33,0,0,0,0,0,0,0,0],"split_type":[0,0,0,0,0,0,0,0,0,0,0,0,0,0,0],"sum_hessian":[1.0179596E4,6.3692954E3,3.8103E3,4.86845E3,1.5008452E3,1.9766215E3,1.8336787E3,1.5562894E2,4.7128213E3,1.0184769E3,4.8236832E2,1.2366012E3,7.400202E2,1.8105122E3,2.3166431E1],"tree_param":{"num_deleted":"0","num_feature":"46","num_nodes":"15","size_leaf_vector":"1"}},{"base_weights":[5.553644E-4,6.913145E-2,-7.3369406E-2,2.825824E-3,1.0589381E-1,1.7041992E-2,-9.7265325E-2,1.9305678E-3,-1.1436687E-3,2.4543284E-3,4.657182E-3,-5.048239E-4,3.5984588E-3,-3.7268912E-3,5.920769E-4],"categories":[],"categories_nodes":[],"categories_segments":[],"categories_sizes":[],"default_left":[0,0,0,0,0,1,1,0,0,0,0,0,0,0,0],"id":71,"left_children":[1,3,5,7,9,11,13,-1,-1,-1,-1,-1,-1,-1,-1],"loss_changes":[6.659159E1,1.6608967E1,1.366544E1,6.1487565E0,5.146015E0,4.6308217E0,1.5788662E1,0E0,0E0,0E0,0E0,0E0,0E0,0E0,0E0],"parents":[2147483647,0,0,1,1,2,2,3,3,4,4,5,5,6,6],"right_children":[2,4,6,8,10,12,14,-1,-1,-1,-1,-1,-1,-1,-1],"split_conditions":[2.5878116E-1,-2.052371E-1,-6.017188E-2,-2.30665E-1,6.0316104E-1,3.8031712E-1,7.255102E-1,1.9305678E-3,-1.1436687E-3,2.4543284E-3,4.657182E-3,-5.048239E-4,3.5984588E-3,-3.7268912E-3,5.920769E-4],"split_indices":[35,34,22,22,12,45,11,0,0,0,0,0,0,0,0],"split_type":[0,0,0,0,0,0,0,0,0,0,0,0,0,0,0],"sum_hessian":[1.3125803E4,6.809404E3,6.3163984E3,2.4307034E3,4.3787E3,1.3207417E3,4.9956567E3,9.701502E2,1.4605532E3,2.9515166E3,1.4271837E3,9.968371E2,3.239046E2,4.0597322E3,9.359247E2],"tree_param":{"num_deleted":"0","num_feature":"46","num_nodes":"15","size_leaf_vector":"1"}},{"base_weights":[5.9797647E-5,-7.684919E-2,6.418072E-2,-2.2524881E-1,-6.0172215E-2,3.4263704E-2,1.1163293E-1,-3.384993E-3,-1.0896232E-2,-6.517869E-4,-2.879653E-3,2.3890466E-3,2.4060457E-4,2.7438805E-3,4.98769E-3],"categories":[],"categories_nodes":[],"categories_segments":[],"categories_sizes":[],"default_left":[1,0,0,0,0,1,1,0,0,0,0,0,0,0,0],"id":72,"left_children":[1,3,5,7,9,11,13,-1,-1,-1,-1,-1,-1,-1,-1],"loss_changes":[7.681582E1,1.745943E1,1.2039955E1,1.0862942E1,8.765753E0,6.2088094E0,3.5404549E0,0E0,0E0,0E0,0E0,0E0,0E0,0E0,0E0],"parents":[2147483647,0,0,1,1,2,2,3,3,4,4,5,5,6,6],"right_children":[2,4,6,8,10,12,14,-1,-1,-1,-1,-1,-1,-1,-1],"split_conditions":[-3.2171765E-1,-1.0741932E0,4.6893048E-1,-4.7784947E-2,-1.9286802E-1,-5.5878115E-1,2.7488163E-1,-3.384993E-3,-1.0896232E-2,-6.517869E-4,-2.879653E-3,2.3890466E-3,2.4060457E-4,2.7438805E-3,4.98769E-3],"split_indices":[20,10,20,17,32,19,4,0,0,0,0,0,0,0,0],"split_type":[0,0,0,0,0,0,0,0,0,0,0,0,0,0,0],"sum_hessian":[1.5566641E4,7.0771064E3,8.489534E3,7.0865204E2,6.368454E3,5.212096E3,3.2774387E3,3.9548267E2,3.1316937E2,3.0753418E3,3.2931125E3,1.906269E3,3.305827E3,2.4033496E3,8.740891E2],"tree_param":{"num_deleted":"0","num_feature":"46","num_nodes":"15","size_leaf_vector":"1"}},{"base_weights":[-1.8772397E-3,1.8314616E-1,-2.8712377E-1,2.3590845E-1,2.0022973E-2,-1.7815264E-1,-4.1782695E-1,2.1635426E-2,6.5441914E-3,-3.105238E-4,7.368417E-3,-2.457076E-3,-7.586572E-3,-1.2854161E-2,9.682129E-3],"categories":[],"categories_nodes":[],"categories_segments":[],"categories_sizes":[],"default_left":[0,0,1,0,0,1,0,0,0,0,0,0,0,0,0],"id":73,"left_children":[1,3,5,7,9,11,13,-1,-1,-1,-1,-1,-1,-1,-1],"loss_changes":[5.3718805E2,5.311302E1,5.666458E1,3.9433716E1,1.0389067E1,1.5667686E1,1.5015686E1,0E0,0E0,0E0,0E0,0E0,0E0,0E0,0E0],"parents":[2147483647,0,0,1,1,2,2,3,3,4,4,5,5,6,6],"right_children":[2,4,6,8,10,12,14,-1,-1,-1,-1,-1,-1,-1,-1],"split_conditions":[-1.7439432E-1,-3.4833723E-1,4.1345853E-1,-1.3687993E0,1.3917495E0,1.5526968E-4,8.00001E0,2.1635426E-2,6.5441914E-3,-3.105238E-4,7.368417E-3,-2.457076E-3,-7.586572E-3,-1.2854161E-2,9.682129E-3],"split_indices":[20,10,20,10,27,20,33,0,0,0,0,0,0,0,0],"split_type":[0,0,0,0,0,0,0,0,0,0,0,0,0,0,0],"sum_hessian":[1.0168412E4,6.168829E3,3.9995833E3,4.659485E3,1.509344E3,2.1875623E3,1.812021E3,1.5759355E2,4.5018916E3,1.3344438E3,1.7490015E2,9.6071704E2,1.2268451E3,1.7884208E3,2.3600182E1],"tree_param":{"num_deleted":"0","num_feature":"46","num_nodes":"15","size_leaf_vector":"1"}},{"base_weights":[9.499377E-4,-8.992545E-2,9.98655E-2,-5.1946003E-2,-1.4650747E-1,6.697833E-2,1.3449751E-1,-8.262346E-3,-1.2067753E-3,-5.2607413E-3,-1.1679139E-4,1.182546E-3,3.3942887E-3,4.122485E-3,-5.535581E-3],"categories":[],"categories_nodes":[],"categories_segments":[],"categories_sizes":[],"default_left":[0,0,1,0,1,0,0,0,0,0,0,0,0,0,0],"id":74,"left_children":[1,3,5,7,9,11,13,-1,-1,-1,-1,-1,-1,-1,-1],"loss_changes":[1.1797299E2,1.4661011E1,7.112179E0,1.0684302E1,1.1288822E1,4.091297E0,2.9721222E0,0E0,0E0,0E0,0E0,0E0,0E0,0E0,0E0],"parents":[2147483647,0,0,1,1,2,2,3,3,4,4,5,5,6,6],"right_children":[2,4,6,8,10,12,14,-1,-1,-1,-1,-1,-1,-1,-1],"split_conditions":[-1.8839146E-1,-1.7893891E-1,4.4538262E-1,-1.1902814E0,-1.3104987E-1,1.713975E0,2.283639E0,-8.262346E-3,-1.2067753E-3,-5.2607413E-3,-1.1679139E-4,1.182546E-3,3.3942887E-3,4.122485E-3,-5.535581E-3],"split_indices":[20,32,45,20,32,18,31,0,0,0,0,0,0,0,0],"split_type":[0,0,0,0,0,0,0,0,0,0,0,0,0,0,0],"sum_hessian":[1.3114168E4,6.835101E3,6.2790674E3,4.0956055E3,2.7394956E3,3.2281895E3,3.050878E3,1.9849287E2,3.8971125E3,2.2775955E3,4.6190024E2,2.0272174E3,1.2009722E3,3.026039E3,2.4838758E1],"tree_param":{"num_deleted":"0","num_feature":"46","num_nodes":"15","size_leaf_vector":"1"}},{"base_weights":[9.185333E-4,3.5798475E-2,-8.195482E-2,8.775983E-2,1.9959386E-3,-7.434894E-2,-3.5452744E-1,1.1764407E-3,3.4650927E-3,-6.7700405E-4,1.1503211E-3,-2.9782534E-3,-8.114645E-4,-1.681644E-2,-6.078831E-3],"categories":[],"categories_nodes":[],"categories_segments":[],"categories_sizes":[],"default_left":[0,1,0,0,0,1,0,0,0,0,0,0,0,0,0],"id":75,"left_children":[1,3,5,7,9,11,13,-1,-1,-1,-1,-1,-1,-1,-1],"loss_changes":[4.5015594E1,1.9249552E1,9.431524E0,5.7949905E0,5.9373984E0,5.2850857E0,3.3094196E0,0E0,0E0,0E0,0E0,0E0,0E0,0E0,0E0],"parents":[2147483647,0,0,1,1,2,2,3,3,4,4,5,5,6,6],"right_children":[2,4,6,8,10,12,14,-1,-1,-1,-1,-1,-1,-1,-1],"split_conditions":[5.307516E-1,-3.245802E-1,1.3817619E0,-1.3911863E-1,4.3255687E-1,1.7741037E-4,-1.0433971E0,1.1764407E-3,3.4650927E-3,-6.7700405E-4,1.1503211E-3,-2.9782534E-3,-8.114645E-4,-1.681644E-2,-6.078831E-3],"split_indices":[35,22,35,34,12,16,34,0,0,0,0,0,0,0,0],"split_type":[0,0,0,0,0,0,0,0,0,0,0,0,0,0,0],"sum_hessian":[1.5562927E4,1.0955E4,4.607927E3,4.314601E3,6.640399E3,4.489029E3,1.1889832E2,1.573449E3,2.741152E3,3.9637407E3,2.6766582E3,2.9362117E3,1.5528169E3,4.475125E1,7.414707E1],"tree_param":{"num_deleted":"0","num_feature":"46","num_nodes":"15","size_leaf_vector":"1"}},{"base_weights":[-4.142319E-3,1.75501E-1,-2.8393453E-1,8.0314016E-1,1.6376397E-1,-1.7530674E-1,-4.1559297E-1,2.6490541E-2,1.0475547E-2,2.3966788E-3,7.2657648E-3,-7.173111E-3,-2.0516287E-3,-1.2772831E-2,8.247114E-3],"categories":[],"categories_nodes":[],"categories_segments":[],"categories_sizes":[],"default_left":[0,0,1,1,0,1,0,0,0,0,0,0,0,0,0],"id":76,"left_children":[1,3,5,7,9,11,13,-1,-1,-1,-1,-1,-1,-1,-1],"loss_changes":[5.1178955E2,4.5022705E1,5.6575775E1,2.5395203E0,3.9986725E1,1.4857239E1,1.3196472E1,0E0,0E0,0E0,0E0,0E0,0E0,0E0,0E0],"parents":[2147483647,0,0,1,1,2,2,3,3,4,4,5,5,6,6],"right_children":[2,4,6,8,10,12,14,-1,-1,-1,-1,-1,-1,-1,-1],"split_conditions":[-1.7439432E-1,-1.4112395E0,4.1345853E-1,2.3055737E-1,-1.9186991E-1,-2.0704113E-2,8.00001E0,2.6490541E-2,1.0475547E-2,2.3966788E-3,7.2657648E-3,-7.173111E-3,-2.0516287E-3,-1.2772831E-2,8.247114E-3],"split_indices":[20,20,20,16,32,17,33,0,0,0,0,0,0,0,0],"split_type":[0,0,0,0,0,0,0,0,0,0,0,0,0,0,0],"sum_hessian":[1.0172314E4,6.195986E3,3.976329E3,1.0755091E2,6.088435E3,2.1851108E3,1.7912183E3,8.743929E1,2.0111624E1,2.9469385E3,3.1414963E3,1.3646586E3,8.2045233E2,1.7671133E3,2.4105015E1],"tree_param":{"num_deleted":"0","num_feature":"46","num_nodes":"15","size_leaf_vector":"1"}},{"base_weights":[1.5963785E-3,6.654921E-2,-7.1202256E-2,-1.92477E-3,9.9454805E-2,5.1846802E-2,-8.924574E-2,1.9408842E-3,-1.09344E-3,2.0905735E-3,4.1781776E-3,-1.133993E-3,2.7181096E-3,-3.1660765E-3,1.8749001E-3],"categories":[],"categories_nodes":[],