{"learner":{"attributes":{"scikit_learn":"{\"_estimator_type\": \"classifier\"}"},"feature_names":[],"feature_types":[],"gradient_booster":{"model":{"cats":{"enc":[],"feature_segments":[],"sorted_idx":[]},"gbtree_model_param":{"num_parallel_tree":"1","num_trees":"900"},"iteration_indptr":[0,3,6,9,12,15,18,21,24,27,30,33,36,39,42,45,48,51,54,57,60,63,66,69,72,75,78,81,84,87,90,93,96,99,102,105,108,111,114,117,120,123,126,129,132,135,138,141,144,147,150,153,156,159,162,165,168,171,174,177,180,183,186,189,192,195,198,201,204,207,210,213,216,219,222,225,228,231,234,237,240,243,246,249,252,255,258,261,264,267,270,273,276,279,282,285,288,291,294,297,300,303,306,309,312,315,318,321,324,327,330,333,336,339,342,345,348,351,354,357,360,363,366,369,372,375,378,381,384,387,390,393,396,399,402,405,408,411,414,417,420,423,426,429,432,435,438,441,444,447,450,453,456,459,462,465,468,471,474,477,480,483,486,489,492,495,498,501,504,507,510,513,516,519,522,525,528,531,534,537,540,543,546,549,552,555,558,561,564,567,570,573,576,579,582,585,588,591,594,597,600,603,606,609,612,615,618,621,624,627,630,633,636,639,642,645,648,651,654,657,660,663,666,669,672,675,678,681,684,687,690,693,696,699,702,705,708,711,714,717,720,723,726,729,732,735,738,741,744,747,750,753,756,759,762,765,768,771,774,777,780,783,786,789,792,795,798,801,804,807,810,813,816,819,822,825,828,831,834,837,840,843,846,849,852,855,858,861,864,867,870,873,876,879,882,885,888,891,894,897,900],"tree_info":[0,1,2,0,1,2,0,1,2,0,1,2,0,1,2,0,1,2,0,1,2,0,1,2,0,1,2,0,1,2,0,1,2,0,1,2,0,1,2,0,1,2,0,1,2,0,1,2,0,1,2,0,1,2,0,1,2,0,1,2,0,1,2,0,1,2,0,1,2,0,1,2,0,1,2,0,1,2,0,1,2,0,1,2,0,1,2,0,1,2,0,1,2,0,1,2,0,1,2,0,1,2,0,1,2,0,1,2,0,1,2,0,1,2,0,1,2,0,1,2,0,1,2,0,1,2,0,1,2,0,1,2,0,1,2,0,1,2,0,1,2,0,1,2,0,1,2,0,1,2,0,1,2,0,1,2,0,1,2,0,1,2,0,1,2,0,1,2,0,1,2,0,1,2,0,1,2,0,1,2,0,1,2,0,1,2,0,1,2,0,1,2,0,1,2,0,1,2,0,1,2,0,1,2,0,1,2,0,1,2,0,1,2,0,1,2,0,1,2,0,1,2,0,1,2,0,1,2,0,1,2,0,1,2,0,1,2,0,1,2,0,1,2,0,1,2,0,1,2,0,1,2,0,1,2,0,1,2,0,1,2,0,1,2,0,1,2,0,1,2,0,1,2,0,1,2,0,1,2,0,1,2,0,1,2,0,1,2,0,1,2,0,1,2,0,1,2,0,1,2,0,1,2,0,1,2,0,1,2,0,1,2,0,1,2,0,1,2,0,1,2,0,1,2,0,1,2,0,1,2,0,1,2,0,1,2,0,1,2,0,1,2,0,1,2,0,1,2,0,1,2,0,1,2,0,1,2,0,1,2,0,1,2,0,1,2,0,1,2,0,1,2,0,1,2,0,1,2,0,1,2,0,1,2,0,1,2,0,1,2,0,1,2,0,1,2,0,1,2,0,1,2,0,1,2,0,1,2,0,1,2,0,1,2,0,1,2,0,1,2,0,1,2,0,1,2,0,1,2,0,1,2,0,1,2,0,1,2,0,1,2,0,1,2,0,1,2,0,1,2,0,1,2,0,1,2,0,1,2,0,1,2,0,1,2,0,1,2,0,1,2,0,1,2,0,1,2,0,1,2,0,1,2,0,1,2,0,1,2,0,1,2,0,1,2,0,1,2,0,1,2,0,1,2,0,1,2,0,1,2,0,1,2,0,1,2,0,1,2,0,1,2,0,1,2,0,1,2,0,1,2,0,1,2,0,1,2,0,1,2,0,1,2,0,1,2,0,1,2,0,1,2,0,1,2,0,1,2,0,1,2,0,1,2,0,1,2,0,1,2,0,1,2,0,1,2,0,1,2,0,1,2,0,1,2,0,1,2,0,1,2,0,1,2,0,1,2,0,1,2,0,1,2,0,1,2,0,1,2,0,1,2,0,1,2,0,1,2,0,1,2,0,1,2,0,1,2,0,1,2,0,1,2,0,1,2,0,1,2,0,1,2,0,1,2,0,1,2,0,1,2,0,1,2,0,1,2,0,1,2,0,1,2,0,1,2,0,1,2,0,1,2,0,1,2,0,1,2,0,1,2,0,1,2,0,1,2,0,1,2,0,1,2,0,1,2,0,1,2,0,1,2,0,1,2,0,1,2,0,1,2,0,1,2,0,1,2,0,1,2,0,1,2,0,1,2,0,1,2,0,1,2,0,1,2,0,1,2,0,1,2,0,1,2,0,1,2,0,1,2,0,1,2,0,1,2,0,1,2,0,1,2,0,1,2,0,1,2,0,1,2,0,1,2,0,1,2,0,1,2,0,1,2,0,1,2,0,1,2,0,1,2,0,1,2,0,1,2,0,1,2,0,1,2,0,1,2,0,1,2,0,1,2,0,1,2,0,1,2,0,1,2,0,1,2,0,1,2,0,1,2,0,1,2,0,1,2,0,1,2,0,1,2,0,1,2,0,1,2,0,1,2,0,1,2,0,1,2,0,1,2,0,1,2,0,1,2,0,1,2,0,1,2,0,1,2,0,1,2,0,1,2,0,1,2,0,1,2,0,1,2,0,1,2,0,1,2,0,1,2],"trees":[{"base_weights":[-2.9638368E-3,-1.7219162E-1,3.390709E-1,-2.3925921E-1,-1.268514E-2,2.6258755E-1,6.049868E-1,7.965367E-4,-7.553091E-3,1.1247232E-3,-3.502535E-3,1.2560721E-2,5.457725E-3,2.1359812E-2,1.565908E-2],"categories":[],"categories_nodes":[],"categories_segments":[],"categories_sizes":[],"default_left":[0,0,1,0,0,0,1,0,0,0,0,0,0,0,0],"id":0,"left_children":[1,3,5,7,9,11,13,-1,-1,-1,-1,-1,-1,-1,-1],"loss_changes":[1.0863745E3,1.3430856E2,1.255564E2,2.9427704E1,1.945691E1,6.0483124E1,1.0435425E1,0E0,0E0,0E0,0E0,0E0,0E0,0E0,0E0],"parents":[2147483647,0,0,1,1,2,2,3,3,4,4,5,5,6,6],"right_children":[2,4,6,8,10,12,14,-1,-1,-1,-1,-1,-1,-1,-1],"split_conditions":[9.157197E-2,-2.782397E-1,1.463092E0,-6.8238896E-1,-2.3607537E-2,-9.384906E-1,-1.2249353E0,7.965367E-4,-7.553091E-3,1.1247232E-3,-3.502535E-3,1.2560721E-2,5.457725E-3,2.1359812E-2,1.565908E-2],"split_indices":[10,10,10,22,27,22,18,0,0,0,0,0,0,0,0],"split_type":[0,0,0,0,0,0,0,0,0,0,0,0,0,0,0],"sum_hessian":[1.8758805E4,1.2551306E4,6.2074995E3,8.834268E3,3.7170386E3,4.8286187E3,1.378881E3,3.968463E2,8.437421E3,2.5100198E3,1.2070189E3,1.6379116E3,3.190707E3,5.8585236E2,7.930286E2],"tree_param":{"num_deleted":"0","num_feature":"46","num_nodes":"15","size_leaf_vector":"1"}},{"base_weights":[2.1166187E-3,2.2764605E-1,-4.022558E-1,3.0893472E-1,3.8699713E-2,-2.7406892E-1,-5.8321697E-1,9.852704E-3,2.2027711E-3,-1.4275421E-3,3.7271667E-3,-1.1234537E-2,-5.0526494E-3,-1.3268752E-2,-1.952707E-2],"categories":[],"categories_nodes":[],"categories_segments":[],"categories_sizes":[],"default_left":[0,0,1,0,0,1,0,0,0,0,0,0,0,0,0],"id":1,"left_children":[1,3,5,7,9,11,13,-1,-1,-1,-1,-1,-1,-1,-1],"loss_changes":[2.6877524E3,2.9053046E2,2.4397424E2,6.0591797E1,4.2076508E1,6.531073E1,4.025293E1,0E0,0E0,0E0,0E0,0E0,0E0,0E0,0E0],"parents":[2147483647,0,0,1,1,2,2,3,3,4,4,5,5,6,6],"right_children":[2,4,6,8,10,12,14,-1,-1,-1,-1,-1,-1,-1,-1],"split_conditions":[8.193279E-3,-2.9134274E-1,7.7985543E-1,-2.5529394E-1,1.4116696E-1,-2.9490492E-1,9.063782E-1,9.852704E-3,2.2027711E-3,-1.4275421E-3,3.7271667E-3,-1.1234537E-2,-5.0526494E-3,-1.3268752E-2,-1.952707E-2],"split_indices":[20,10,10,20,35,22,20,0,0,0,0,0,0,0,0],"split_type":[0,0,0,0,0,0,0,0,0,0,0,0,0,0,0],"sum_hessian":[2.9461637E4,1.8914625E4,1.0547013E4,1.3222747E4,5.6918774E3,6.181099E3,4.365913E3,1.2210348E4,1.01239935E3,2.8346992E3,2.857178E3,3.1624912E3,3.018608E3,1.4287787E3,2.9371343E3],"tree_param":{"num_deleted":"0","num_feature":"46","num_nodes":"15","size_leaf_vector":"1"}},{"base_weights":[-1.088679E-3,1.9728105E-1,-1.4861532E-1,6.1257415E-2,3.2812285E-1,6.836123E-2,-1.8622524E-1,6.184182E-3,-4.163551E-4,1.2581055E-2,8.31349E-3,-2.1333386E-4,6.080423E-3,-6.2032538E-3,3.7881238E-3],"categories":[],"categories_nodes":[],"categories_segments":[],"categories_sizes":[],"default_left":[0,0,0,1,1,0,1,0,0,0,0,0,0,0,0],"id":2,"left_children":[1,3,5,7,9,11,13,-1,-1,-1,-1,-1,-1,-1,-1],"loss_changes":[5.8501624E2,1.5164227E2,9.361844E1,4.5586674E1,1.9639435E1,1.7213282E1,6.2884644E1,0E0,0E0,0E0,0E0,0E0,0E0,0E0,0E0],"parents":[2147483647,0,0,1,1,2,2,3,3,4,4,5,5,6,6],"right_children":[2,4,6,8,10,12,14,-1,-1,-1,-1,-1,-1,-1,-1],"split_conditions":[1.20125085E-1,3.0222064E-2,-3.5150537E-1,-5.235418E-1,-1.1059089E-2,-1.2153273E-1,1.1714333E0,6.184182E-3,-4.163551E-4,1.2581055E-2,8.31349E-3,-2.1333386E-4,6.080423E-3,-6.2032538E-3,3.7881238E-3],"split_indices":[35,34,22,22,4,34,12,0,0,0,0,0,0,0,0],"split_type":[0,0,0,0,0,0,0,0,0,0,0,0,0,0,0],"sum_hessian":[1.9980418E4,8.521035E3,1.1459384E4,4.1813887E3,4.3396465E3,1.6922847E3,9.767099E3,1.4249634E3,2.7564253E3,1.5430941E3,2.7965525E3,1.0865193E3,6.057654E2,9.166027E3,6.0107104E2],"tree_param":{"num_deleted":"0","num_feature":"46","num_nodes":"15","size_leaf_vector":"1"}},{"base_weights":[-1.8476248E-3,-1.6725558E-1,3.2607722E-1,-2.4145783E-1,-2.5618048E-2,2.0711249E-1,4.7225606E-1,-8.044906E-3,-3.8832042E-3,3.1177741E-3,-1.769457E-3,1.0511932E-2,3.9137793E-3,1.149885E-2,1.7417153E-2],"categories":[],"categories_nodes":[],"categories_segments":[],"categories_sizes":[],"default_left":[0,0,1,1,0,1,0,0,0,0,0,0,0,0,0],"id":3,"left_children":[1,3,5,7,9,11,13,-1,-1,-1,-1,-1,-1,-1,-1],"loss_changes":[1.01782355E3,1.3105927E2,1.0892206E2,2.4310364E1,1.8588154E1,3.7966522E1,2.6050903E1,0E0,0E0,0E0,0E0,0E0,0E0,0E0,0E0],"parents":[2147483647,0,0,1,1,2,2,3,3,4,4,5,5,6,6],"right_children":[2,4,6,8,10,12,14,-1,-1,-1,-1,-1,-1,-1,-1],"split_conditions":[9.157197E-2,-3.2592613E-1,8.025659E-1,4.6947896E-1,-6.0933435E-1,-1.2249353E0,1.5602514E0,-8.044906E-3,-3.8832042E-3,3.1177741E-3,-1.769457E-3,1.0511932E-2,3.9137793E-3,1.149885E-2,1.7417153E-2],"split_indices":[10,10,10,12,22,18,10,0,0,0,0,0,0,0,0],"split_type":[0,0,0,0,0,0,0,0,0,0,0,0,0,0,0],"sum_hessian":[1.875468E4,1.2468112E4,6.286567E3,8.179463E3,4.2886494E3,3.4725696E3,2.8139976E3,6.5992026E3,1.5802601E3,8.7615906E2,3.4124902E3,1.2040404E3,2.268529E3,1.5574979E3,1.2564995E3],"tree_param":{"num_deleted":"0","num_feature":"46","num_nodes":"15","size_leaf_vector":"1"}},{"base_weights":[8.582466E-4,-3.0297437E-1,1.7659122E-1,-6.931808E-2,-4.7650152E-1,-8.788632E-2,2.3494512E-1,-9.662313E-3,1.1056996E-3,-1.7429046E-2,-1.0567896E-2,-7.658072E-5,-8.315576E-3,8.466838E-3,-2.3928696E-4],"categories":[],"categories_nodes":[],"categories_segments":[],"categories_sizes":[],"default_left":[0,0,0,1,1,0,1,0,0,0,0,0,0,0,0],"id":4,"left_children":[1,3,5,7,9,11,13,-1,-1,-1,-1,-1,-1,-1,-1],"loss_changes":[1.5744766E3,4.3796075E2,2.884355E2,1.2379953E2,7.944336E1,5.4605705E1,1.7582593E2,0E0,0E0,0E0,0E0,0E0,0E0,0E0,0E0],"parents":[2147483647,0,0,1,1,2,2,3,3,4,4,5,5,6,6],"right_children":[2,4,6,8,10,12,14,-1,-1,-1,-1,-1,-1,-1,-1],"split_conditions":[0E0,-2.3763813E-2,-2.8113192E-1,-7.2005427E-1,-5.5688345E-1,-2.3763813E-2,7.0909184E-1,-9.662313E-3,1.1056996E-3,-1.7429046E-2,-1.0567896E-2,-7.658072E-5,-8.315576E-3,8.466838E-3,-2.3928696E-4],"split_indices":[35,34,22,22,22,34,12,0,0,0,0,0,0,0,0],"split_type":[0,0,0,0,0,0,0,0,0,0,0,0,0,0,0],"sum_hessian":[2.947821E4,1.0800729E4,1.8677482E4,4.6058696E3,6.1948584E3,3.3756199E3,1.5301863E4,1.3594359E3,3.2464338E3,3.355218E3,2.8396404E3,2.3302449E3,1.0453748E3,1.2808062E4,2.4938018E3],"tree_param":{"num_deleted":"0","num_feature":"46","num_nodes":"15","size_leaf_vector":"1"}},{"base_weights":[-2.704833E-4,-1.9459707E-1,2.2844653E-1,-9.365775E-2,-2.3350796E-1,5.6399357E-2,3.0664682E-1,-3.9832876E-3,1.5573273E-3,-5.519201E-3,-9.059001E-3,3.7085232E-3,-8.4005774E-4,1.2625286E-2,8.10579E-3],"categories":[],"categories_nodes":[],"categories_segments":[],"categories_sizes":[],"default_left":[0,0,0,0,0,1,0,0,0,0,0,0,0,0,0],"id":5,"left_children":[1,3,5,7,9,11,13,-1,-1,-1,-1,-1,-1,-1,-1],"loss_changes":[8.888788E2,4.2358185E1,1.2351254E2,1.7213032E1,2.617511E1,1.6338764E1,2.5719177E1,0E0,0E0,0E0,0E0,0E0,0E0,0E0,0E0],"parents":[2147483647,0,0,1,1,2,2,3,3,4,4,5,5,6,6],"right_children":[2,4,6,8,10,12,14,-1,-1,-1,-1,-1,-1,-1,-1],"split_conditions":[-1.7532544E-1,2.4751459E-1,1.21320605E-1,-6.0366165E-2,-1.8206157E-1,-1.3871619E-1,-2.3860659E-1,-3.9832876E-3,1.5573273E-3,-5.519201E-3,-9.059001E-3,3.7085232E-3,-8.4005774E-4,1.2625286E-2,8.10579E-3],"split_indices":[20,35,20,34,32,17,3,0,0,0,0,0,0,0,0],"split_type":[0,0,0,0,0,0,0,0,0,0,0,0,0,0,0],"sum_hessian":[1.9989164E4,1.0807474E4,9.18169E3,3.0117322E3,7.795741E3,2.8718928E3,6.3097974E3,2.3741646E3,6.3756744E2,4.5337197E3,3.2620215E3,1.5973906E3,1.2745021E3,1.5140685E3,4.795729E3],"tree_param":{"num_deleted":"0","num_feature":"46","num_nodes":"15","size_leaf_vector":"1"}},{"base_weights":[-2.8553298E-3,2.7868125E-1,-1.17526315E-1,1.1050242E-1,4.2937043E-1,-1.9284044E-1,7.0667416E-2,6.919218E-3,4.7280002E-4,1.1116501E-2,1.6542623E-2,-7.125186E-3,-2.1081995E-3,8.1831927E-4,1.1087375E-2],"categories":[],"categories_nodes":[],"categories_segments":[],"categories_sizes":[],"default_left":[1,0,0,0,0,1,0,0,0,0,0,0,0,0,0],"id":6,"left_children":[1,3,5,7,9,11,13,-1,-1,-1,-1,-1,-1,-1,-1],"loss_changes":[6.0643726E2,1.3754175E2,1.8925381E2,2.9301754E1,1.9551147E1,5.211148E1,4.9476322E1,0E0,0E0,0E0,0E0,0E0,0E0,0E0,0E0],"parents":[2147483647,0,0,1,1,2,2,3,3,4,4,5,5,6,6],"right_children":[2,4,6,8,10,12,14,-1,-1,-1,-1,-1,-1,-1,-1],"split_conditions":[-3.9577523E-1,1.3208024E-2,-6.0366165E-2,-1.0141782E0,8.3877295E-1,4.4147512E-1,2.0403945E0,6.919218E-3,4.7280002E-4,1.1116501E-2,1.6542623E-2,-7.125186E-3,-2.1081995E-3,8.1831927E-4,1.1087375E-2],"split_indices":[22,34,34,22,17,12,15,0,0,0,0,0,0,0,0],"split_type":[0,0,0,0,0,0,0,0,0,0,0,0,0,0,0],"sum_hessian":[1.8774334E4,5.4316265E3,1.3342708E4,2.5709487E3,2.8606775E3,9.529093E3,3.8136155E3,1.1303877E3,1.440561E3,1.9439833E3,9.166942E2,6.980558E3,2.5485342E3,3.334967E3,4.7864835E2],"tree_param":{"num_deleted":"0","num_feature":"46","num_nodes":"15","size_leaf_vector":"1"}},{"base_weights":[1.6224127E-3,2.1867912E-1,-3.8127342E-1,2.9050562E-1,5.445895E-2,-2.178634E-1,-5.0746363E-1,9.512452E-3,1.9928801E-3,3.289897E-3,-1.8634965E-3,-1.0406684E-2,-4.565375E-3,-1.9506065E-2,-1.3251845E-2],"categories":[],"categories_nodes":[],"categories_segments":[],"categories_sizes":[],"default_left":[0,0,1,1,0,1,1,0,0,0,0,0,0,0,0],"id":7,"left_children":[1,3,5,7,9,11,13,-1,-1,-1,-1,-1,-1,-1,-1],"loss_changes":[2.4549954E3,2.2228833E2,2.1981982E2,7.799243E1,3.69907E1,3.927594E1,5.5109985E1,0E0,0E0,0E0,0E0,0E0,0E0,0E0,0E0],"parents":[2147483647,0,0,1,1,2,2,3,3,4,4,5,5,6,6],"right_children":[2,4,6,8,10,12,14,-1,-1,-1,-1,-1,-1,-1,-1],"split_conditions":[8.193279E-3,-3.2725152E-1,5.116807E-1,7.0909184E-1,2.0114793E-3,-1.1037474E0,-2.618182E-2,9.512452E-3,1.9928801E-3,3.289897E-3,-1.8634965E-3,-1.0406684E-2,-4.565375E-3,-1.9506065E-2,-1.3251845E-2],"split_indices":[20,20,20,12,4,18,4,0,0,0,0,0,0,0,0],"split_type":[0,0,0,0,0,0,0,0,0,0,0,0,0,0,0],"sum_hessian":[2.9529055E4,1.8847113E4,1.0681941E4,1.3109461E4,5.737651E3,4.660482E3,6.02146E3,1.1717637E4,1.3918243E3,3.893963E3,1.8436882E3,1.5649613E3,3.0955203E3,1.8846516E3,4.1368086E3],"tree_param":{"num_deleted":"0","num_feature":"46","num_nodes":"15","size_leaf_vector":"1"}},{"base_weights":[-8.0439245E-4,1.8929572E-1,-1.4010805E-1,9.393909E-2,2.9229203E-1,6.1910227E-2,-1.7611068E-1,7.644301E-3,7.348808E-4,1.1461251E-2,6.3456227E-3,-1.8749687E-4,5.959444E-3,-6.0819048E-3,9.4792317E-4],"categories":[],"categories_nodes":[],"categories_segments":[],"categories_sizes":[],"default_left":[0,0,0,1,1,1,1,0,0,0,0,0,0,0,0],"id":8,"left_children":[1,3,5,7,9,11,13,-1,-1,-1,-1,-1,-1,-1,-1],"loss_changes":[5.2950146E2,8.2910736E1,8.398129E1,4.910189E1,2.9047333E1,1.6307932E1,5.4189972E1,0E0,0E0,0E0,0E0,0E0,0E0,0E0,0E0],"parents":[2147483647,0,0,1,1,2,2,3,3,4,4,5,5,6,6],"right_children":[2,4,6,8,10,12,14,-1,-1,-1,-1,-1,-1,-1,-1],"split_conditions":[1.043731E-1,4.3398756E-1,-3.5150537E-1,-6.446708E-1,-6.8238896E-1,3.5933053E-1,9.7193545E-1,7.644301E-3,7.348808E-4,1.1461251E-2,6.3456227E-3,-1.8749687E-4,5.959444E-3,-6.0819048E-3,9.4792317E-4],"split_indices":[35,45,22,17,22,45,11,0,0,0,0,0,0,0,0],"split_type":[0,0,0,0,0,0,0,0,0,0,0,0,0,0,0],"sum_hessian":[1.9985031E4,8.450838E3,1.1534194E4,4.3931274E3,4.0577104E3,1.7440983E3,9.790096E3,1.3205685E3,3.072559E3,1.9131964E3,2.1445142E3,1.1671014E3,5.769968E2,8.678052E3,1.1120433E3],"tree_param":{"num_deleted":"0","num_feature":"46","num_nodes":"15","size_leaf_vector":"1"}},{"base_weights":[1.0950506E-3,-1.7294246E-1,2.9944348E-1,-2.2771282E-1,-4.8976973E-2,1.4260389E-1,4.0818122E-1,-7.4327304E-3,-1.8148512E-3,1.4475825E-3,-3.0911695E-3,7.334175E-3,1.8553672E-3,1.4038121E-2,8.36521E-3],"categories":[],"categories_nodes":[],"categories_segments":[],"categories_sizes":[],"default_left":[0,0,1,1,1,1,0,0,0,0,0,0,0,0,0],"id":9,"left_children":[1,3,5,7,9,11,13,-1,-1,-1,-1,-1,-1,-1,-1],"loss_changes":[9.733511E2,8.032959E1,1.1749243E2,2.7444061E1,1.912856E1,2.3250599E1,3.0850159E1,0E0,0E0,0E0,0E0,0E0,0E0,0E0,0E0],"parents":[2147483647,0,0,1,1,2,2,3,3,4,4,5,5,6,6],"right_children":[2,4,6,8,10,12,14,-1,-1,-1,-1,-1,-1,-1,-1],"split_conditions":[8.193279E-3,-3.2725152E-1,4.7000054E-1,7.0909184E-1,-4.0230367E-1,-3.5125366E-1,-2.0119919E-1,-7.4327304E-3,-1.8148512E-3,1.4475825E-3,-3.0911695E-3,7.334175E-3,1.8553672E-3,1.4038121E-2,8.36521E-3],"split_indices":[20,20,20,12,19,16,35,0,0,0,0,0,0,0,0],"split_type":[0,0,0,0,0,0,0,0,0,0,0,0,0,0,0],"sum_hessian":[1.8735764E4,1.1834419E4,6.9013457E3,8.205073E3,3.629345E3,2.8304124E3,4.0709336E3,7.3246396E3,8.804338E2,1.2970884E3,2.3322566E3,1.2471367E3,1.5832755E3,2.7755334E3,1.2954001E3],"tree_param":{"num_deleted":"0","num_feature":"46","num_nodes":"15","size_leaf_vector":"1"}},{"base_weights":[1.4182446E-3,2.1518783E-1,-3.7315968E-1,2.833297E-1,4.9728666E-2,-2.0821324E-1,-4.8920324E-1,9.300296E-3,1.8065211E-3,3.0338734E-3,-1.7618703E-3,-8.981224E-3,-3.8243856E-3,-1.8869594E-2,-1.2842761E-2],"categories":[],"categories_nodes":[],"categories_segments":[],"categories_sizes":[],"default_left":[0,0,1,1,0,1,1,0,0,0,0,0,0,0,0],"id":10,"left_children":[1,3,5,7,9,11,13,-1,-1,-1,-1,-1,-1,-1,-1],"loss_changes":[2.3604167E3,2.1152832E2,2.0450171E2,7.902954E1,3.0582825E1,3.2427414E1,5.23302E1,0E0,0E0,0E0,0E0,0E0,0E0,0E0,0E0],"parents":[2147483647,0,0,1,1,2,2,3,3,4,4,5,5,6,6],"right_children":[2,4,6,8,10,12,14,-1,-1,-1,-1,-1,-1,-1,-1],"split_conditions":[8.193279E-3,-3.1728068E-1,4.7000054E-1,7.0909184E-1,1.9331787E-3,-2.678692E-1,-6.777719E-2,9.300296E-3,1.8065211E-3,3.0338734E-3,-1.7618703E-3,-8.981224E-3,-3.8243856E-3,-1.8869594E-2,-1.2842761E-2],"split_indices":[20,20,20,12,4,36,4,0,0,0,0,0,0,0,0],"split_type":[0,0,0,0,0,0,0,0,0,0,0,0,0,0,0],"sum_hessian":[2.9468162E4,1.8762584E4,1.0705577E4,1.32869795E4,5.475605E3,4.4269717E3,6.278606E3,1.1866066E4,1.420913E3,3.7152197E3,1.7603853E3,2.0728555E3,2.3541162E3,1.8957905E3,4.3828154E3],"tree_param":{"num_deleted":"0","num_feature":"46","num_nodes":"15","size_leaf_vector":"1"}},{"base_weights":[8.378719E-4,-1.7476444E-1,2.310613E-1,-2.1586709E-1,-8.981581E-2,1.2778145E-1,3.2446268E-1,-7.1630315E-3,-2.3059882E-3,3.4168814E-5,-5.2150507E-3,1.1147833E-3,5.4383855E-3,1.3141871E-2,8.2696695E-3],"categories":[],"categories_nodes":[],"categories_segments":[],"categories_sizes":[],"default_left":[0,0,1,1,0,0,0,0,0,0,0,0,0,0,0],"id":11,"left_children":[1,3,5,7,9,11,13,-1,-1,-1,-1,-1,-1,-1,-1],"loss_changes":[8.0789386E2,3.9486298E1,8.320569E1,2.4216644E1,2.8315989E1,1.9914284E1,2.455368E1,0E0,0E0,0E0,0E0,0E0,0E0,0E0,0E0],"parents":[2147483647,0,0,1,1,2,2,3,3,4,4,5,5,6,6],"right_children":[2,4,6,8,10,12,14,-1,-1,-1,-1,-1,-1,-1,-1],"split_conditions":[-1.21324904E-1,-4.0835974E-1,4.133956E-1,5.903244E-1,-1.7909819E-1,1.869882E-2,-6.777719E-2,-7.1630315E-3,-2.3059882E-3,3.4168814E-5,-5.2150507E-3,1.1147833E-3,5.4383855E-3,1.3141871E-2,8.2696695E-3],"split_indices":[20,20,20,12,32,45,4,0,0,0,0,0,0,0,0],"split_type":[0,0,0,0,0,0,0,0,0,0,0,0,0,0,0],"sum_hessian":[1.9973645E4,1.1331657E4,8.641987E3,7.6314507E3,3.7002063E3,4.109592E3,4.5323955E3,6.5489165E3,1.0825342E3,1.7791378E3,1.9210686E3,1.5286456E3,2.580946E3,1.3501072E3,3.1822886E3],"tree_param":{"num_deleted":"0","num_feature":"46","num_nodes":"15","size_leaf_vector":"1"}},{"base_weights":[3.7694225E-4,-1.6144583E-1,3.1452042E-1,-2.2621226E-1,-3.6156498E-2,2.1522228E-1,4.505772E-1,1.3260847E-3,-7.065113E-3,1.9705207E-3,-2.5246523E-3,1.0158679E-2,4.197111E-3,1.5564741E-2,1.0006684E-2],"categories":[],"categories_nodes":[],"categories_segments":[],"categories_sizes":[],"default_left":[0,0,1,0,1,1,0,0,0,0,0,0,0,0,0],"id":12,"left_children":[1,3,5,7,9,11,13,-1,-1,-1,-1,-1,-1,-1,-1],"loss_changes":[9.54146E2,1.0048163E2,8.5727905E1,2.056836E1,2.0692339E1,3.413884E1,2.060022E1,0E0,0E0,0E0,0E0,0E0,0E0,0E0,0E0],"parents":[2147483647,0,0,1,1,2,2,3,3,4,4,5,5,6,6],"right_children":[2,4,6,8,10,12,14,-1,-1,-1,-1,-1,-1,-1,-1],"split_conditions":[8.013229E-2,-3.2725152E-1,8.7712556E-1,-7.2005427E-1,0E0,-1.2249353E0,-4.5427924E-1,1.3260847E-3,-7.065113E-3,1.9705207E-3,-2.5246523E-3,1.0158679E-2,4.197111E-3,1.5564741E-2,1.0006684E-2],"split_indices":[20,20,20,22,4,18,35,0,0,0,0,0,0,0,0],"split_type":[0,0,0,0,0,0,0,0,0,0,0,0,0,0,0],"sum_hessian":[1.8759266E4,1.2382946E4,6.3763193E3,8.1604805E3,4.222466E3,3.6935615E3,2.6827578E3,2.7045724E2,7.890023E3,1.3520099E3,2.8704563E3,1.3933109E3,2.3002505E3,1.6836652E3,9.990926E2],"tree_param":{"num_deleted":"0","num_feature":"46","num_nodes":"15","size_leaf_vector":"1"}},{"base_weights":[1.1773608E-3,2.096704E-1,-3.4997788E-1,2.8576055E-1,4.8574667E-2,-2.1814531E-1,-5.0602865E-1,8.985011E-3,-1.4159281E-4,8.482987E-6,4.923148E-3,-1.1023344E-2,-4.327359E-3,-1.2779717E-2,-1.7886486E-2],"categories":[],"categories_nodes":[],"categories_segments":[],"categories_sizes":[],"default_left":[0,0,1,1,0,1,0,0,0,0,0,0,0,0,0],"id":13,"left_children":[1,3,5,7,9,11,13,-1,-1,-1,-1,-1,-1,-1,-1],"loss_changes":[2.157161E3,2.2654535E2,2.2526538E2,5.011792E1,3.3122498E1,6.54798E1,3.498694E1,0E0,0E0,0E0,0E0,0E0,0E0,0E0,0E0],"parents":[2147483647,0,0,1,1,2,2,3,3,4,4,5,5,6,6],"right_children":[2,4,6,8,10,12,14,-1,-1,-1,-1,-1,-1,-1,-1],"split_conditions":[6.0530263E-3,-3.3789536E-1,6.9223416E-1,1.002269E0,0E0,-1.2249353E0,1.4162079E0,8.985011E-3,-1.4159281E-4,8.482987E-6,4.923148E-3,-1.1023344E-2,-4.327359E-3,-1.2779717E-2,-1.7886486E-2],"split_indices":[10,10,10,12,27,18,10,0,0,0,0,0,0,0,0],"split_type":[0,0,0,0,0,0,0,0,0,0,0,0,0,0,0],"sum_hessian":[2.9454E4,1.8482383E4,1.0971617E4,1.2550533E4,5.931849E3,5.953802E3,5.017815E3,1.1983553E4,5.669812E2,4.1867793E3,1.7450703E3,1.9646919E3,3.9891099E3,2.6736597E3,2.3441555E3],"tree_param":{"num_deleted":"0","num_feature":"46","num_nodes":"15","size_leaf_vector":"1"}},{"base_weights":[2.5472313E-4,-1.4957151E-1,2.5544804E-1,-1.9394006E-1,4.7721056E-4,1.6504921E-1,3.130589E-1,-2.6893853E-3,-6.9226027E-3,-1.0982723E-3,2.6990068E-3,7.6939967E-3,3.5387017E-3,1.2639963E-2,7.952393E-3],"categories":[],"categories_nodes":[],"categories_segments":[],"categories_sizes":[],"default_left":[0,0,1,0,0,1,1,0,0,0,0,0,0,0,0],"id":14,"left_children":[1,3,5,7,9,11,13,-1,-1,-1,-1,-1,-1,-1,-1],"loss_changes":[7.64676E2,8.389261E1,3.827173E1,3.7236755E1,9.577244E0,1.2291565E1,2.2886108E1,0E0,0E0,0E0,0E0,0E0,0E0,0E0,0E0],"parents":[2147483647,0,0,1,1,2,2,3,3,4,4,5,5,6,6],"right_children":[2,4,6,8,10,12,14,-1,-1,-1,-1,-1,-1,-1,-1],"split_conditions":[8.193279E-3,-2.5529394E-1,4.3181273E-1,2.4751459E-1,4.787662E-3,0E0,-6.777719E-2,-2.6893853E-3,-6.9226027E-3,-1.0982723E-3,2.6990068E-3,7.6939967E-3,3.5387017E-3,1.2639963E-2,7.952393E-3],"split_indices":[20,20,20,35,34,3,4,0,0,0,0,0,0,0,0],"split_type":[0,0,0,0,0,0,0,0,0,0,0,0,0,0,0],"sum_hessian":[1.998956E4,1.2596257E4,7.393303E3,9.720498E3,2.8757585E3,2.8852703E3,4.5080327E3,2.5404546E3,7.1800435E3,2.0352609E3,8.404976E2,9.7341583E2,1.9118544E3,1.3722982E3,3.1357346E3],"tree_param":{"num_deleted":"0","num_feature":"46","num_nodes":"15","size_leaf_vector":"1"}},{"base_weights":[-1.1529507E-5,-1.5527843E-1,2.9155105E-1,-2.2712944E-1,-2.8186588E-2,2.2788224E-1,5.045369E-1,-7.556852E-3,-3.1230724E-3,2.0712304E-3,-2.1425074E-3,9.399292E-3,3.7456208E-3,1.782978E-2,1.233138E-2],"categories":[],"categories_nodes":[],"categories_segments":[],"categories_sizes":[],"default_left":[0,0,1,1,1,0,1,0,0,0,0,0,0,0,0],"id":15,"left_children":[1,3,5,7,9,11,13,-1,-1,-1,-1,-1,-1,-1,-1],"loss_changes":[8.489834E2,1.1171323E2,8.779468E1,2.3685425E1,1.8625027E1,4.4040894E1,1.1333435E1,0E0,0E0,0E0,0E0,0E0,0E0,0E0,0E0],"parents":[2147483647,0,0,1,1,2,2,3,3,4,4,5,5,6,6],"right_children":[2,4,6,8,10,12,14,-1,-1,-1,-1,-1,-1,-1,-1],"split_conditions":[9.157197E-2,-3.3789536E-1,1.463092E0,3.1099245E-1,-2.0244952E-2,-3.0898237E-1,-8.44483E-1,-7.556852E-3,-3.1230724E-3,2.0712304E-3,-2.1425074E-3,9.399292E-3,3.7456208E-3,1.782978E-2,1.233138E-2],"split_indices":[10,10,10,16,3,22,18,0,0,0,0,0,0,0,0],"split_type":[0,0,0,0,0,0,0,0,0,0,0,0,0,0,0],"sum_hessian":[1.8743766E4,1.2232099E4,6.5116675E3,7.81179E3,4.4203086E3,5.021052E3,1.4906157E3,6.4984077E3,1.3133821E3,1.3595696E3,3.0607388E3,2.739416E3,2.2816357E3,7.4669824E2,7.439174E2],"tree_param":{"num_deleted":"0","num_feature":"46","num_nodes":"15","size_leaf_vector":"1"}},{"base_weights":[2.4308371E-3,-2.790202E-1,1.6079769E-1,-7.377393E-2,-4.370206E-1,-6.591733E-2,2.2130623E-1,-8.938236E-3,7.6047855E-4,-1.5652208E-2,-9.659618E-3,1.4237067E-4,-7.0574363E-3,8.025377E-3,-9.334603E-5],"categories":[],"categories_nodes":[],"categories_segments":[],"categories_sizes":[],"default_left":[0,0,0,1,1,0,1,0,0,0,0,0,0,0,0],"id":16,"left_children":[1,3,5,7,9,11,13,-1,-1,-1,-1,-1,-1,-1,-1],"loss_changes":[1.3140009E3,3.4407306E2,2.58867E2,1.0276608E2,5.760254E1,4.7605072E1,1.5442639E2,0E0,0E0,0E0,0E0,0E0,0E0,0E0,0E0],"parents":[2147483647,0,0,1,1,2,2,3,3,4,4,5,5,6,6],"right_children":[2,4,6,8,10,12,14,-1,-1,-1,-1,-1,-1,-1,-1],"split_conditions":[-2.219565E-2,4.787662E-3,-1.9211218E-1,-7.2005427E-1,-4.7503152E-1,-6.966133E-3,7.0909184E-1,-8.938236E-3,7.6047855E-4,-1.5652208E-2,-9.659618E-3,1.4237067E-4,-7.0574363E-3,8.025377E-3,-9.334603E-5],"split_indices":[35,34,22,22,22,34,12,0,0,0,0,0,0,0,0],"split_type":[0,0,0,0,0,0,0,0,0,0,0,0,0,0,0],"sum_hessian":[2.9470037E4,1.0610014E4,1.8860023E4,4.618199E3,5.991815E3,3.9730918E3,1.4886932E4,1.4128983E3,3.2053005E3,3.4403733E3,2.5514417E3,2.806695E3,1.1663967E3,1.2344342E4,2.5425903E3],"tree_param":{"num_deleted":"0","num_feature":"46","num_nodes":"15","size_leaf_vector":"1"}},{"base_weights":[7.768496E-4,-1.479209E-1,2.434287E-1,-2.0200746E-1,-2.7715772E-2,1.6409901E-1,3.2470503E-1,-6.313073E-3,3.7033267E-3,1.5377614E-3,-2.6346175E-3,5.510262E-3,-2.536366E-3,1.2779226E-2,8.667235E-3],"categories":[],"categories_nodes":[],"categories_segments":[],"categories_sizes":[],"default_left":[0,0,1,1,0,1,1,0,0,0,0,0,0,0,0],"id":17,"left_children":[1,3,5,7,9,11,13,-1,-1,-1,-1,-1,-1,-1,-1],"loss_changes":[7.207719E2,8.049896E1,4.8671875E1,2.3559326E1,1.8294754E1,1.8823479E1,1.2957062E1,0E0,0E0,0E0,0E0,0E0,0E0,0E0,0E0],"parents":[2147483647,0,0,1,1,2,2,3,3,4,4,5,5,6,6],"right_children":[2,4,6,8,10,12,14,-1,-1,-1,-1,-1,-1,-1,-1],"split_conditions":[6.0530263E-3,-3.2592613E-1,6.26704E-1,1.3079123E0,1.4116696E-1,1.7153882E0,-2.2387047E-1,-6.313073E-3,3.7033267E-3,1.5377614E-3,-2.6346175E-3,5.510262E-3,-2.536366E-3,1.2779226E-2,8.667235E-3],"split_indices":[10,10,10,16,35,27,3,0,0,0,0,0,0,0,0],"split_type":[0,0,0,0,0,0,0,0,0,0,0,0,0,0,0],"sum_hessian":[1.9966066E4,1.2380941E4,7.585125E3,8.536517E3,3.8444253E3,3.846169E3,3.738956E3,8.322747E3,2.1376965E2,1.6617332E3,2.1826921E3,3.566663E3,2.795059E2,9.622582E2,2.7766978E3],"tree_param":{"num_deleted":"0","num_feature":"46","num_nodes":"15","size_leaf_vector":"1"}},{"base_weights":[1.9486822E-4,-1.6770075E-1,2.7688405E-1,-2.2832216E-1,-4.0715672E-2,1.4033727E-1,3.8309187E-1,-7.656251E-3,-3.5120144E-3,1.9086452E-3,-2.68725E-3,6.746146E-3,1.6477196E-3,7.7015287E-3,1.3292969E-2],"categories":[],"categories_nodes":[],"categories_segments":[],"categories_sizes":[],"default_left":[0,0,1,1,1,1,0,0,0,0,0,0,0,0,0],"id":18,"left_children":[1,3,5,7,9,11,13,-1,-1,-1,-1,-1,-1,-1,-1],"loss_changes":[8.697693E2,8.96528E1,1.0227167E2,2.3439362E1,1.9253935E1,2.233117E1,2.9569397E1,0E0,0E0,0E0,0E0,0E0,0E0,0E0,0E0],"parents":[2147483647,0,0,1,1,2,2,3,3,4,4,5,5,6,6],"right_children":[2,4,6,8,10,12,14,-1,-1,-1,-1,-1,-1,-1,-1],"split_conditions":[8.193279E-3,-3.0922377E-1,5.305152E-1,4.6947896E-1,0E0,-2.1576342E-1,7.1343005E-1,-7.656251E-3,-3.5120144E-3,1.9086452E-3,-2.68725E-3,6.746146E-3,1.6477196E-3,7.7015287E-3,1.3292969E-2],"split_indices":[20,10,20,12,4,22,10,0,0,0,0,0,0,0,0],"split_type":[0,0,0,0,0,0,0,0,0,0,0,0,0,0,0],"sum_hessian":[1.8712879E4,1.1647263E4,7.065616E3,7.8809746E3,3.766288E3,3.0963638E3,3.9692524E3,6.341902E3,1.5390725E3,1.2007094E3,2.5655789E3,1.5520867E3,1.5442772E3,1.2864324E3,2.68282E3],"tree_param":{"num_deleted":"0","num_feature":"46","num_nodes":"15","size_leaf_vector":"1"}},{"base_weights":[1.7971525E-4,2.0200002E-1,-3.3199546E-1,2.7479008E-1,4.697594E-2,-2.1983121E-1,-4.9735054E-1,8.662617E-3,-5.446441E-4,-2.4652107E-5,4.8406515E-3,-7.605949E-3,1.4941014E-3,-1.8456934E-2,-1.3232105E-2],"categories":[],"categories_nodes":[],"categories_segments":[],"categories_sizes":[],"default_left":[0,0,1,1,0,1,1,0,0,0,0,0,0,0,0],"id":19,"left_children":[1,3,5,7,9,11,13,-1,-1,-1,-1,-1,-1,-1,-1],"loss_changes":[1.9724338E3,2.0645972E2,2.0569177E2,5.0967834E1,3.200379E1,6.034961E1,2.8433716E1,0E0,0E0,0E0,0E0,0E0,0E0,0E0,0E0],"parents":[2147483647,0,0,1,1,2,2,3,3,4,4,5,5,6,6],"right_children":[2,4,6,8,10,12,14,-1,-1,-1,-1,-1,-1,-1,-1],"split_conditions":[3.712611E-4,-3.3789536E-1,8.025659E-1,1.002269E0,0E0,1.1342888E0,0E0,8.662617E-3,-5.446441E-4,-2.4652107E-5,4.8406515E-3,-7.605949E-3,1.4941014E-3,-1.8456934E-2,-1.3232105E-2],"split_indices":[10,10,10,12,27,27,3,0,0,0,0,0,0,0,0],"split_type":[0,0,0,0,0,0,0,0,0,0,0,0,0,0,0],"sum_hessian":[2.9411877E4,1.8297059E4,1.1114819E4,1.2448244E4,5.848814E3,6.629512E3,4.485307E3,1.1881938E4,5.663053E2,4.128519E3,1.7202952E3,5.893241E3,7.3627106E2,1.4333864E3,3.0519204E3],"tree_param":{"num_deleted":"0","num_feature":"46","num_nodes":"15","size_leaf_vector":"1"}},{"base_weights":[-1.4630831E-3,-1.4462699E-1,2.3363814E-1,-2.1088056E-1,-4.6353187E-2,1.5706624E-1,3.1331167E-1,-6.593338E-3,1.9944543E-3,8.931829E-4,-2.935904E-3,5.303894E-3,-2.255787E-3,1.2045944E-2,8.145142E-3],"categories":[],"categories_nodes":[],"categories_segments":[],"categories_sizes":[],"default_left":[0,0,1,1,0,1,0,0,0,0,0,0,0,0,0],"id":20,"left_children":[1,3,5,7,9,11,13,-1,-1,-1,-1,-1,-1,-1,-1],"loss_changes":[6.718065E2,8.072305E1,4.584082E1,1.8355713E1,1.962865E1,1.7764885E1,1.3090698E1,0E0,0E0,0E0,0E0,0E0,0E0,0E0,0E0],"parents":[2147483647,0,0,1,1,2,2,3,3,4,4,5,5,6,6],"right_children":[2,4,6,8,10,12,14,-1,-1,-1,-1,-1,-1,-1,-1],"split_conditions":[1.5394286E-2,-4.0878537E-1,6.4711547E-1,1.1404952E0,1.4116696E-1,1.627251E0,-1.1059089E-2,-6.593338E-3,1.9944543E-3,8.931829E-4,-2.935904E-3,5.303894E-3,-2.255787E-3,1.2045944E-2,8.145142E-3],"split_indices":[10,10,10,12,35,27,4,0,0,0,0,0,0,0,0],"split_type":[0,0,0,0,0,0,0,0,0,0,0,0,0,0,0],"sum_hessian":[1.9949762E4,1.2400472E4,7.549291E3,7.4034995E3,4.996972E3,3.8571516E3,3.6921392E3,7.1743936E3,2.2910588E2,2.0174847E3,2.9794873E3,3.5562454E3,3.009064E2,1.1732837E3,2.5188555E3],"tree_param":{"num_deleted":"0","num_feature":"46","num_nodes":"15","size_leaf_vector":"1"}},{"base_weights":[-7.957379E-4,-1.633346E-1,2.5200158E-1,-2.1257621E-1,-2.3891386E-2,1.4651935E-1,3.7921694E-1,3.0765613E-4,-6.7676334E-3,2.3770828E-3,-2.0191704E-3,8.621412E-3,2.7389224E-3,9.206003E-3,1.4445493E-2],"categories":[],"categories_nodes":[],"categories_segments":[],"categories_sizes":[],"default_left":[0,0,1,0,0,0,0,0,0,0,0,0,0,0,0],"id":21,"left_children":[1,3,5,7,9,11,13,-1,-1,-1,-1,-1,-1,-1,-1],"loss_changes":[7.6973553E2,7.826593E1,9.809805E1,2.4441223E1,1.3374411E1,3.1108162E1,2.3834198E1,0E0,0E0,0E0,0E0,0E0,0E0,0E0,0E0],"parents":[2147483647,0,0,1,1,2,2,3,3,4,4,5,5,6,6],"right_children":[2,4,6,8,10,12,14,-1,-1,-1,-1,-1,-1,-1,-1],"split_conditions":[3.712611E-4,-2.782397E-1,7.1343005E-1,-6.0933435E-1,-6.0813833E-2,-9.1679573E-1,1.5602514E0,3.0765613E-4,-6.7676334E-3,2.3770828E-3,-2.0191704E-3,8.621412E-3,2.7389224E-3,9.206003E-3,1.4445493E-2],"split_indices":[10,10,10,22,3,22,10,0,0,0,0,0,0,0,0],"split_type":[0,0,0,0,0,0,0,0,0,0,0,0,0,0,0],"sum_hessian":[1.8723186E4,1.1397078E4,7.326109E3,8.420812E3,2.9762659E3,4.0110525E3,3.3150564E3,4.6463837E2,7.9561733E3,8.805229E2,2.0957432E3,1.1236937E3,2.8873586E3,1.9534789E3,1.3615775E3],"tree_param":{"num_deleted":"0","num_feature":"46","num_nodes":"15","size_leaf_vector":"1"}},{"base_weights":[1.9193845E-3,1.9748239E-1,-3.2160887E-1,2.6823843E-1,4.8998065E-2,-2.0192182E-1,-4.630736E-1,8.453475E-3,-2.7625338E-4,8.443951E-5,4.80159E-3,-1.0432008E-2,-3.8968713E-3,-1.7574247E-2,-1.2176054E-2],"categories":[],"categories_nodes":[],"categories_segments":[],"categories_sizes":[],"default_left":[0,0,1,1,0,1,1,0,0,0,0,0,0,0,0],"id":22,"left_children":[1,3,5,7,9,11,13,-1,-1,-1,-1,-1,-1,-1,-1],"loss_changes":[1.8613254E3,1.925694E2,1.8718848E2,4.667273E1,3.0379074E1,6.2920074E1,3.4447388E1,0E0,0E0,0E0,0E0,0E0,0E0,0E0,0E0],"parents":[2147483647,0,0,1,1,2,2,3,3,4,4,5,5,6,6],"right_children":[2,4,6,8,10,12,14,-1,-1,-1,-1,-1,-1,-1,-1],"split_conditions":[6.0530263E-3,-3.3789536E-1,6.9223416E-1,1.002269E0,0E0,-1.2249353E0,-4.027086E-2,8.453475E-3,-2.7625338E-4,8.443951E-5,4.80159E-3,-1.0432008E-2,-3.8968713E-3,-1.7574247E-2,-1.2176054E-2],"split_indices":[10,10,10,12,27,18,4,0,0,0,0,0,0,0,0],"split_type":[0,0,0,0,0,0,0,0,0,0,0,0,0,0,0],"sum_hessian":[2.9408676E4,1.8330434E4,1.1078243E4,1.2411873E4,5.918561E3,6.0076084E3,5.0706343E3,1.1834091E4,5.77782E2,4.183806E3,1.734755E3,1.9800326E3,4.027576E3,1.597331E3,3.4733035E3],"tree_param":{"num_deleted":"0","num_feature":"46","num_nodes":"15","size_leaf_vector":"1"}},{"base_weights":[-5.34715E-4,-1.4142233E-1,2.2374009E-1,-2.0652117E-1,-4.3198768E-2,1.6383678E-1,3.1762347E-1,-6.4692535E-3,2.3340476E-3,6.4760295E-4,-3.2159782E-3,5.374399E-3,-3.3119016E-3,1.2426309E-2,8.321885E-3],"categories":[],"categories_nodes":[],"categories_segments":[],"categories_sizes":[],"default_left":[0,0,1,1,0,1,0,0,0,0,0,0,0,0,0],"id":23,"left_children":[1,3,5,7,9,11,13,-1,-1,-1,-1,-1,-1,-1,-1],"loss_changes":[6.3062854E2,7.833502E1,4.3045654E1,1.9197449E1,2.0296097E1,1.9878685E1,1.1058899E1,0E0,0E0,0E0,0E0,0E0,0E0,0E0,0E0],"parents":[2147483647,0,0,1,1,2,2,3,3,4,4,5,5,6,6],"right_children":[2,4,6,8,10,12,14,-1,-1,-1,-1,-1,-1,-1,-1],"split_conditions":[6.0530263E-3,-4.0878537E-1,8.5451394E-1,1.1404952E0,-1.7909819E-1,2.2065709E0,-1.2394056E-1,-6.4692535E-3,2.3340476E-3,6.4760295E-4,-3.2159782E-3,5.374399E-3,-3.3119016E-3,1.2426309E-2,8.321885E-3],"split_indices":[10,10,10,12,32,27,4,0,0,0,0,0,0,0,0],"split_type":[0,0,0,0,0,0,0,0,0,0,0,0,0,0,0],"sum_hessian":[1.9948143E4,1.225285E4,7.6952935E3,7.3656587E3,4.887191E3,4.7061855E3,2.9891082E3,7.1378945E3,2.2776436E2,2.430347E3,2.456844E3,4.458984E3,2.4720164E2,8.6521594E2,2.1238923E3],"tree_param":{"num_deleted":"0","num_feature":"46","num_nodes":"15","size_leaf_vector":"1"}},{"base_weights":[-1.9512173E-3,1.9531259E-1,-1.3628808E-1,4.0057033E-2,3.1953937E-1,3.6915135E-2,-1.7776233E-1,6.706404E-3,-1.1244405E-3,1.20125245E-2,6.016866E-3,-3.4959607E-3,2.3377412E-3,-6.669607E-3,-1.7355295E-3],"categories":[],"categories_nodes":[],"categories_segments":[],"categories_sizes":[],"default_left":[0,0,0,1,0,1,1,0,0,0,0,0,0,0,0],"id":24,"left_children":[1,3,5,7,9,11,13,-1,-1,-1,-1,-1,-1,-1,-1],"loss_changes":[4.9662457E2,1.4636566E2,8.011771E1,4.8135925E1,4.0175507E1,1.3624979E1,4.799881E1,0E0,0E0,0E0,0E0,0E0,0E0,0E0,0E0],"parents":[2147483647,0,0,1,1,2,2,3,3,4,4,5,5,6,6],"right_children":[2,4,6,8,10,12,14,-1,-1,-1,-1,-1,-1,-1,-1],"split_conditions":[4.063515E-2,1.3208024E-2,-2.4204013E-1,-7.4109304E-1,-3.3796388E-1,-7.554958E-1,4.6947896E-1,6.706404E-3,-1.1244405E-3,1.20125245E-2,6.016866E-3,-3.4959607E-3,2.3377412E-3,-6.669607E-3,-1.7355295E-3],"split_indices":[35,34,22,22,22,45,12,0,0,0,0,0,0,0,0],"split_type":[0,0,0,0,0,0,0,0,0,0,0,0,0,0,0],"sum_hessian":[1.873067E4,7.5871816E3,1.1143488E4,3.375357E3,4.2118247E3,2.1529536E3,8.990534E3,9.9985254E2,2.3755042E3,2.5003281E3,1.7114966E3,4.5210107E2,1.7008527E3,6.551711E3,2.4388232E3],"tree_param":{"num_deleted":"0","num_feature":"46","num_nodes":"15","size_leaf_vector":"1"}},{"base_weights":[9.130034E-4,-2.424227E-1,1.6493344E-1,-5.9925217E-2,-3.9688575E-1,-8.025753E-2,2.1027622E-1,-8.386207E-3,9.134713E-4,-1.44304745E-2,-8.803072E-3,-4.2340753E-4,-6.7492547E-3,7.161336E-3,-2.391674E-3],"categories":[],"categories_nodes":[],"categories_segments":[],"categories_sizes":[],"default_left":[0,0,0,1,1,0,1,0,0,0,0,0,0,0,0],"id":25,"left_children":[1,3,5,7,9,11,13,-1,-1,-1,-1,-1,-1,-1,-1],"loss_changes":[1.1720366E3,3.3318683E2,1.9510522E2,1.0773501E2,5.502063E1,2.6224205E1,1.2218109E2,0E0,0E0,0E0,0E0,0E0,0E0,0E0,0E0],"parents":[2147483647,0,0,1,1,2,2,3,3,4,4,5,5,6,6],"right_children":[2,4,6,8,10,12,14,-1,-1,-1,-1,-1,-1,-1,-1],"split_conditions":[5.6761503E-2,1.3208024E-2,-3.6571917E-1,-7.2005427E-1,-5.235418E-1,-2.3763813E-2,1.002269E0,-8.386207E-3,9.134713E-4,-1.44304745E-2,-8.803072E-3,-4.2340753E-4,-6.7492547E-3,7.161336E-3,-2.391674E-3],"split_indices":[35,34,36,36,36,34,12,0,0,0,0,0,0,0,0],"split_type":[0,0,0,0,0,0,0,0,0,0,0,0,0,0,0],"sum_hessian":[2.9355486E4,1.1818915E4,1.753657E4,5.420984E3,6.397931E3,2.736282E3,1.4800289E4,1.5773822E3,3.8436016E3,3.5183809E3,2.8795505E3,1.8817198E3,8.5456213E2,1.3479481E4,1.3208073E3],"tree_param":{"num_deleted":"0","num_feature":"46","num_nodes":"15","size_leaf_vector":"1"}},{"base_weights":[-1.1853564E-3,-1.3772386E-1,2.1795823E-1,-2.0207146E-1,-4.3316375E-2,1.4346136E-1,2.8859857E-1,-4.988085E-3,-7.983812E-3,5.530598E-4,-3.0769757E-3,4.8098415E-3,-2.2078136E-3,1.1281585E-2,7.366594E-3],"categories":[],"categories_nodes":[],"categories_segments":[],"categories_sizes":[],"default_left":[0,0,1,0,0,1,1,0,0,0,0,0,0,0,0],"id":26,"left_children":[1,3,5,7,9,11,13,-1,-1,-1,-1,-1,-1,-1,-1],"loss_changes":[5.972564E2,7.466669E1,4.011682E1,1.6547668E1,1.8270895E1,1.3748924E1,1.4325714E1,0E0,0E0,0E0,0E0,0E0,0E0,0E0,0E0],"parents":[2147483647,0,0,1,1,2,2,3,3,4,4,5,5,6,6],"right_children":[2,4,6,8,10,12,14,-1,-1,-1,-1,-1,-1,-1,-1],"split_conditions":[1.5394286E-2,-4.0878537E-1,6.0618883E-1,-1.7863092E-1,-1.8012E-1,1.7153882E0,-1.1059089E-2,-4.988085E-3,-7.983812E-3,5.530598E-4,-3.0769757E-3,4.8098415E-3,-2.2078136E-3,1.1281585E-2,7.366594E-3],"split_indices":[10,10,10,32,32,27,4,0,0,0,0,0,0,0,0],"split_type":[0,0,0,0,0,0,0,0,0,0,0,0,0,0,0],"sum_hessian":[1.9950734E4,1.2293232E4,7.6575024E3,7.3070728E3,4.98616E3,3.7343904E3,3.923112E3,4.6988E3,2.608273E3,2.4432114E3,2.5429487E3,3.4663384E3,2.6805212E2,1.2812823E3,2.6418296E3],"tree_param":{"num_deleted":"0","num_feature":"46","num_nodes":"15","size_leaf_vector":"1"}},{"base_weights":[-1.9625529E-4,-1.5830444E-1,2.5245392E-1,-2.0805539E-1,-4.8614256E-2,1.2677085E-1,3.4838223E-1,-6.983186E-3,-2.5124515E-3,1.4797486E-3,-2.8477411E-3,6.5631103E-3,1.6364394E-3,1.3915823E-2,8.831088E-3],"categories":[],"categories_nodes":[],"categories_segments":[],"categories_sizes":[],"default_left":[0,0,1,1,1,0,1,0,0,0,0,0,0,0,0],"id":27,"left_children":[1,3,5,7,9,11,13,-1,-1,-1,-1,-1,-1,-1,-1],"loss_changes":[7.4809143E2,6.28107E1,8.668967E1,2.4246826E1,1.6355362E1,2.0725643E1,2.4798859E1,0E0,0E0,0E0,0E0,0E0,0E0,0E0,0E0],"parents":[2147483647,0,0,1,1,2,2,3,3,4,4,5,5,6,6],"right_children":[2,4,6,8,10,12,14,-1,-1,-1,-1,-1,-1,-1,-1],"split_conditions":[8.193279E-3,-3.2725152E-1,5.305152E-1,3.370165E-1,0E0,-3.0898237E-1,-6.2084016E-3,-6.983186E-3,-2.5124515E-3,1.4797486E-3,-2.8477411E-3,6.5631103E-3,1.6364394E-3,1.3915823E-2,8.831088E-3],"split_indices":[20,20,20,16,4,22,3,0,0,0,0,0,0,0,0],"split_type":[0,0,0,0,0,0,0,0,0,0,0,0,0,0,0],"sum_hessian":[1.871754E4,1.1513975E4,7.2035645E3,7.9181455E3,3.5958289E3,3.1232122E3,4.0803525E3,6.6011875E3,1.316958E3,1.1543138E3,2.4415151E3,1.3690862E3,1.7541259E3,1.2882161E3,2.7921365E3],"tree_param":{"num_deleted":"0","num_feature":"46","num_nodes":"15","size_leaf_vector":"1"}},{"base_weights":[2.3900303E-3,1.837964E-1,-3.120639E-1,2.5846988E-1,3.6970004E-2,-2.0519783E-1,-4.531043E-1,4.57745E-3,8.828661E-3,-2.8277512E-4,4.33069E-3,-1.0252262E-2,-4.0495945E-3,-1.7121313E-2,-1.1904537E-2],"categories":[],"categories_nodes":[],"categories_segments":[],"categories_sizes":[],"default_left":[0,0,1,0,0,1,1,0,0,0,0,0,0,0,0],"id":28,"left_children":[1,3,5,7,9,11,13,-1,-1,-1,-1,-1,-1,-1,-1],"loss_changes":[1.6760592E3,2.0424213E2,1.6155078E2,4.6617676E1,3.1332497E1,5.8485596E1,2.9513489E1,0E0,0E0,0E0,0E0,0E0,0E0,0E0,0E0],"parents":[2147483647,0,0,1,1,2,2,3,3,4,4,5,5,6,6],"right_children":[2,4,6,8,10,12,14,-1,-1,-1,-1,-1,-1,-1,-1],"split_conditions":[3.3071294E-2,-3.3789536E-1,7.7985543E-1,1.4929786E-1,-1.45622E-2,-1.2249353E0,0E0,4.57745E-3,8.828661E-3,-2.8277512E-4,4.33069E-3,-1.0252262E-2,-4.0495945E-3,-1.7121313E-2,-1.1904537E-2],"split_indices":[10,10,10,22,27,18,3,0,0,0,0,0,0,0,0],"split_type":[0,0,0,0,0,0,0,0,0,0,0,0,0,0,0],"sum_hessian":[2.9371865E4,1.862773E4,1.0744136E4,1.2345309E4,6.282422E3,6.1195986E3,4.6245366E3,3.1271301E3,9.218178E3,4.3902104E3,1.8922118E3,2.0715645E3,4.0480344E3,1.4821008E3,3.1424358E3],"tree_param":{"num_deleted":"0","num_feature":"46","num_nodes":"15","size_leaf_vector":"1"}},{"base_weights":[-6.345516E-4,1.5240887E-1,-1.2317828E-1,4.371127E-2,2.510578E-1,3.1841543E-2,-1.6441436E-1,4.73706E-3,-5.4407306E-4,9.020461E-3,5.612386E-3,-4.0049313E-4,5.158534E-3,-5.8764685E-3,1.076928E-3],"categories":[],"categories_nodes":[],"categories_segments":[],"categories_sizes":[],"default_left":[0,0,0,1,0,0,1,0,0,0,0,0,0,0,0],"id":29,"left_children":[1,3,5,7,9,11,13,-1,-1,-1,-1,-1,-1,-1,-1],"loss_changes":[3.744249E2,9.513789E1,7.0898834E1,2.9885956E1,1.4490845E1,1.4787981E1,5.5242126E1,0E0,0E0,0E0,0E0,0E0,0E0,0E0,0E0],"parents":[2147483647,0,0,1,1,2,2,3,3,4,4,5,5,6,6],"right_children":[2,4,6,8,10,12,14,-1,-1,-1,-1,-1,-1,-1,-1],"split_conditions":[1.20125085E-1,3.0222064E-2,-1.4391495E-1,-5.235418E-1,-5.362576E-1,3.9583154E-2,8.2214564E-1,4.73706E-3,-5.4407306E-4,9.020461E-3,5.612386E-3,-4.0049313E-4,5.158534E-3,-5.8764685E-3,1.076928E-3],"split_indices":[35,34,22,22,35,34,12,0,0,0,0,0,0,0,0],"split_type":[0,0,0,0,0,0,0,0,0,0,0,0,0,0,0],"sum_hessian":[1.9954518E4,8.872518E3,1.1082001E4,4.224697E3,4.647821E3,2.3287207E3,8.75328E3,1.481527E3,2.7431697E3,2.607126E3,2.0406947E3,1.764211E3,5.645097E2,7.564974E3,1.1883062E3],"tree_param":{"num_deleted":"0","num_feature":"46","num_nodes":"15","size_leaf_vector":"1"}},{"base_weights":[-1.687624E-3,2.0966205E-1,-1.1293811E-1,4.8085544E-2,3.0753145E-1,6.167712E-2,-1.599844E-1,-5.912912E-4,7.328268E-3,1.139456E-2,5.20134E-3,5.0219437E-3,-4.0744326E-5,-6.1099627E-3,-1.4330767E-3],"categories":[],"categories_nodes":[],"categories_segments":[],"categories_sizes":[],"default_left":[0,0,1,0,1,0,1,0,0,0,0,0,0,0,0],"id":30,"left_children":[1,3,5,7,9,11,13,-1,-1,-1,-1,-1,-1,-1,-1],"loss_changes":[4.4010046E2,1.0199927E2,1.0078679E2,3.2489323E1,3.8645325E1,1.7369751E1,4.7308167E1,0E0,0E0,0E0,0E0,0E0,0E0,0E0,0E0],"parents":[2147483647,0,0,1,1,2,2,3,3,4,4,5,5,6,6],"right_children":[2,4,6,8,10,12,14,-1,-1,-1,-1,-1,-1,-1,-1],"split_conditions":[-9.65556E-2,-3.88002E-2,-2.5493285E-1,3.484243E0,-2.2292717E-1,-9.6384233E-1,4.6947896E-1,-5.912912E-4,7.328268E-3,1.139456E-2,5.20134E-3,5.0219437E-3,-4.0744326E-5,-6.1099627E-3,-1.4330767E-3],"split_indices":[35,34,22,18,17,22,12,0,0,0,0,0,0,0,0],"split_type":[0,0,0,0,0,0,0,0,0,0,0,0,0,0,0],"sum_hessian":[1.8707484E4,6.449857E3,1.2257629E4,2.4358577E3,4.013999E3,2.6012751E3,9.656354E3,1.8136368E3,6.2222095E2,2.6025076E3,1.4114913E3,9.6855804E2,1.632717E3,6.947777E3,2.7085767E3],"tree_param":{"num_deleted":"0","num_feature":"46","num_nodes":"15","size_leaf_vector":"1"}},{"base_weights":[4.1029416E-5,-2.301909E-1,1.565194E-1,-5.4429177E-2,-3.7590912E-1,-4.7387097E-2,2.0710362E-1,-7.926851E-3,1.1014035E-3,-1.3731772E-2,-8.299812E-3,3.9013155E-4,-6.047894E-3,7.6045673E-3,8.0704206E-4],"categories":[],"categories_nodes":[],"categories_segments":[],"categories_sizes":[],"default_left":[0,0,0,1,1,0,1,0,0,0,0,0,0,0,0],"id":31,"left_children":[1,3,5,7,9,11,13,-1,-1,-1,-1,-1,-1,-1,-1],"loss_changes":[1.0561422E3,3.0371277E2,1.800723E2,1.02975296E2,5.2023254E1,3.2359146E1,1.16856445E2,0E0,0E0,0E0,0E0,0E0,0E0,0E0,0E0],"parents":[2147483647,0,0,1,1,2,2,3,3,4,4,5,5,6,6],"right_children":[2,4,6,8,10,12,14,-1,-1,-1,-1,-1,-1,-1,-1],"split_conditions":[5.6761503E-2,4.787662E-3,-2.0402879E-1,-6.8238896E-1,-5.235418E-1,-6.966133E-3,6.607233E-1,-7.926851E-3,1.1014035E-3,-1.3731772E-2,-8.299812E-3,3.9013155E-4,-6.047894E-3,7.6045673E-3,8.0704206E-4],"split_indices":[35,34,22,22,22,34,11,0,0,0,0,0,0,0,0],"split_type":[0,0,0,0,0,0,0,0,0,0,0,0,0,0,0],"sum_hessian":[2.9305854E4,1.1857361E4,1.7448492E4,5.3777363E3,6.4796245E3,3.4682385E3,1.3980255E4,1.6258147E3,3.7519216E3,3.5418276E3,2.9377969E3,2.4955208E3,9.7271765E2,1.1116868E4,2.8633865E3],"tree_param":{"num_deleted":"0","num_feature":"46","num_nodes":"15","size_leaf_vector":"1"}},{"base_weights":[-7.1276247E-4,-1.6771446E-1,1.7668717E-1,-8.03017E-2,-2.0451592E-1,5.03759E-2,2.3621716E-1,-3.4790128E-3,1.1865394E-3,-4.667372E-3,-8.36449E-3,3.258159E-3,-9.1291213E-4,9.498346E-3,5.955523E-3],"categories":[],"categories_nodes":[],"categories_segments":[],"categories_sizes":[],"default_left":[0,0,1,0,0,1,0,0,0,0,0,0,0,0,0],"id":32,"left_children":[1,3,5,7,9,11,13,-1,-1,-1,-1,-1,-1,-1,-1],"loss_changes":[5.9134644E2,3.2992554E1,7.271878E1,1.3079151E1,2.6079254E1,1.4634741E1,1.9619904E1,0E0,0E0,0E0,0E0,0E0,0E0,0E0,0E0],"parents":[2147483647,0,0,1,1,2,2,3,3,4,4,5,5,6,6],"right_children":[2,4,6,8,10,12,14,-1,-1,-1,-1,-1,-1,-1,-1],"split_conditions":[-1.8203557E-1,2.6558766E-1,1.21320605E-1,-8.927564E-2,-1.7963292E-1,-1.1841146E-1,-1.1059089E-2,-3.4790128E-3,1.1865394E-3,-4.667372E-3,-8.36449E-3,3.258159E-3,-9.1291213E-4,9.498346E-3,5.955523E-3],"split_indices":[20,35,20,34,32,17,4,0,0,0,0,0,0,0,0],"split_type":[0,0,0,0,0,0,0,0,0,0,0,0,0,0,0],"sum_hessian":[1.9950326E4,1.0276476E4,9.673851E3,3.0493682E3,7.2271074E3,3.1017534E3,6.572097E3,2.3501743E3,6.9919366E2,4.366589E3,2.8605183E3,1.8017115E3,1.3000417E3,2.0862327E3,4.4858643E3],"tree_param":{"num_deleted":"0","num_feature":"46","num_nodes":"15","size_leaf_vector":"1"}},{"base_weights":[-2.0819202E-3,-1.5574741E-1,2.381906E-1,-2.1536076E-1,-4.328311E-2,1.0913681E-1,3.2447487E-1,-7.1941125E-3,-2.8740482E-3,1.5497769E-3,-2.6255804E-3,5.950258E-3,1.2630664E-3,1.2932563E-2,8.20497E-3],"categories":[],"categories_nodes":[],"categories_segments":[],"categories_sizes":[],"default_left":[0,0,1,1,1,1,1,0,0,0,0,0,0,0,0],"id":33,"left_children":[1,3,5,7,9,11,13,-1,-1,-1,-1,-1,-1,-1,-1],"loss_changes":[6.9144934E2,7.653296E1,8.116812E1,2.1697784E1,1.666815E1,1.7506966E1,2.3189484E1,0E0,0E0,0E0,0E0,0E0,0E0,0E0,0E0],"parents":[2147483647,0,0,1,1,2,2,3,3,4,4,5,5,6,6],"right_children":[2,4,6,8,10,12,14,-1,-1,-1,-1,-1,-1,-1,-1],"split_conditions":[8.193279E-3,-3.2592613E-1,4.7000054E-1,3.1099245E-1,0E0,-3.8181743E-1,-6.2084016E-3,-7.1941125E-3,-2.8740482E-3,1.5497769E-3,-2.6255804E-3,5.950258E-3,1.2630664E-3,1.2932563E-2,8.20497E-3],"split_indices":[20,10,20,16,3,16,3,0,0,0,0,0,0,0,0],"split_type":[0,0,0,0,0,0,0,0,0,0,0,0,0,0,0],"sum_hessian":[1.871748E4,1.1417326E4,7.3001543E3,7.459E3,3.9583267E3,2.929652E3,4.3705024E3,6.1887305E3,1.2702695E3,1.25784E3,2.7004868E3,1.252764E3,1.6768882E3,1.4017047E3,2.9687976E3],"tree_param":{"num_deleted":"0","num_feature":"46","num_nodes":"15","size_leaf_vector":"1"}},{"base_weights":[9.184377E-4,-2.1207786E-1,1.6050804E-1,-5.0973237E-2,-3.5998294E-1,-4.000227E-2,2.0819347E-1,-7.325902E-3,1.0068998E-3,-1.3241617E-2,-7.877364E-3,4.0422976E-3,-2.6664212E-3,7.4359933E-3,2.1069706E-4],"categories":[],"categories_nodes":[],"categories_segments":[],"categories_sizes":[],"default_left":[0,0,0,1,1,1,1,0,0,0,0,0,0,0,0],"id":34,"left_children":[1,3,5,7,9,11,13,-1,-1,-1,-1,-1,-1,-1,-1],"loss_changes":[9.953724E2,2.9877563E2,1.6009937E2,9.819863E1,5.1263916E1,2.756635E1,1.0793091E2,0E0,0E0,0E0,0E0,0E0,0E0,0E0,0E0],"parents":[2147483647,0,0,1,1,2,2,3,3,4,4,5,5,6,6],"right_children":[2,4,6,8,10,12,14,-1,-1,-1,-1,-1,-1,-1,-1],"split_conditions":[1.043731E-1,3.0222064E-2,-2.0402879E-1,-6.64337E-1,-5.235418E-1,-7.554958E-1,7.0909184E-1,-7.325902E-3,1.0068998E-3,-1.3241617E-2,-7.877364E-3,4.0422976E-3,-2.6664212E-3,7.4359933E-3,2.1069706E-4],"split_indices":[35,34,22,22,22,45,12,0,0,0,0,0,0,0,0],"split_type":[0,0,0,0,0,0,0,0,0,0,0,0,0,0,0],"sum_hessian":[2.9272547E4,1.2537597E4,1.6734951E4,6.0042407E3,6.533356E3,3.2154126E3,1.3519538E4,1.8245228E3,4.179718E3,3.5493625E3,2.9839934E3,7.008865E2,2.5145261E3,1.1291559E4,2.22798E3],"tree_param":{"num_deleted":"0","num_feature":"46","num_nodes":"15","size_leaf_vector":"1"}},{"base_weights":[6.195868E-5,-1.5857299E-1,1.6680649E-1,-7.1481004E-2,-1.9475082E-1,6.305405E-2,2.3641849E-1,-2.9530518E-3,3.8690614E-3,-6.866684E-3,-1.4564715E-3,3.220184E-3,-8.546037E-4,9.500882E-3,6.1281626E-3],"categories":[],"categories_nodes":[],"categories_segments":[],"categories_sizes":[],"default_left":[0,0,1,1,1,1,0,0,0,0,0,0,0,0,0],"id":35,"left_children":[1,3,5,7,9,11,13,-1,-1,-1,-1,-1,-1,-1,-1],"loss_changes":[5.2819586E2,3.217276E1,7.0238464E1,1.6332533E1,3.6014954E1,1.5890146E1,1.4707336E1,0E0,0E0,0E0,0E0,0E0,0E0,0E0,0E0],"parents":[2147483647,0,0,1,1,2,2,3,3,4,4,5,5,6,6],"right_children":[2,4,6,8,10,12,14,-1,-1,-1,-1,-1,-1,-1,-1],"split_conditions":[-1.658143E-1,1.4929786E-1,2.6390204E-1,4.336764E-2,6.259128E-1,0E0,-1.528689E-1,-2.9530518E-3,3.8690614E-3,-6.866684E-3,-1.4564715E-3,3.220184E-3,-8.546037E-4,9.500882E-3,6.1281626E-3],"split_indices":[10,22,10,12,12,27,4,0,0,0,0,0,0,0,0],"split_type":[0,0,0,0,0,0,0,0,0,0,0,0,0,0,0],"sum_hessian":[1.9958459E4,1.0228072E4,9.730387E3,3.006152E3,7.2219204E3,3.9109226E3,5.819464E3,2.6520774E3,3.540747E2,5.8525093E3,1.3694109E3,2.6352056E3,1.2757169E3,1.6513558E3,4.1681084E3],"tree_param":{"num_deleted":"0","num_feature":"46","num_nodes":"15","size_leaf_vector":"1"}},{"base_weights":[-1.5710884E-3,2.003603E-1,-1.1033655E-1,4.6411417E-2,2.922148E-1,1.2199488E-1,-1.4198343E-1,-5.7945284E-4,6.9738864E-3,1.0905842E-2,5.342952E-3,2.2961705E-3,7.67644E-3,-5.589123E-3,-1.0336728E-3],"categories":[],"categories_nodes":[],"categories_segments":[],"categories_sizes":[],"default_left":[0,0,0,0,0,0,0,0,0,0,0,0,0,0,0],"id":36,"left_children":[1,3,5,7,9,11,13,-1,-1,-1,-1,-1,-1,-1,-1],"loss_changes":[4.1039413E2,9.243149E1,8.937819E1,2.9986637E1,3.300882E1,8.778997E0,5.091646E1,0E0,0E0,0E0,0E0,0E0,0E0,0E0,0E0],"parents":[2147483647,0,0,1,1,2,2,3,3,4,4,5,5,6,6],"right_children":[2,4,6,8,10,12,14,-1,-1,-1,-1,-1,-1,-1,-1],"split_conditions":[-9.65556E-2,-3.88002E-2,-6.8238896E-1,3.085924E0,-3.3796388E-1,4.327554E-3,-1.6127841E-1,-5.7945284E-4,6.9738864E-3,1.0905842E-2,5.342952E-3,2.2961705E-3,7.67644E-3,-5.589123E-3,-1.0336728E-3],"split_indices":[35,34,22,18,22,17,34,0,0,0,0,0,0,0,0],"split_type":[0,0,0,0,0,0,0,0,0,0,0,0,0,0,0],"sum_hessian":[1.8675537E4,6.53626E3,1.2139276E4,2.4453538E3,4.090906E3,1.4535986E3,1.0685678E4,1.8103065E3,6.350472E2,2.510884E3,1.5800221E3,1.0910381E3,3.6256058E2,7.564206E3,3.1214717E3],"tree_param":{"num_deleted":"0","num_feature":"46","num_nodes":"15","size_leaf_vector":"1"}},{"base_weights":[-1.5903955E-3,1.7023335E-1,-2.9468587E-1,2.4161857E-1,3.1475596E-2,-1.8920463E-1,-4.168385E-1,8.090555E-3,3.2456708E-3,2.3963093E-3,-2.151002E-3,-6.639842E-3,2.0563283E-3,-1.5963849E-2,-1.08596E-2],"categories":[],"categories_nodes":[],"categories_segments":[],"categories_sizes":[],"default_left":[0,0,1,1,0,1,1,0,0,0,0,0,0,0,0],"id":37,"left_children":[1,3,5,7,9,11,13,-1,-1,-1,-1,-1,-1,-1,-1],"loss_changes":[1.4743715E3,1.8277734E2,1.3901697E2,4.5489807E1,3.1366795E1,4.822505E1,3.0716492E1,0E0,0E0,0E0,0E0,0E0,0E0,0E0,0E0],"parents":[2147483647,0,0,1,1,2,2,3,3,4,4,5,5,6,6],"right_children":[2,4,6,8,10,12,14,-1,-1,-1,-1,-1,-1,-1,-1],"split_conditions":[3.3071294E-2,-3.3789536E-1,7.1343005E-1,5.1164454E-1,5.085E-4,1.1342888E0,0E0,8.090555E-3,3.2456708E-3,2.3963093E-3,-2.151002E-3,-6.639842E-3,2.0563283E-3,-1.5963849E-2,-1.08596E-2],"split_indices":[10,10,10,12,4,27,3,0,0,0,0,0,0,0,0],"split_type":[0,0,0,0,0,0,0,0,0,0,0,0,0,0,0],"sum_hessian":[2.9266215E4,1.8451398E4,1.0814817E4,1.2181041E4,6.2703574E3,5.8102744E3,5.004543E3,1.0059864E4,2.121176E3,4.268884E3,2.0014736E3,5.167012E3,6.43262E2,1.5993844E3,3.4051587E3],"tree_param":{"num_deleted":"0","num_feature":"46","num_nodes":"15","size_leaf_vector":"1"}},{"base_weights":[-4.2389805E-4,-1.6249602E-1,1.687391E-1,-7.554599E-2,-1.9703804E-1,4.486288E-2,2.233766E-1,-3.2409106E-3,9.5920643E-4,-4.516083E-3,-8.028674E-3,3.0655544E-3,-9.400862E-4,8.988576E-3,5.639286E-3],"categories":[],"categories_nodes":[],"categories_segments":[],"categories_sizes":[],"default_left":[0,0,0,0,0,1,0,0,0,0,0,0,0,0,0],"id":38,"left_children":[1,3,5,7,9,11,13,-1,-1,-1,-1,-1,-1,-1,-1],"loss_changes":[5.469715E2,3.0526642E1,6.601956E1,1.0163286E1,2.3722687E1,1.3093495E1,1.7997925E1,0E0,0E0,0E0,0E0,0E0,0E0,0E0,0E0],"parents":[2147483647,0,0,1,1,2,2,3,3,4,4,5,5,6,6],"right_children":[2,4,6,8,10,12,14,-1,-1,-1,-1,-1,-1,-1,-1],"split_conditions":[-1.8203557E-1,2.4751459E-1,1.21320605E-1,-8.927564E-2,-1.7963292E-1,-1.1336233E-1,0E0,-3.2409106E-3,9.5920643E-4,-4.516083E-3,-8.028674E-3,3.0655544E-3,-9.400862E-4,8.988576E-3,5.639286E-3],"split_indices":[20,35,20,34,32,17,4,0,0,0,0,0,0,0,0],"split_type":[0,0,0,0,0,0,0,0,0,0,0,0,0,0,0],"sum_hessian":[1.9940371E4,1.0183722E4,9.75665E3,2.8999163E3,7.2838057E3,2.988995E3,6.767655E3,2.2270457E3,6.728705E2,4.400417E3,2.883389E3,1.7048116E3,1.2841833E3,2.134094E3,4.633561E3],"tree_param":{"num_deleted":"0","num_feature":"46","num_nodes":"15","size_leaf_vector":"1"}},{"base_weights":[-1.8039226E-4,1.6793534E-1,-1.2185438E-1,3.7891608E-2,2.6925984E-1,4.2114165E-2,-1.594005E-1,6.313554E-3,-1.0329966E-3,1.0036883E-2,5.0055264E-3,4.3766587E-3,-3.1594152E-4,-6.056549E-3,-1.3526796E-3],"categories":[],"categories_nodes":[],"categories_segments":[],"categories_sizes":[],"default_left":[0,0,0,1,0,0,1,0,0,0,0,0,0,0,0],"id":39,"left_children":[1,3,5,7,9,11,13,-1,-1,-1,-1,-1,-1,-1,-1],"loss_changes":[3.824887E2,1.0339917E2,6.681613E1,4.3019615E1,2.922638E1,1.10713005E1,4.2825317E1,0E0,0E0,0E0,0E0,0E0,0E0,0E0,0E0],"parents":[2147483647,0,0,1,1,2,2,3,3,4,4,5,5,6,6],"right_children":[2,4,6,8,10,12,14,-1,-1,-1,-1,-1,-1,-1,-1],"split_conditions":[4.8456065E-2,1.3208024E-2,-2.8113192E-1,-7.600808E-1,-2.9490492E-1,-1.0141782E0,4.6947896E-1,6.313554E-3,-1.0329966E-3,1.0036883E-2,5.0055264E-3,4.3766587E-3,-3.1594152E-4,-6.056549E-3,-1.3526796E-3],"split_indices":[35,34,22,22,22,22,12,0,0,0,0,0,0,0,0],"split_type":[0,0,0,0,0,0,0,0,0,0,0,0,0,0,0],"sum_hessian":[1.8688746E4,7.846044E3,1.0842701E4,3.4390742E3,4.4069697E3,2.0200933E3,8.822608E3,1.0128827E3,2.4261917E3,2.6840815E3,1.7228882E3,6.769128E2,1.3431805E3,6.4292905E3,2.3933176E3],"tree_param":{"num_deleted":"0","num_feature":"46","num_nodes":"15","size_leaf_vector":"1"}},{"base_weights":[9.887895E-4,1.3726608E-1,-2.12569E-1,-5.4607604E-2,2.096452E-1,-3.5942364E-1,-8.064316E-2,-5.4363627E-3,8.3601836E-4,7.969476E-3,1.7461046E-3,-5.7734465E-3,-1.1890678E-2,-7.812177E-4,-1.0935338E-2],"categories":[],"categories_nodes":[],"categories_segments":[],"categories_sizes":[],"default_left":[0,0,1,0,1,0,0,0,0,0,0,0,0,0,0],"id":40,"left_children":[1,3,5,7,9,11,13,-1,-1,-1,-1,-1,-1,-1,-1],"loss_changes":[8.504474E2,2.4779306E2,2.2039471E2,5.1084812E1,1.0978668E2,3.2829346E1,9.2997055E1,0E0,0E0,0E0,0E0,0E0,0E0,0E0,0E0],"parents":[2147483647,0,0,1,1,2,2,3,3,4,4,5,5,6,6],"right_children":[2,4,6,8,10,12,14,-1,-1,-1,-1,-1,-1,-1,-1],"split_conditions":[-8.927564E-2,-1.4391495E-1,-2.9490492E-1,-8.486045E-1,4.6947896E-1,-1.0285419E0,1.9593099E0,-5.4363627E-3,8.3601836E-4,7.969476E-3,1.7461046E-3,-5.7734465E-3,-1.1890678E-2,-7.812177E-4,-1.0935338E-2],"split_indices":[34,22,22,22,12,23,11,0,0,0,0,0,0,0,0],"split_type":[0,0,0,0,0,0,0,0,0,0,0,0,0,0,0],"sum_hessian":[2.9211896E4,1.7833572E4,1.1378323E4,4.8849707E3,1.2948602E4,5.3804243E3,5.997899E3,1.9245977E3,2.9603728E3,9.450121E3,3.4984805E3,9.8014087E2,4.400283E3,5.0348877E3,9.630115E2],"tree_param":{"num_deleted":"0","num_feature":"46","num_nodes":"15","size_leaf_vector":"1"}},{"base_weights":[-4.6319263E-5,-1.5828809E-1,1.6340166E-1,-1.1356063E-1,-2.2256726E-1,4.150132E-2,2.1676564E-1,-6.3499874E-3,-1.9884657E-3,-7.909266E-3,3.8317093E-4,3.085136E-3,-1.0597396E-3,8.677221E-3,5.4068062E-3],"categories":[],"categories_nodes":[],"categories_segments":[],"categories_sizes":[],"default_left":[0,0,0,0,1,1,1,0,0,0,0,0,0,0,0],"id":41,"left_children":[1,3,5,7,9,11,13,-1,-1,-1,-1,-1,-1,-1,-1],"loss_changes":[5.1537384E2,2.8981354E1,6.3716522E1,2.7668205E1,4.0123123E1,1.4110619E1,1.7789673E1,0E0,0E0,0E0,0E0,0E0,0E0,0E0,0E0],"parents":[2147483647,0,0,1,1,2,2,3,3,4,4,5,5,6,6],"right_children":[2,4,6,8,10,12,14,-1,-1,-1,-1,-1,-1,-1,-1],"split_conditions":[-1.8203557E-1,-1.7963292E-1,1.21320605E-1,-7.60292E-1,-1.2829599E-1,-1.3871619E-1,0E0,-6.3499874E-3,-1.9884657E-3,-7.909266E-3,3.8317093E-4,3.085136E-3,-1.0597396E-3,8.677221E-3,5.4068062E-3],"split_indices":[20,32,20,20,32,17,4,0,0,0,0,0,0,0,0],"split_type":[0,0,0,0,0,0,0,0,0,0,0,0,0,0,0],"sum_hessian":[1.9916072E4,1.0119277E4,9.796795E3,5.9753066E3,4.1439707E3,2.9856064E3,6.811189E3,1.9374976E3,4.0378088E3,3.5276685E3,6.1630206E2,1.6592203E3,1.3263861E3,2.2713533E3,4.5398354E3],"tree_param":{"num_deleted":"0","num_feature":"46","num_nodes":"15","size_leaf_vector":"1"}},{"base_weights":[8.959453E-4,-1.3730054E-1,2.4285698E-1,-1.9625029E-1,-2.8705765E-2,1.326958E-1,3.13409E-1,-6.4275125E-3,-1.2004826E-3,5.173253E-4,-2.9747444E-3,6.01046E-3,8.9623005E-4,7.933446E-3,1.2344569E-2],"categories":[],"categories_nodes":[],"categories_segments":[],"categories_sizes":[],"default_left":[0,0,1,1,1,1,0,0,0,0,0,0,0,0,0],"id":42,"left_children":[1,3,5,7,9,11,13,-1,-1,-1,-1,-1,-1,-1,-1],"loss_changes":[6.246569E2,7.6087234E1,5.2572174E1,2.162738E1,1.3570488E1,1.8472977E1,1.9316833E1,0E0,0E0,0E0,0E0,0E0,0E0,0E0,0E0],"parents":[2147483647,0,0,1,1,2,2,3,3,4,4,5,5,6,6],"right_children":[2,4,6,8,10,12,14,-1,-1,-1,-1,-1,-1,-1,-1],"split_conditions":[8.013229E-2,-3.2725152E-1,5.520497E-1,7.412985E-1,-2.7271116E-2,2.2426406E-2,1.6539661E0,-6.4275125E-3,-1.2004826E-3,5.173253E-4,-2.9747444E-3,6.01046E-3,8.9623005E-4,7.933446E-3,1.2344569E-2],"split_indices":[20,20,20,12,17,22,20,0,0,0,0,0,0,0,0],"split_type":[0,0,0,0,0,0,0,0,0,0,0,0,0,0,0],"sum_hessian":[1.8670973E4,1.1884998E4,6.785975E3,7.7007017E3,4.184297E3,2.6549277E3,4.1310474E3,6.903478E3,7.9722363E2,2.534827E3,1.6494701E3,1.5984569E3,1.056471E3,2.7678115E3,1.3632358E3],"tree_param":{"num_deleted":"0","num_feature":"46","num_nodes":"15","size_leaf_vector":"1"}},{"base_weights":[5.1194103E-4,1.3513808E-1,-2.0892377E-1,-5.412013E-2,2.0667547E-1,-3.533064E-1,-8.494336E-2,-5.0270814E-3,1.0689731E-3,7.873767E-3,1.7021032E-3,-5.604095E-3,-1.1735341E-2,-7.933232E-4,-1.0374157E-2],"categories":[],"categories_nodes":[],"categories_segments":[],"categories_sizes":[],"default_left":[0,0,1,0,1,0,0,0,0,0,0,0,0,0,0],"id":43,"left_children":[1,3,5,7,9,11,13,-1,-1,-1,-1,-1,-1,-1,-1],"loss_changes":[8.239659E2,2.4089722E2,2.0453696E2,4.9755093E1,1.0790753E2,3.293567E1,9.3935234E1,0E0,0E0,0E0,0E0,0E0,0E0,0E0,0E0],"parents":[2147483647,0,0,1,1,2,2,3,3,4,4,5,5,6,6],"right_children":[2,4,6,8,10,12,14,-1,-1,-1,-1,-1,-1,-1,-1],"split_conditions":[-8.927564E-2,-1.4391495E-1,-3.3796388E-1,-7.600808E-1,4.6947896E-1,-1.0285419E0,1.7702236E0,-5.0270814E-3,1.0689731E-3,7.873767E-3,1.7021032E-3,-5.604095E-3,-1.1735341E-2,-7.933232E-4,-1.0374157E-2],"split_indices":[34,22,22,22,12,23,11,0,0,0,0,0,0,0,0],"split_type":[0,0,0,0,0,0,0,0,0,0,0,0,0,0,0],"sum_hessian":[2.9213281E4,1.7783652E4,1.1429631E4,4.8784688E3,1.2905183E4,5.2760747E3,6.1535557E3,2.1528647E3,2.725604E3,9.40309E3,3.502093E3,9.831777E2,4.2928975E3,5.030871E3,1.1226848E3],"tree_param":{"num_deleted":"0","num_feature":"46","num_nodes":"15","size_leaf_vector":"1"}},{"base_weights":[6.986875E-4,-1.4869064E-1,1.5851331E-1,-6.5049626E-2,-1.8412721E-1,6.744105E-2,2.2362329E-1,-2.689187E-3,4.028039E-3,-6.443785E-3,-1.0640294E-3,3.6635022E-3,-4.1104824E-4,8.995512E-3,5.7276604E-3],"categories":[],"categories_nodes":[],"categories_segments":[],"categories_sizes":[],"default_left":[0,0,1,1,1,1,1,0,0,0,0,0,0,0,0],"id":44,"left_children":[1,3,5,7,9,11,13,-1,-1,-1,-1,-1,-1,-1,-1],"loss_changes":[4.6937335E2,3.025412E1,5.7333313E1,1.5015614E1,3.269908E1,1.794633E1,1.3780884E1,0E0,0E0,0E0,0E0,0E0,0E0,0E0,0E0],"parents":[2147483647,0,0,1,1,2,2,3,3,4,4,5,5,6,6],"right_children":[2,4,6,8,10,12,14,-1,-1,-1,-1,-1,-1,-1,-1],"split_conditions":[-1.5220684E-1,1.4929786E-1,3.024583E-1,7.284879E-2,6.797324E-1,-9.660862E-2,-1.2394056E-1,-2.689187E-3,4.028039E-3,-6.443785E-3,-1.0640294E-3,3.6635022E-3,-4.1104824E-4,8.995512E-3,5.7276604E-3],"split_indices":[10,22,10,12,12,17,4,0,0,0,0,0,0,0,0],"split_type":[0,0,0,0,0,0,0,0,0,0,0,0,0,0,0],"sum_hessian":[1.9899102E4,1.0222572E4,9.676528E3,3.0463777E3,7.176195E3,4.03824E3,5.638288E3,2.714268E3,3.3210968E2,5.947181E3,1.2290137E3,2.4110781E3,1.6271619E3,1.6804016E3,3.9578867E3],"tree_param":{"num_deleted":"0","num_feature":"46","num_nodes":"15","size_leaf_vector":"1"}},{"base_weights":[-1.7417951E-3,-1.4660323E-1,2.1726695E-1,-1.9402926E-1,-4.4784542E-2,1.0504781E-1,2.90776E-1,-6.501789E-3,-2.067141E-3,1.5514743E-3,-2.7174214E-3,6.006066E-3,1.5424117E-3,7.2551356E-3,1.14149675E-2],"categories":[],"categories_nodes":[],"categories_segments":[],"categories_sizes":[],"default_left":[0,0,1,1,1,0,0,0,0,0,0,0,0,0,0],"id":45,"left_children":[1,3,5,7,9,11,13,-1,-1,-1,-1,-1,-1,-1,-1],"loss_changes":[5.926665E2,5.425081E1,6.1196808E1,2.170575E1,1.5842281E1,1.5010773E1,1.925824E1,0E0,0E0,0E0,0E0,0E0,0E0,0E0,0E0],"parents":[2147483647,0,0,1,1,2,2,3,3,4,4,5,5,6,6],"right_children":[2,4,6,8,10,12,14,-1,-1,-1,-1,-1,-1,-1,-1],"split_conditions":[8.193279E-3,-3.2725152E-1,4.7000054E-1,3.7820265E-1,0E0,-3.8181743E-1,2.7161866E-2,-6.501789E-3,-2.067141E-3,1.5514743E-3,-2.7174214E-3,6.006066E-3,1.5424117E-3,7.2551356E-3,1.14149675E-2],"split_indices":[20,20,20,16,4,16,4,0,0,0,0,0,0,0,0],"split_type":[0,0,0,0,0,0,0,0,0,0,0,0,0,0,0],"sum_hessian":[1.8670809E4,1.1238713E4,7.4320957E3,7.6642573E3,3.5744558E3,2.946344E3,4.485752E3,6.484361E3,1.1798962E3,1.1501813E3,2.4242744E3,1.057149E3,1.8891948E3,2.9145347E3,1.5712173E3],"tree_param":{"num_deleted":"0","num_feature":"46","num_nodes":"15","size_leaf_vector":"1"}},{"base_weights":[1.5146501E-3,1.3197589E-1,-2.0138E-1,-1.4743063E-1,1.769896E-1,-3.3936495E-1,-7.764432E-2,2.6731964E-6,-6.375121E-3,6.3253636E-3,3.3138193E-5,-7.4285227E-3,-1.2066854E-2,-7.016533E-5,-8.290089E-3],"categories":[],"categories_nodes":[],"categories_segments":[],"categories_sizes":[],"default_left":[0,0,1,0,1,0,0,0,0,0,0,0,0,0,0],"id":46,"left_children":[1,3,5,7,9,11,13,-1,-1,-1,-1,-1,-1,-1,-1],"loss_changes":[7.728306E2,2.2362924E2,1.9495728E2,2.3695526E1,9.114728E1,3.0650452E1,9.0231544E1,0E0,0E0,0E0,0E0,0E0,0E0,0E0,0E0],"parents":[2147483647,0,0,1,1,2,2,3,3,4,4,5,5,6,6],"right_children":[2,4,6,8,10,12,14,-1,-1,-1,-1,-1,-1,-1,-1],"split_conditions":[-8.927564E-2,-6.64337E-1,-2.9490492E-1,-1.0722578E0,6.511376E-1,4.2222345E-1,4E0,2.6731964E-6,-6.375121E-3,6.3253636E-3,3.3138193E-5,-7.4285227E-3,-1.2066854E-2,-7.016533E-5,-8.290089E-3],"split_indices":[34,22,22,23,12,45,18,0,0,0,0,0,0,0,0],"split_type":[0,0,0,0,0,0,0,0,0,0,0,0,0,0,0],"sum_hessian":[2.9186576E4,1.7765262E4,1.1421314E4,2.4633735E3,1.5301889E4,5.3956235E3,6.025691E3,7.555514E2,1.7078223E3,1.2831062E4,2.470827E3,2.203855E3,3.1917686E3,4.3732583E3,1.6524327E3],"tree_param":{"num_deleted":"0","num_feature":"46","num_nodes":"15","size_leaf_vector":"1"}},{"base_weights":[-9.6172775E-4,-9.56825E-2,1.3762306E-1,4.1758105E-2,-1.5512027E-1,1.9780508E-1,5.9642114E-2,4.943806E-4,5.835076E-3,-5.7871924E-3,2.4254095E-4,2.0929612E-3,6.4990525E-3,-2.5257687E-4,6.919408E-3],"categories":[],"categories_nodes":[],"categories_segments":[],"categories_sizes":[],"default_left":[0,0,1,1,1,0,0,0,0,0,0,0,0,0,0],"id":47,"left_children":[1,3,5,7,9,11,13,-1,-1,-1,-1,-1,-1,-1,-1],"loss_changes":[2.613722E2,9.665203E1,3.7879044E1,1.3786299E1,5.0932297E1,1.0919693E1,4.1075993E1,0E0,0E0,0E0,0E0,0E0,0E0,0E0,0E0],"parents":[2147483647,0,0,1,1,2,2,3,3,4,4,5,5,6,6],"right_children":[2,4,6,8,10,12,14,-1,-1,-1,-1,-1,-1,-1,-1],"split_conditions":[-8.927564E-2,-8.292373E-2,0E0,1.2445776E-3,6.654639E-1,-1.0890272E0,1.403353E0,4.943806E-4,5.835076E-3,-5.7871924E-3,2.4254095E-4,2.0929612E-3,6.4990525E-3,-2.5257687E-4,6.919408E-3],"split_indices":[34,22,22,12,12,23,11,0,0,0,0,0,0,0,0],"split_type":[0,0,0,0,0,0,0,0,0,0,0,0,0,0,0],"sum_hessian":[1.9901234E4,1.1822362E4,8.0788726E3,3.5696316E3,8.252731E3,4.555483E3,3.5233894E3,3.0675076E3,5.0212396E2,6.700487E3,1.5522446E3,5.8706976E2,3.968413E3,2.5236926E3,9.996968E2],"tree_param":{"num_deleted":"0","num_feature":"46","num_nodes":"15","size_leaf_vector":"1"}},{"base_weights":[-3.3289517E-4,1.822044E-1,-1.01366274E-1,4.0434312E-2,2.5622374E-1,3.10303E-2,-1.4899012E-1,7.0111915E-3,-6.153091E-4,9.494937E-3,4.7010602E-3,4.1010533E-3,-6.087216E-4,-5.857863E-3,-1.2174874E-3],"categories":[],"categories_nodes":[],"categories_segments":[],"categories_sizes":[],"default_left":[0,0,1,1,0,0,1,0,0,0,0,0,0,0,0],"id":48,"left_children":[1,3,5,7,9,11,13,-1,-1,-1,-1,-1,-1,-1,-1],"loss_changes":[3.443322E2,6.975456E1,7.5802734E1,2.6971134E1,2.5962524E1,1.7279076E1,4.4303345E1,0E0,0E0,0E0,0E0,0E0,0E0,0E0,0E0],"parents":[2147483647,0,0,1,1,2,2,3,3,4,4,5,5,6,6],"right_children":[2,4,6,8,10,12,14,-1,-1,-1,-1,-1,-1,-1,-1],"split_conditions":[-9.65556E-2,-6.627903E-1,-1.0753571E-1,-7.4828243E-1,-2.9490492E-1,-9.384906E-1,4.6947896E-1,7.0111915E-3,-6.153091E-4,9.494937E-3,4.7010602E-3,4.1010533E-3,-6.087216E-4,-5.857863E-3,-1.2174874E-3],"split_indices":[35,28,22,17,22,22,12,0,0,0,0,0,0,0,0],"split_type":[0,0,0,0,0,0,0,0,0,0,0,0,0,0,0],"sum_hessian":[1.866072E4,6.647196E3,1.2013524E4,2.2827505E3,4.3644453E3,3.1786016E3,8.834923E3,5.4385706E2,1.7388934E3,2.7114106E3,1.6530347E3,1.036369E3,2.1422324E3,6.1891646E3,2.645758E3],"tree_param":{"num_deleted":"0","num_feature":"46","num_nodes":"15","size_leaf_vector":"1"}},{"base_weights":[3.493456E-5,-1.9282436E-1,1.4644343E-1,-3.3251232E-1,-9.3312815E-2,-3.648195E-2,1.9074008E-1,-6.5197865E-3,-1.1766941E-2,-6.4910506E-4,-8.405401E-3,2.983091E-3,-2.5941543E-3,7.161356E-3,1.3343389E-3],"categories":[],"categories_nodes":[],"categories_segments":[],"categories_sizes":[],"default_left":[0,1,0,0,0,1,1,0,0,0,0,0,0,0,0],"id":49,"left_children":[1,3,5,7,9,11,13,-1,-1,-1,-1,-1,-1,-1,-1],"loss_changes":[8.2301373E2,1.7469107E2,1.3429367E2,3.555603E1,9.84479E1,2.2018677E1,9.354474E1,0E0,0E0,0E0,0E0,0E0,0E0,0E0,0E0],"parents":[2147483647,0,0,1,1,2,2,3,3,4,4,5,5,6,6],"right_children":[2,4,6,8,10,12,14,-1,-1,-1,-1,-1,-1,-1,-1],"split_conditions":[1.043731E-1,-6.459803E-1,-2.0402879E-1,1.9355555E-1,3.484243E0,-6.09011E-1,5.1164454E-1,-6.5197865E-3,-1.1766941E-2,-6.4910506E-4,-8.405401E-3,2.983091E-3,-2.5941543E-3,7.161356E-3,1.3343389E-3],"split_indices":[35,36,36,45,18,45,12,0,0,0,0,0,0,0,0],"split_type":[0,0,0,0,0,0,0,0,0,0,0,0,0,0,0],"sum_hessian":[2.9137428E4,1.2573356E4,1.656407E4,5.225885E3,7.3474717E3,3.2293164E3,1.3334754E4,1.792229E3,3.4336558E3,5.314563E3,2.0329086E3,8.670186E2,2.3622979E3,1.0038963E4,3.2957913E3],"tree_param":{"num_deleted":"0","num_feature":"46","num_nodes":"15","size_leaf_vector":"1"}},{"base_weights":[1.1967528E-3,-1.51926E-1,1.5611216E-1,-7.19754E-2,-1.8609865E-1,4.68561E-2,2.0811833E-1,-2.6622028E-3,3.9670775E-3,-4.12112E-3,-7.672568E-3,3.0580217E-3,-7.2566915E-4,8.723829E-3,5.3968504E-3],"categories":[],"categories_nodes":[],"categories_segments":[],"categories_sizes":[],"default_left":[0,0,1,1,0,1,0,0,0,0,0,0,0,0,0],"id":50,"left_children":[1,3,5,7,9,11,13,-1,-1,-1,-1,-1,-1,-1,-1],"loss_changes":[4.716848E2,2.7254791E1,5.611447E1,1.0338111E1,2.3591766E1,1.2511005E1,1.5361237E1,0E0,0E0,0E0,0E0,0E0,0E0,0E0,0E0],"parents":[2147483647,0,0,1,1,2,2,3,3,4,4,5,5,6,6],"right_children":[2,4,6,8,10,12,14,-1,-1,-1,-1,-1,-1,-1,-1],"split_conditions":[-1.8203557E-1,2.6558766E-1,1.337253E-1,9.336332E-1,-1.815413E-1,-1.6321371E-1,-2.2387047E-1,-2.6622028E-3,3.9670775E-3,-4.12112E-3,-7.672568E-3,3.0580217E-3,-7.2566915E-4,8.723829E-3,5.3968504E-3],"split_indices":[20,35,20,12,32,17,3,0,0,0,0,0,0,0,0],"split_type":[0,0,0,0,0,0,0,0,0,0,0,0,0,0,0],"sum_hessian":[1.987463E4,9.995195E3,9.879436E3,2.997576E3,6.9976196E3,3.1891277E3,6.690308E3,2.772773E3,2.2480302E2,4.1260186E3,2.871601E3,1.7952103E3,1.3939175E3,1.6908116E3,4.9994966E3],"tree_param":{"num_deleted":"0","num_feature":"46","num_nodes":"15","size_leaf_vector":"1"}},{"base_weights":[1.657426E-3,-1.4004986E-1,2.1008654E-1,-1.8846957E-1,-4.599505E-2,1.0477308E-1,2.8988057E-1,-6.3845688E-3,-1.9988331E-3,-2.8346714E-3,1.6256127E-3,6.0663302E-3,1.576561E-3,1.1510527E-2,7.359826E-3],"categories":[],"categories_nodes":[],"categories_segments":[],"categories_sizes":[],"default_left":[0,0,1,1,0,1,1,0,0,0,0,0,0,0,0],"id":51,"left_children":[1,3,5,7,9,11,13,-1,-1,-1,-1,-1,-1,-1,-1],"loss_changes":[5.515422E2,5.0580383E1,6.335724E1,2.1695343E1,1.8411026E1,1.6563572E1,1.7487183E1,0E0,0E0,0E0,0E0,0E0,0E0,0E0,0E0],"parents":[2147483647,0,0,1,1,2,2,3,3,4,4,5,5,6,6],"right_children":[2,4,6,8,10,12,14,-1,-1,-1,-1,-1,-1,-1,-1],"split_conditions":[3.1028764E-4,-3.483127E-1,5.305152E-1,3.370165E-1,4.642406E-3,-1.0359951E0,0E0,-6.3845688E-3,-1.9988331E-3,-2.8346714E-3,1.6256127E-3,6.0663302E-3,1.576561E-3,1.1510527E-2,7.359826E-3],"split_indices":[20,20,20,16,3,18,3,0,0,0,0,0,0,0,0],"split_type":[0,0,0,0,0,0,0,0,0,0,0,0,0,0,0],"sum_hessian":[1.8663623E4,1.1111055E4,7.5525693E3,7.3316685E3,3.7793857E3,3.2606611E3,4.2919087E3,6.1074053E3,1.2242634E3,2.5468474E3,1.2325386E3,1.1327432E3,2.1279177E3,1.3698063E3,2.9221023E3],"tree_param":{"num_deleted":"0","num_feature":"46","num_nodes":"15","size_leaf_vector":"1"}},{"base_weights":[6.8057634E-5,1.6764545E-1,-2.7274853E-1,2.24232E-1,5.3814746E-2,-1.6007055E-1,-3.639183E-1,7.544641E-3,2.8264718E-3,3.2434582E-3,-1.821589E-3,-8.005669E-3,-3.151231E-3,-1.4576271E-2,-9.218693E-3],"categories":[],"categories_nodes":[],"categories_segments":[],"categories_sizes":[],"default_left":[0,0,1,1,0,1,1,0,0,0,0,0,0,0,0],"id":52,"left_children":[1,3,5,7,9,11,13,-1,-1,-1,-1,-1,-1,-1,-1],"loss_changes":[1.331881E3,1.16186584E2,1.1358765E2,4.25943E1,3.734278E1,2.9046616E1,4.154486E1,0E0,0E0,0E0,0E0,0E0,0E0,0E0,0E0],"parents":[2147483647,0,0,1,1,2,2,3,3,4,4,5,5,6,6],"right_children":[2,4,6,8,10,12,14,-1,-1,-1,-1,-1,-1,-1,-1],"split_conditions":[3.1028764E-4,-3.483127E-1,5.305152E-1,3.1099245E-1,5.085E-4,-1.1037474E0,-6.2084016E-3,7.544641E-3,2.8264718E-3,3.2434582E-3,-1.821589E-3,-8.005669E-3,-3.151231E-3,-1.4576271E-2,-9.218693E-3],"split_indices":[20,20,20,16,4,18,3,0,0,0,0,0,0,0,0],"split_type":[0,0,0,0,0,0,0,0,0,0,0,0,0,0,0],"sum_hessian":[2.9122598E4,1.8042148E4,1.1080449E4,1.2048066E4,5.994082E3,4.9618315E3,6.118617E3,9.956219E3,2.0918472E3,4.066461E3,1.9276213E3,1.680862E3,3.2809695E3,1.928159E3,4.1904585E3],"tree_param":{"num_deleted":"0","num_feature":"46","num_nodes":"15","size_leaf_vector":"1"}},{"base_weights":[6.796872E-5,1.2041903E-1,-1.0798472E-1,3.6355E-2,2.0435704E-1,1.5024007E-2,-1.4790313E-1,4.0880344E-3,-5.89636E-4,8.3840275E-3,4.985333E-3,-8.6266943E-4,3.7315816E-3,-5.720817E-3,-1.0318264E-3],"categories":[],"categories_nodes":[],"categories_segments":[],"categories_sizes":[],"default_left":[0,0,0,1,1,1,1,0,0,0,0,0,0,0,0],"id":53,"left_children":[1,3,5,7,9,11,13,-1,-1,-1,-1,-1,-1,-1,-1],"loss_changes":[2.5887915E2,6.641556E1,5.151824E1,2.6378649E1,1.32782135E1,1.2344484E1,3.843579E1,0E0,0E0,0E0,0E0,0E0,0E0,0E0,0E0],"parents":[2147483647,0,0,1,1,2,2,3,3,4,4,5,5,6,6],"right_children":[2,4,6,8,10,12,14,-1,-1,-1,-1,-1,-1,-1,-1],"split_conditions":[1.4809774E-1,7.595388E-2,-3.761059E-2,-5.235418E-1,-1.2394056E-1,3.6966047E-1,5.375484E-1,4.0880344E-3,-5.89636E-4,8.3840275E-3,4.985333E-3,-8.6266943E-4,3.7315816E-3,-5.720817E-3,-1.0318264E-3],"split_indices":[35,34,36,36,4,45,11,0,0,0,0,0,0,0,0],"split_type":[0,0,0,0,0,0,0,0,0,0,0,0,0,0,0],"sum_hessian":[1.9897262E4,9.412678E3,1.0484584E4,4.7063887E3,4.706289E3,2.5695676E3,7.9150166E3,1.6880283E3,3.01836E3,1.5753951E3,3.1308938E3,1.8376198E3,7.3194794E2,5.745622E3,2.1693943E3],"tree_param":{"num_deleted":"0","num_feature":"46","num_nodes":"15","size_leaf_vector":"1"}},{"base_weights":[2.5354063E-3,-1.3669755E-1,2.0459116E-1,-1.8956578E-1,-3.3551343E-2,1.08526655E-1,2.8039655E-1,-6.412598E-3,-2.1892372E-3,2.075538E-3,-2.4180962E-3,5.9116175E-3,1.8073394E-3,6.990442E-3,1.0970809E-2],"categories":[],"categories_nodes":[],"categories_segments":[],"categories_sizes":[],"default_left":[0,0,1,1,1,1,0,0,0,0,0,0,0,0,0],"id":54,"left_children":[1,3,5,7,9,11,13,-1,-1,-1,-1,-1,-1,-1,-1],"loss_changes":[5.2480383E2,6.0194122E1,5.526776E1,2.0510101E1,1.814833E1,1.4322643E1,1.6752563E1,0E0,0E0,0E0,0E0,0E0,0E0,0E0,0E0],"parents":[2147483647,0,0,1,1,2,2,3,3,4,4,5,5,6,6],"right_children":[2,4,6,8,10,12,14,-1,-1,-1,-1,-1,-1,-1,-1],"split_conditions":[3.1028764E-4,-3.1440365E-1,5.520497E-1,3.1099245E-1,-2.0244952E-2,-1.1037474E0,2.1612354E-2,-6.412598E-3,-2.1892372E-3,2.075538E-3,-2.4180962E-3,5.9116175E-3,1.8073394E-3,6.990442E-3,1.0970809E-2],"split_indices":[20,10,20,16,3,18,4,0,0,0,0,0,0,0,0],"split_type":[0,0,0,0,0,0,0,0,0,0,0,0,0,0,0],"sum_hessian":[1.8644535E4,1.1039224E4,7.605311E3,7.2956187E3,3.7436052E3,3.3597817E3,4.2455293E3,6.038692E3,1.2569268E3,1.1752155E3,2.56839E3,1.1802792E3,2.1795027E3,2.7413762E3,1.5041532E3],"tree_param":{"num_deleted":"0","num_feature":"46","num_nodes":"15","size_leaf_vector":"1"}},{"base_weights":[-8.8333833E-4,1.6225217E-1,-2.658822E-1,2.1949776E-1,2.3965325E-2,-1.4932603E-1,-3.4878406E-1,7.0372066E-3,1.4147087E-4,2.1490667E-3,-2.6162846E-3,-7.7201664E-3,-2.8707136E-3,-7.963728E-3,-1.2462509E-2],"categories":[],"categories_nodes":[],"categories_segments":[],"categories_sizes":[],"default_left":[0,0,1,0,0,1,0,0,0,0,0,0,0,0,0],"id":55,"left_children":[1,3,5,7,9,11,13,-1,-1,-1,-1,-1,-1,-1,-1],"loss_changes":[1.257783E3,1.4253458E2,1.0686224E2,4.123242E1,2.8002787E1,2.662207E1,3.5397522E1,0E0,0E0,0E0,0E0,0E0,0E0,0E0,0E0],"parents":[2147483647,0,0,1,1,2,2,3,3,4,4,5,5,6,6],"right_children":[2,4,6,8,10,12,14,-1,-1,-1,-1,-1,-1,-1,-1],"split_conditions":[3.1028764E-4,-2.7239653E-1,4.7000054E-1,-2.2396284E-1,6.325705E-2,-1.1037474E0,9.062367E-1,7.0372066E-3,1.4147087E-4,2.1490667E-3,-2.6162846E-3,-7.7201664E-3,-2.8707136E-3,-7.963728E-3,-1.2462509E-2],"split_indices":[20,10,20,20,4,18,10,0,0,0,0,0,0,0,0],"split_type":[0,0,0,0,0,0,0,0,0,0,0,0,0,0,0],"sum_hessian":[2.9084666E4,1.80035E4,1.1081166E4,1.273058E4,5.2729204E3,4.611549E3,6.4696167E3,1.1895182E4,8.3539813E2,3.691734E3,1.5811865E3,1.523829E3,3.0877197E3,2.885781E3,3.583836E3],"tree_param":{"num_deleted":"0","num_feature":"46","num_nodes":"15","size_leaf_vector":"1"}},{"base_weights":[7.0399384E-4,1.17376134E-1,-1.0623636E-1,3.176206E-2,1.9466469E-1,2.442548E-2,-1.4217119E-1,3.824095E-3,-5.8008364E-4,7.1164737E-3,4.2769546E-3,-7.4078166E-4,3.466112E-3,-4.8810337E-3,2.71319E-3],"categories":[],"categories_nodes":[],"categories_segments":[],"categories_sizes":[],"default_left":[0,0,0,0,0,1,1,0,0,0,0,0,0,0,0],"id":56,"left_children":[1,3,5,7,9,11,13,-1,-1,-1,-1,-1,-1,-1,-1],"loss_changes":[2.4822768E2,6.2926437E1,4.875647E1,2.2117832E1,1.0914078E1,1.005361E1,3.8955917E1,0E0,0E0,0E0,0E0,0E0,0E0,0E0,0E0],"parents":[2147483647,0,0,1,1,2,2,3,3,4,4,5,5,6,6],"right_children":[2,4,6,8,10,12,14,-1,-1,-1,-1,-1,-1,-1,-1],"split_conditions":[1.5555598E-1,3.0222064E-2,-1.3097864E-1,-5.235418E-1,-5.362576E-1,-4.9762827E-1,1.1100223E0,3.824095E-3,-5.8008364E-4,7.1164737E-3,4.2769546E-3,-7.4078166E-4,3.466112E-3,-4.8810337E-3,2.71319E-3],"split_indices":[35,34,22,22,35,11,12,0,0,0,0,0,0,0,0],"split_type":[0,0,0,0,0,0,0,0,0,0,0,0,0,0,0],"sum_hessian":[1.9884887E4,9.509507E3,1.037538E4,4.5150977E3,4.9944097E3,2.23831E3,8.1370693E3,1.5689513E3,2.9461462E3,2.739345E3,2.2550647E3,1.4566667E3,7.8164325E2,7.478527E3,6.585428E2],"tree_param":{"num_deleted":"0","num_feature":"46","num_nodes":"15","size_leaf_vector":"1"}},{"base_weights":[8.6904026E-4,-1.3558224E-1,1.9646914E-1,-1.7949851E-1,-4.1405953E-2,9.490613E-2,2.6347786E-1,-6.2044286E-3,-2.2877916E-3,1.7771019E-3,-2.6581155E-3,4.483151E-3,4.3847068E-4,1.0706882E-2,6.5651215E-3],"categories":[],"categories_nodes":[],"categories_segments":[],"categories_sizes":[],"default_left":[0,0,1,1,1,1,1,0,0,0,0,0,0,0,0],"id":57,"left_children":[1,3,5,7,9,11,13,-1,-1,-1,-1,-1,-1,-1,-1],"loss_changes":[4.9837695E2,4.5455627E1,5.2096558E1,2.1071487E1,1.6673475E1,1.3378389E1,1.8877197E1,0E0,0E0,0E0,0E0,0E0,0E0,0E0,0E0],"parents":[2147483647,0,0,1,1,2,2,3,3,4,4,5,5,6,6],"right_children":[2,4,6,8,10,12,14,-1,-1,-1,-1,-1,-1,-1,-1],"split_conditions":[3.1028764E-4,-3.2725152E-1,4.7000054E-1,4.596998E-1,0E0,8.683158E-2,-6.2084016E-3,-6.2044286E-3,-2.2877916E-3,1.7771019E-3,-2.6581155E-3,4.483151E-3,4.3847068E-4,1.0706882E-2,6.5651215E-3],"split_indices":[20,20,20,12,3,22,3,0,0,0,0,0,0,0,0],"split_type":[0,0,0,0,0,0,0,0,0,0,0,0,0,0,0],"sum_hessian":[1.8662887E4,1.0994572E4,7.6683154E3,7.494983E3,3.4995894E3,3.0530237E3,4.615292E3,5.922849E3,1.5721334E3,1.1168319E3,2.3827576E3,1.8155911E3,1.2374325E3,1.4810187E3,3.1342732E3],"tree_param":{"num_deleted":"0","num_feature":"46","num_nodes":"15","size_leaf_vector":"1"}},{"base_weights":[5.876634E-5,1.5624607E-1,-2.4745172E-1,2.2784968E-1,5.225162E-2,-1.6020167E-1,-3.6836144E-1,7.6348535E-3,3.1983715E-3,2.9839866E-3,-1.4295233E-3,-5.6775264E-3,2.1801277E-3,-1.428854E-2,-9.523181E-3],"categories":[],"categories_nodes":[],"categories_segments":[],"categories_sizes":[],"default_left":[0,0,1,1,0,1,0,0,0,0,0,0,0,0,0],"id":58,"left_children":[1,3,5,7,9,11,13,-1,-1,-1,-1,-1,-1,-1,-1],"loss_changes":[1.123907E3,1.3267184E2,1.18365845E2,3.3961365E1,3.4338646E1,4.432611E1,2.5132996E1,0E0,0E0,0E0,0E0,0E0,0E0,0E0,0E0],"parents":[2147483647,0,0,1,1,2,2,3,3,4,4,5,5,6,6],"right_children":[2,4,6,8,10,12,14,-1,-1,-1,-1,-1,-1,-1,-1],"split_conditions":[6.0530263E-3,-4.1425723E-1,7.7985543E-1,5.0036657E-1,5.085E-4,1.1342888E0,0E0,7.6348535E-3,3.1983715E-3,2.9839866E-3,-1.4295233E-3,-5.6775264E-3,2.1801277E-3,-1.428854E-2,-9.523181E-3],"split_indices":[10,10,10,12,4,27,4,0,0,0,0,0,0,0,0],"split_type":[0,0,0,0,0,0,0,0,0,0,0,0,0,0,0],"sum_hessian":[2.9063082E4,1.781995E4,1.1243133E4,1.0549981E4,7.269967E3,6.537332E3,4.7058003E3,8.644586E3,1.9053959E3,4.936814E3,2.3331528E3,5.8131226E3,7.242097E2,1.4951797E3,3.2106208E3],"tree_param":{"num_deleted":"0","num_feature":"46","num_nodes":"15","size_leaf_vector":"1"}},{"base_weights":[-3.325208E-4,-1.4398232E-1,1.4187689E-1,-1.669073E-1,-2.8548723E-2,3.7839174E-2,1.8943879E-1,-2.4256445E-3,-6.5728775E-3,-1.9374692E-3,3.3686196E-3,2.634149E-3,-9.0100727E-4,7.934647E-3,4.916852E-3],"categories":[],"categories_nodes":[],"categories_segments":[],"categories_sizes":[],"default_left":[0,1,1,0,0,1,0,0,0,0,0,0,0,0,0],"id":59,"left_children":[1,3,5,7,9,11,13,-1,-1,-1,-1,-1,-1,-1,-1],"loss_changes":[4.0557053E2,2.6112854E1,4.93311E1,3.6912964E1,8.371746E0,1.0649263E1,1.2906204E1,0E0,0E0,0E0,0E0,0E0,0E0,0E0,0E0],"parents":[2147483647,0,0,1,1,2,2,3,3,4,4,5,5,6,6],"right_children":[2,4,6,8,10,12,14,-1,-1,-1,-1,-1,-1,-1,-1],"split_conditions":[-1.8203557E-1,5.551757E-1,1.21320605E-1,1.8955652E-1,1.1999714E0,-1.3391685E-1,-2.2387047E-1,-2.4256445E-3,-6.5728775E-3,-1.9374692E-3,3.3686196E-3,2.634149E-3,-9.0100727E-4,7.934647E-3,4.916852E-3],"split_indices":[20,12,20,22,12,17,3,0,0,0,0,0,0,0,0],"split_type":[0,0,0,0,0,0,0,0,0,0,0,0,0,0,0],"sum_hessian":[1.9843314E4,9.871634E3,9.971682E3,8.234117E3,1.6375161E3,3.1312683E3,6.840413E3,3.1133464E3,5.120771E3,1.3060612E3,3.3145496E2,1.802705E3,1.3285634E3,1.7251167E3,5.1152964E3],"tree_param":{"num_deleted":"0","num_feature":"46","num_nodes":"15","size_leaf_vector":"1"}},{"base_weights":[1.0808418E-3,-1.2971419E-1,1.8121773E-1,-1.7283696E-1,-1.9173365E-2,7.334962E-2,2.4445407E-1,1.2729508E-3,-5.533077E-3,2.4709895E-3,-1.8696734E-3,3.8443345E-3,-7.776392E-4,5.935341E-3,1.0451524E-2],"categories":[],"categories_nodes":[],"categories_segments":[],"categories_sizes":[],"default_left":[0,0,1,0,0,1,0,0,0,0,0,0,0,0,0],"id":60,"left_children":[1,3,5,7,9,11,13,-1,-1,-1,-1,-1,-1,-1,-1],"loss_changes":[4.3901273E2,5.1441193E1,5.3375183E1,1.9427353E1,1.3323166E1,1.5812547E1,2.3581146E1,0E0,0E0,0E0,0E0,0E0,0E0,0E0,0E0],"parents":[2147483647,0,0,1,1,2,2,3,3,4,4,5,5,6,6],"right_children":[2,4,6,8,10,12,14,-1,-1,-1,-1,-1,-1,-1,-1],"split_conditions":[3.712611E-4,-2.8507796E-1,4.1371605E-1,-6.64337E-1,-6.0813833E-2,1.1772645E-1,1.5602514E0,1.2729508E-3,-5.533077E-3,2.4709895E-3,-1.8696734E-3,3.8443345E-3,-7.776392E-4,5.935341E-3,1.0451524E-2],"split_indices":[10,10,10,22,3,22,10,0,0,0,0,0,0,0,0],"split_type":[0,0,0,0,0,0,0,0,0,0,0,0,0,0,0],"sum_hessian":[1.862303E4,1.0789972E4,7.8330576E3,7.759945E3,3.0300273E3,2.898912E3,4.9341455E3,3.9605948E2,7.3638853E3,9.022596E2,2.1277678E3,1.8669512E3,1.0319609E3,3.4164805E3,1.5176649E3],"tree_param":{"num_deleted":"0","num_feature":"46","num_nodes":"15","size_leaf_vector":"1"}},{"base_weights":[-7.381392E-4,1.5634167E-1,-2.5380933E-1,2.1245462E-1,3.1223526E-2,-1.4141849E-1,-3.3361763E-1,6.8774396E-3,4.3961627E-4,2.4295375E-3,-2.5069148E-3,-7.862342E-3,-2.968631E-3,-1.3376619E-2,-8.45932E-3],"categories":[],"categories_nodes":[],"categories_segments":[],"categories_sizes":[],"default_left":[0,0,1,0,0,1,1,0,0,0,0,0,0,0,0],"id":61,"left_children":[1,3,5,7,9,11,13,-1,-1,-1,-1,-1,-1,-1,-1],"loss_changes":[1.1539692E3,1.25718506E2,9.948505E1,4.105591E1,3.1744356E1,2.3567902E1,3.7041077E1,0E0,0E0,0E0,0E0,0E0,0E0,0E0,0E0],"parents":[2147483647,0,0,1,1,2,2,3,3,4,4,5,5,6,6],"right_children":[2,4,6,8,10,12,14,-1,-1,-1,-1,-1,-1,-1,-1],"split_conditions":[3.1028764E-4,-2.9134274E-1,4.7000054E-1,-2.5529394E-1,6.0233384E-2,-2.8092346E-1,-2.618182E-2,6.8774396E-3,4.3961627E-4,2.4295375E-3,-2.5069148E-3,-7.862342E-3,-2.968631E-3,-1.3376619E-2,-8.45932E-3],"split_indices":[20,10,20,20,4,3,4,0,0,0,0,0,0,0,0],"split_type":[0,0,0,0,0,0,0,0,0,0,0,0,0,0,0],"sum_hessian":[2.9018951E4,1.790644E4,1.1112511E4,1.235982E4,5.5466196E3,4.620086E3,6.492425E3,1.1391853E4,9.679682E2,3.8702942E3,1.6763252E3,1.1959625E3,3.4241233E3,2.0334293E3,4.4589956E3],"tree_param":{"num_deleted":"0","num_feature":"46","num_nodes":"15","size_leaf_vector":"1"}},{"base_weights":[1.8144207E-4,-1.3445508E-1,1.3248053E-1,-9.166212E-2,-1.9231927E-1,5.1952597E-2,1.9061549E-1,-3.8314345E-3,5.1790604E-4,-6.863924E-3,6.054373E-4,2.1271901E-3,-4.8156003E-3,4.1494467E-3,6.7788125E-3],"categories":[],"categories_nodes":[],"categories_segments":[],"categories_sizes":[],"default_left":[0,0,1,0,1,1,1,0,0,0,0,0,0,0,0],"id":62,"left_children":[1,3,5,7,9,11,13,-1,-1,-1,-1,-1,-1,-1,-1],"loss_changes":[3.540775E2,2.4307465E1,4.6887848E1,2.228975E1,3.2455368E1,1.701275E1,1.060379E1,0E0,0E0,0E0,0E0,0E0,0E0,0E0,0E0],"parents":[2147483647,0,0,1,1,2,2,3,3,4,4,5,5,6,6],"right_children":[2,4,6,8,10,12,14,-1,-1,-1,-1,-1,-1,-1,-1],"split_conditions":[-1.658143E-1,-1.815413E-1,3.024583E-1,-4.0878537E-1,-1.2829599E-1,1.322301E0,4.5703468E-1,-3.8314345E-3,5.1790604E-4,-6.863924E-3,6.054373E-4,2.1271901E-3,-4.8156003E-3,4.1494467E-3,6.7788125E-3],"split_indices":[10,32,10,10,32,27,45,0,0,0,0,0,0,0,0],"split_type":[0,0,0,0,0,0,0,0,0,0,0,0,0,0,0],"sum_hessian":[1.986827E4,9.847105E3,1.0021163E4,5.6681763E3,4.178929E3,4.205381E3,5.815782E3,4.257996E3,1.4101802E3,3.5663416E3,6.1258777E2,3.86402E3,3.4136078E2,2.355245E3,3.4605374E3],"tree_param":{"num_deleted":"0","num_feature":"46","num_nodes":"15","size_leaf_vector":"1"}},{"base_weights":[-1.3247833E-3,-1.2463852E-1,1.940666E-1,-1.8144993E-1,-3.11238E-2,1.5136264E-1,3.2457864E-1,-6.1144396E-3,-2.2427412E-3,1.7916561E-3,-2.2194893E-3,5.6674466E-3,1.2802203E-3,4.2229965E-3,1.0522533E-2],"categories":[],"categories_nodes":[],"categories_segments":[],"categories_sizes":[],"default_left":[0,0,1,1,1,1,0,0,0,0,0,0,0,0,0],"id":63,"left_children":[1,3,5,7,9,11,13,-1,-1,-1,-1,-1,-1,-1,-1],"loss_changes":[4.4872623E2,6.0630768E1,3.9915558E1,1.68694E1,1.6846352E1,2.2157982E1,8.278549E0,0E0,0E0,0E0,0E0,0E0,0E0,0E0,0E0],"parents":[2147483647,0,0,1,1,2,2,3,3,4,4,5,5,6,6],"right_children":[2,4,6,8,10,12,14,-1,-1,-1,-1,-1,-1,-1,-1],"split_conditions":[6.200579E-2,-3.2592613E-1,1.4315872E0,3.1099245E-1,0E0,3.1070015E-1,7.1343005E-1,-6.1144396E-3,-2.2427412E-3,1.7916561E-3,-2.2194893E-3,5.6674466E-3,1.2802203E-3,4.2229965E-3,1.0522533E-2],"split_indices":[20,10,20,16,3,19,10,0,0,0,0,0,0,0,0],"split_type":[0,0,0,0,0,0,0,0,0,0,0,0,0,0,0],"sum_hessian":[1.8613623E4,1.14127295E4,7.2008936E3,7.096694E3,4.3160356E3,5.4337515E3,1.7671422E3,5.8631177E3,1.2335762E3,1.3828776E3,2.9331582E3,4.03571E3,1.3980411E3,2.2423155E2,1.5429108E3],"tree_param":{"num_deleted":"0","num_feature":"46","num_nodes":"15","size_leaf_vector":"1"}},{"base_weights":[-2.2221374E-4,-1.6297963E-1,1.3994926E-1,-3.7296016E-2,-2.8285208E-1,-1.633724E-2,1.8042348E-1,-5.758087E-3,8.023772E-4,-1.0691893E-2,-5.926875E-3,-3.0406965E-3,1.4588134E-3,6.578932E-3,9.640654E-4],"categories":[],"categories_nodes":[],"categories_segments":[],"categories_sizes":[],"default_left":[0,0,0,1,0,0,1,0,0,0,0,0,0,0,0],"id":64,"left_children":[1,3,5,7,9,11,13,-1,-1,-1,-1,-1,-1,-1,-1],"loss_changes":[6.617181E2,2.021511E2,9.8591064E1,6.49681E1,4.2732056E1,1.7755356E1,7.132208E1,0E0,0E0,0E0,0E0,0E0,0E0,0E0,0E0],"parents":[2147483647,0,0,1,1,2,2,3,3,4,4,5,5,6,6],"right_children":[2,4,6,8,10,12,14,-1,-1,-1,-1,-1,-1,-1,-1],"split_conditions":[1.5555598E-1,3.0222064E-2,-1.4391495E-1,-6.8238896E-1,-5.5451435E-1,-6.8238896E-1,6.607233E-1,-5.758087E-3,8.023772E-4,-1.0691893E-2,-5.926875E-3,-3.0406965E-3,1.4588134E-3,6.578932E-3,9.640654E-4],"split_indices":[35,34,22,22,35,22,11,0,0,0,0,0,0,0,0],"split_type":[0,0,0,0,0,0,0,0,0,0,0,0,0,0,0],"sum_hessian":[2.899498E4,1.3416202E4,1.5578778E4,6.5525522E3,6.8636504E3,3.2052104E3,1.2373568E4,1.9160164E3,4.636536E3,3.6770627E3,3.1865876E3,1.3871008E3,1.8181096E3,9.801637E3,2.5719316E3],"tree_param":{"num_deleted":"0","num_feature":"46","num_nodes":"15","size_leaf_vector":"1"}},{"base_weights":[5.7191966E-5,1.1132589E-1,-1.0223453E-1,2.3378491E-2,1.68062E-1,1.3343577E-2,-1.4038147E-1,3.5064889E-3,-7.622914E-4,4.1869823E-3,7.2659845E-3,-1.1972447E-3,2.8680034E-3,-5.5056373E-3,-9.1549003E-4],"categories":[],"categories_nodes":[],"categories_segments":[],"categories_sizes":[],"default_left":[0,0,0,0,1,1,1,0,0,0,0,0,0,0,0],"id":65,"left_children":[1,3,5,7,9,11,13,-1,-1,-1,-1,-1,-1,-1,-1],"loss_changes":[2.259769E2,4.743216E1,4.5617058E1,1.7053448E1,1.2041504E1,1.1283111E1,3.683542E1,0E0,0E0,0E0,0E0,0E0,0E0,0E0,0E0],"parents":[2147483647,0,0,1,1,2,2,3,3,4,4,5,5,6,6],"right_children":[2,4,6,8,10,12,14,-1,-1,-1,-1,-1,-1,-1,-1],"split_conditions":[1.4809774E-1,-8.927564E-2,-3.761059E-2,-5.235418E-1,6.023431E-1,-4.9762827E-1,5.2546597E-1,3.5064889E-3,-7.622914E-4,4.1869823E-3,7.2659845E-3,-1.1972447E-3,2.8680034E-3,-5.5056373E-3,-9.1549003E-4],"split_indices":[35,34,22,22,12,11,11,0,0,0,0,0,0,0,0],"split_type":[0,0,0,0,0,0,0,0,0,0,0,0,0,0,0],"sum_hessian":[1.9844115E4,9.504773E3,1.0339341E4,3.7299656E3,5.774808E3,2.566519E3,7.772822E3,1.2765088E3,2.4534568E3,4.1818574E3,1.5929508E3,1.5594968E3,1.0070223E3,5.578866E3,2.1939553E3],"tree_param":{"num_deleted":"0","num_feature":"46","num_nodes":"15","size_leaf_vector":"1"}},{"base_weights":[-1.658475E-4,-1.2658258E-1,1.7956287E-1,-1.7205398E-1,-3.2130994E-2,9.169909E-2,2.4361843E-1,-5.9988927E-3,-2.2035511E-3,2.1087076E-3,-2.431954E-3,5.136695E-3,1.4347784E-3,5.8912346E-3,9.814942E-3],"categories":[],"categories_nodes":[],"categories_segments":[],"categories_sizes":[],"default_left":[0,0,1,1,1,1,0,0,0,0,0,0,0,0,0],"id":66,"left_children":[1,3,5,7,9,11,13,-1,-1,-1,-1,-1,-1,-1,-1],"loss_changes":[4.2271017E2,4.688156E1,4.312616E1,2.021254E1,1.7848715E1,1.1288597E1,1.7204376E1,0E0,0E0,0E0,0E0,0E0,0E0,0E0,0E0],"parents":[2147483647,0,0,1,1,2,2,3,3,4,4,5,5,6,6],"right_children":[2,4,6,8,10,12,14,-1,-1,-1,-1,-1,-1,-1,-1],"split_conditions":[8.193279E-3,-3.2725152E-1,5.305152E-1,4.4147512E-1,0E0,-1.0359951E0,5.306203E-3,-5.9988927E-3,-2.2035511E-3,2.1087076E-3,-2.431954E-3,5.136695E-3,1.4347784E-3,5.8912346E-3,9.814942E-3],"split_indices":[20,20,20,12,4,18,4,0,0,0,0,0,0,0,0],"split_type":[0,0,0,0,0,0,0,0,0,0,0,0,0,0,0],"sum_hessian":[1.8594615E4,1.0917203E4,7.6774116E3,7.366617E3,3.5505857E3,3.2422446E3,4.435167E3,5.737494E3,1.629123E3,1.147221E3,2.4033647E3,1.1476006E3,2.094644E3,2.843801E3,1.5913658E3],"tree_param":{"num_deleted":"0","num_feature":"46","num_nodes":"15","size_leaf_vector":"1"}},{"base_weights":[6.88179E-5,1.5062985E-1,-2.4172455E-1,2.0439814E-1,3.0985672E-2,-1.3429672E-1,-3.1826684E-1,6.5916176E-3,4.1846235E-4,2.4597093E-3,-2.3652178E-3,-6.9937073E-3,-2.5403488E-3,-1.2937188E-2,-8.069644E-3],"categories":[],"categories_nodes":[],"categories_segments":[],"categories_sizes":[],"default_left":[0,0,1,0,0,1,1,0,0,0,0,0,0,0,0],"id":67,"left_children":[1,3,5,7,9,11,13,-1,-1,-1,-1,-1,-1,-1,-1],"loss_changes":[1.0537263E3,1.1471884E2,9.1118286E1,3.5895386E1,3.104655E1,2.2604607E1,3.5508057E1,0E0,0E0,0E0,0E0,0E0,0E0,0E0,0E0],"parents":[2147483647,0,0,1,1,2,2,3,3,4,4,5,5,6,6],"right_children":[2,4,6,8,10,12,14,-1,-1,-1,-1,-1,-1,-1,-1],"split_conditions":[3.1028764E-4,-2.9134274E-1,4.7000054E-1,-2.4887413E-1,1.9331787E-3,-1.1037474E0,-6.777719E-2,6.5916176E-3,4.1846235E-4,2.4597093E-3,-2.3652178E-3,-6.9937073E-3,-2.5403488E-3,-1.2937188E-2,-8.069644E-3],"split_indices":[20,10,20,20,4,18,4,0,0,0,0,0,0,0,0],"split_type":[0,0,0,0,0,0,0,0,0,0,0,0,0,0,0],"sum_hessian":[2.8934818E4,1.783261E4,1.1102208E4,1.2300985E4,5.5316255E3,4.624896E3,6.4773125E3,1.1384302E4,9.166832E2,3.7782349E3,1.7533905E3,1.5397089E3,3.085187E3,1.955506E3,4.5218066E3],"tree_param":{"num_deleted":"0","num_feature":"46","num_nodes":"15","size_leaf_vector":"1"}},{"base_weights":[-2.967479E-4,9.3297176E-2,-1.14568904E-1,6.172355E-3,1.5688618E-1,-2.8696934E-2,-1.5731208E-1,-8.1388664E-4,4.281623E-3,6.1264886E-3,3.3588856E-3,-3.0778E-3,9.3110296E-4,-5.3797346E-3,2.7620469E-3],"categories":[],"categories_nodes":[],"categories_segments":[],"categories_sizes":[],"default_left":[0,0,0,0,0,1,1,0,0,0,0,0,0,0,0],"id":68,"left_children":[1,3,5,7,9,11,13,-1,-1,-1,-1,-1,-1,-1,-1],"loss_changes":[2.119197E2,6.0343346E1,3.2723946E1,2.0942007E1,1.3273956E1,1.3130648E1,3.277556E1,0E0,0E0,0E0,0E0,0E0,0E0,0E0,0E0],"parents":[2147483647,0,0,1,1,2,2,3,3,4,4,5,5,6,6],"right_children":[2,4,6,8,10,12,14,-1,-1,-1,-1,-1,-1,-1,-1],"split_conditions":[2.6558766E-1,-8.927564E-2,-5.0522827E-2,8.00001E0,-5.362576E-1,-3.901389E-1,1.1714333E0,-8.1388664E-4,4.281623E-3,6.1264886E-3,3.3588856E-3,-3.0778E-3,9.3110296E-4,-5.3797346E-3,2.7620469E-3],"split_indices":[35,34,19,18,35,45,12,0,0,0,0,0,0,0,0],"split_type":[0,0,0,0,0,0,0,0,0,0,0,0,0,0,0],"sum_hessian":[1.980451E4,1.0887822E4,8.9166875E3,4.596092E3,6.2917305E3,2.9660952E3,5.9505923E3,3.6981743E3,8.979173E2,3.0551594E3,3.2365708E3,1.3242642E3,1.6418312E3,5.469236E3,4.8135635E2],"tree_param":{"num_deleted":"0","num_feature":"46","num_nodes":"15","size_leaf_vector":"1"}},{"base_weights":[3.0620978E-4,1.1599084E-1,-1.1944611E-1,1.7812455E-2,1.9998258E-1,-4.2451844E-3,-1.5189026E-1,4.361358E-3,-1.1765254E-3,7.6119024E-3,3.1550175E-3,-3.501368E-3,8.847266E-4,-5.784112E-3,-1.4555012E-3],"categories":[],"categories_nodes":[],"categories_segments":[],"categories_sizes":[],"default_left":[0,0,0,1,1,1,1,0,0,0,0,0,0,0,0],"id":69,"left_children":[1,3,5,7,9,11,13,-1,-1,-1,-1,-1,-1,-1,-1],"loss_changes":[2.5745462E2,7.792979E1,3.4126648E1,3.1774927E1,2.5825348E1,7.6501474E0,3.0086517E1,0E0,0E0,0E0,0E0,0E0,0E0,0E0,0E0],"parents":[2147483647,0,0,1,1,2,2,3,3,4,4,5,5,6,6],"right_children":[2,4,6,8,10,12,14,-1,-1,-1,-1,-1,-1,-1,-1],"split_conditions":[1.9061032E-1,1.3208024E-2,-1.0753571E-1,-6.64337E-1,-2.2292717E-1,-7.554958E-1,4.6947896E-1,4.361358E-3,-1.1765254E-3,7.6119024E-3,3.1550175E-3,-3.501368E-3,8.847266E-4,-5.784112E-3,-1.4555012E-3],"split_indices":[35,34,22,22,17,45,12,0,0,0,0,0,0,0,0],"split_type":[0,0,0,0,0,0,0,0,0,0,0,0,0,0,0],"sum_hessian":[1.8574082E4,9.447575E3,9.126507E3,4.3587134E3,5.0888613E3,2.0067396E3,7.119767E3,1.3442078E3,3.0145054E3,3.2424497E3,1.8464117E3,4.6021323E2,1.5465264E3,5.0978145E3,2.0219525E3],"tree_param":{"num_deleted":"0","num_feature":"46","num_nodes":"15","size_leaf_vector":"1"}},{"base_weights":[-4.425848E-4,1.458504E-1,-2.3796146E-1,1.9887081E-1,2.9856749E-2,-1.3278778E-1,-3.1148955E-1,6.4235795E-3,-3.627829E-4,2.2979924E-3,-2.321399E-3,-6.8701054E-3,-2.5008568E-3,-7.7021657E-3,-1.2140256E-2],"categories":[],"categories_nodes":[],"categories_segments":[],"categories_sizes":[],"default_left":[0,0,1,0,0,1,0,0,0,0,0,0,0,0,0],"id":70,"left_children":[1,3,5,7,9,11,13,-1,-1,-1,-1,-1,-1,-1,-1],"loss_changes":[1.00448016E3,1.0999164E2,8.5002075E1,3.9505432E1,2.8189789E1,2.1506042E1,3.2547363E1,0E0,0E0,0E0,0E0,0E0,0E0,0E0,0E0],"parents":[2147483647,0,0,1,1,2,2,3,3,4,4,5,5,6,6],"right_children":[2,4,6,8,10,12,14,-1,-1,-1,-1,-1,-1,-1,-1],"split_conditions":[8.193279E-3,-2.9134274E-1,4.7000054E-1,-2.3041962E-1,6.0233384E-2,0E0,1.3738925E0,6.4235795E-3,-3.627829E-4,2.2979924E-3,-2.321399E-3,-6.8701054E-3,-2.5008568E-3,-7.7021657E-3,-1.2140256E-2],"split_indices":[20,10,20,20,4,4,10,0,0,0,0,0,0,0,0],"split_type":[0,0,0,0,0,0,0,0,0,0,0,0,0,0,0],"sum_hessian":[2.8898115E4,1.7884559E4,1.1013556E4,1.2271648E4,5.612911E3,4.537377E3,6.476179E3,1.1444371E4,8.272772E2,3.9100173E3,1.7028939E3,1.5336686E3,3.003708E3,4.0911973E3,2.384982E3],"tree_param":{"num_deleted":"0","num_feature":"46","num_nodes":"15","size_leaf_vector":"1"}},{"base_weights":[1.1041806E-3,9.10708E-2,-1.1274356E-1,2.3113063E-3,1.565869E-1,-5.209212E-3,-1.4354378E-1,2.3327065E-3,-1.763638E-3,3.1696744E-3,6.0191536E-3,-1.4787613E-3,3.0111328E-3,-5.317807E-3,-6.028869E-4],"categories":[],"categories_nodes":[],"categories_segments":[],"categories_sizes":[],"default_left":[0,0,0,0,0,1,1,0,0,0,0,0,0,0,0],"id":71,"left_children":[1,3,5,7,9,11,13,-1,-1,-1,-1,-1,-1,-1,-1],"loss_changes":[2.0310117E2,6.440885E1,2.8986725E1,2.1729044E1,1.4191223E1,9.119356E0,2.8301544E1,0E0,0E0,0E0,0E0,0E0,0E0,0E0,0E0],"parents":[2147483647,0,0,1,1,2,2,3,3,4,4,5,5,6,6],"right_children":[2,4,6,8,10,12,14,-1,-1,-1,-1,-1,-1,-1,-1],"split_conditions":[2.7741247E-1,-8.927564E-2,-3.761059E-2,-1.6670479E-1,5.2705216E-1,-3.9171517E-1,6.767257E-1,2.3327065E-3,-1.763638E-3,3.1696744E-3,6.0191536E-3,-1.4787613E-3,3.0111328E-3,-5.317807E-3,-6.028869E-4],"split_indices":[35,34,22,22,45,11,11,0,0,0,0,0,0,0,0],"split_type":[0,0,0,0,0,0,0,0,0,0,0,0,0,0,0],"sum_hessian":[1.9819252E4,1.1071305E4,8.747946E3,4.703841E3,6.367464E3,1.9490337E3,6.798913E3,2.1042017E3,2.5996392E3,2.9610173E3,3.4064465E3,1.376832E3,5.7220154E2,5.338627E3,1.460286E3],"tree_param":{"num_deleted":"0","num_feature":"46","num_nodes":"15","size_leaf_vector":"1"}},{"base_weights":[5.1498035E-4,-1.21466465E-1,1.6807966E-1,-1.6808933E-1,-3.1000411E-2,6.922848E-2,2.2362514E-1,-5.46578E-3,-1.7686264E-4,1.8356086E-3,-2.2464802E-3,5.1154434E-3,1.0529557E-3,5.438401E-3,9.540354E-3],"categories":[],"categories_nodes":[],"categories_segments":[],"categories_sizes":[],"default_left":[0,0,1,1,1,1,0,0,0,0,0,0,0,0,0],"id":72,"left_children":[1,3,5,7,9,11,13,-1,-1,-1,-1,-1,-1,-1,-1],"loss_changes":[3.7983978E2,4.5334045E1,4.290892E1,1.6226196E1,1.484378E1,9.731479E0,1.9736313E1,0E0,0E0,0E0,0E0,0E0,0E0,0E0,0E0],"parents":[2147483647,0,0,1,1,2,2,3,3,4,4,5,5,6,6],"right_children":[2,4,6,8,10,12,14,-1,-1,-1,-1,-1,-1,-1,-1],"split_conditions":[3.1028764E-4,-3.0922377E-1,3.6905268E-1,6.916277E-1,0E0,-3.016033E-1,1.5361879E0,-5.46578E-3,-1.7686264E-4,1.8356086E-3,-2.2464802E-3,5.1154434E-3,1.0529557E-3,5.438401E-3,9.540354E-3],"split_indices":[20,10,10,16,4,4,20,0,0,0,0,0,0,0,0],"split_type":[0,0,0,0,0,0,0,0,0,0,0,0,0,0,0],"sum_hessian":[1.8573363E4,1.07494795E4,7.8238833E3,7.090835E3,3.6586443E3,2.8187476E3,5.0051357E3,6.5230186E3,5.6781635E2,1.1792717E3,2.4793726E3,7.0539386E2,2.1133538E3,3.4651523E3,1.5399835E3],"tree_param":{"num_deleted":"0","num_feature":"46","num_nodes":"15","size_leaf_vector":"1"}},{"base_weights":[-8.340267E-4,1.3401549E-1,-2.4747184E-1,1.9367792E-1,1.759679E-2,-1.7424808E-1,-3.4105822E-1,6.335408E-3,1.7784085E-5,-1.4010293E-3,3.1309263E-3,-7.788948E-3,-3.6936507E-3,-1.1556913E-2,-7.5277197E-3],"categories":[],"categories_nodes":[],"categories_segments":[],"categories_sizes":[],"default_left":[0,0,1,0,1,1,1,0,0,0,0,0,0,0,0],"id":73,"left_children":[1,3,5,7,9,11,13,-1,-1,-1,-1,-1,-1,-1,-1],"loss_changes":[9.5939905E2,1.2951999E2,6.957825E1,4.1667908E1,3.530926E1,2.4857666E1,1.7316711E1,0E0,0E0,0E0,0E0,0E0,0E0,0E0,0E0],"parents":[2147483647,0,0,1,1,2,2,3,3,4,4,5,5,6,6],"right_children":[2,4,6,8,10,12,14,-1,-1,-1,-1,-1,-1,-1,-1],"split_conditions":[7.071218E-2,-2.9134274E-1,8.025659E-1,-2.4887413E-1,-9.660862E-2,-1.2249353E0,-1.7704567E-1,6.335408E-3,1.7784085E-5,-1.4010293E-3,3.1309263E-3,-7.788948E-3,-3.6936507E-3,-1.1556913E-2,-7.5277197E-3],"split_indices":[20,10,10,20,17,18,17,0,0,0,0,0,0,0,0],"split_type":[0,0,0,0,0,0,0,0,0,0,0,0,0,0,0],"sum_hessian":[2.8836324E4,1.8644633E4,1.0191691E4,1.2324986E4,6.3196465E3,5.7259277E3,4.4657637E3,1.1300202E4,1.0247847E3,3.6311458E3,2.6885005E3,2.1368665E3,3.5890613E3,2.9860273E3,1.4797366E3],"tree_param":{"num_deleted":"0","num_feature":"46","num_nodes":"15","size_leaf_vector":"1"}},{"base_weights":[2.4295543E-5,-1.32888E-1,1.2721175E-1,-8.613031E-2,-2.0042498E-1,4.117887E-2,1.6567911E-1,-5.4365676E-3,-1.2435488E-3,-7.224376E-3,1.0610898E-3,3.7274936E-3,4.155615E-5,6.8558613E-3,4.0488723E-3],"categories":[],"categories_nodes":[],"categories_segments":[],"categories_sizes":[],"default_left":[0,0,1,0,1,1,1,0,0,0,0,0,0,0,0],"id":74,"left_children":[1,3,5,7,9,11,13,-1,-1,-1,-1,-1,-1,-1,-1],"loss_changes":[3.3484082E2,3.0500061E1,3.3463287E1,2.4314896E1,3.77415E1,1.0359201E1,1.3345459E1,0E0,0E0,0E0,0E0,0E0,0E0,0E0,0E0],"parents":[2147483647,0,0,1,1,2,2,3,3,4,4,5,5,6,6],"right_children":[2,4,6,8,10,12,14,-1,-1,-1,-1,-1,-1,-1,-1],"split_conditions":[-1.8203557E-1,-1.7963292E-1,1.21320605E-1,-7.60292E-1,-1.2631354E-1,0E0,-1.1059089E-2,-5.4365676E-3,-1.2435488E-3,-7.224376E-3,1.0610898E-3,3.7274936E-3,4.155615E-5,6.8558613E-3,4.0488723E-3],"split_indices":[20,32,20,20,32,3,4,0,0,0,0,0,0,0,0],"split_type":[0,0,0,0,0,0,0,0,0,0,0,0,0,0,0],"sum_hessian":[1.9797469E4,9.680752E3,1.0116717E4,5.727101E3,3.9536506E3,3.1290032E3,6.987714E3,1.825868E3,3.9012332E3,3.375397E3,5.782536E2,1.0099919E3,2.1190112E3,2.283412E3,4.7043013E3],"tree_param":{"num_deleted":"0","num_feature":"46","num_nodes":"15","size_leaf_vector":"1"}},{"base_weights":[7.951233E-4,1.1042892E-1,-1.1370458E-1,1.9412868E-1,1.926812E-2,-2.6510665E-3,-1.4510973E-1,2.6316235E-3,7.0680515E-3,-8.341214E-4,5.238631E-3,-4.151596E-4,9.93828E-3,-5.4107406E-3,-6.223118E-4],"categories":[],"categories_nodes":[],"categories_segments":[],"categories_sizes":[],"default_left":[0,1,0,0,0,1,1,0,0,0,0,0,0,0,0],"id":75,"left_children":[1,3,5,7,9,11,13,-1,-1,-1,-1,-1,-1,-1,-1],"loss_changes":[2.3309729E2,7.236112E1,3.1676247E1,2.1718582E1,3.3269688E1,7.5223846E0,3.1020065E1,0E0,0E0,0E0,0E0,0E0,0E0,0E0,0E0],"parents":[2147483647,0,0,1,1,2,2,3,3,4,4,5,5,6,6],"right_children":[2,4,6,8,10,12,14,-1,-1,-1,-1,-1,-1,-1,-1],"split_conditions":[1.9061032E-1,-3.2264575E-1,-1.0753571E-1,-1.4527944E-1,6.4592034E-1,3.4380504E-1,3.7820265E-1,2.6316235E-3,7.0680515E-3,-8.341214E-4,5.238631E-3,-4.151596E-4,9.93828E-3,-5.4107406E-3,-6.223118E-4],"split_indices":[35,22,22,34,34,11,16,0,0,0,0,0,0,0,0],"split_type":[0,0,0,0,0,0,0,0,0,0,0,0,0,0,0],"sum_hessian":[1.8558994E4,9.481045E3,9.07795E3,4.939849E3,4.541196E3,2.0024379E3,7.0755117E3,1.389743E3,3.550106E3,3.4883313E3,1.0528645E3,1.9421622E3,6.0275642E1,5.511243E3,1.5642688E3],"tree_param":{"num_deleted":"0","num_feature":"46","num_nodes":"15","size_leaf_vector":"1"}},{"base_weights":[-1.2117471E-3,1.3786864E-1,-2.259022E-1,1.9006644E-1,3.710894E-2,-1.3237007E-1,-3.0071065E-1,6.415226E-3,7.1361114E-4,2.668321E-3,-2.1611585E-3,-6.890036E-3,-2.436968E-3,-1.2438577E-2,-7.5473203E-3],"categories":[],"categories_nodes":[],"categories_segments":[],"categories_sizes":[],"default_left":[0,0,1,1,0,1,1,0,0,0,0,0,0,0,0],"id":76,"left_children":[1,3,5,7,9,11,13,-1,-1,-1,-1,-1,-1,-1,-1],"loss_changes":[9.0122266E2,9.365149E1,7.695007E1,4.6357513E1,3.4459263E1,2.4330734E1,3.374298E1,0E0,0E0,0E0,0E0,0E0,0E0,0E0,0E0],"parents":[2147483647,0,0,1,1,2,2,3,3,4,4,5,5,6,6],"right_children":[2,4,6,8,10,12,14,-1,-1,-1,-1,-1,-1,-1,-1],"split_conditions":[8.193279E-3,-3.483127E-1,5.305152E-1,6.511376E-1,1.9331787E-3,-1.1037474E0,-6.777719E-2,6.415226E-3,7.1361114E-4,2.668321E-3,-2.1611585E-3,-6.890036E-3,-2.436968E-3,-1.2438577E-2,-7.5473203E-3],"split_indices":[20,20,20,12,4,18,4,0,0,0,0,0,0,0,0],"split_type":[0,0,0,0,0,0,0,0,0,0,0,0,0,0,0],"sum_hessian":[2.8829111E4,1.780808E4,1.1021031E4,1.172803E4,6.0800493E3,4.903762E3,6.117269E3,1.0259684E4,1.4683469E3,4.1229507E3,1.9570984E3,1.6833898E3,3.2203723E3,1.8322548E3,4.285014E3],"tree_param":{"num_deleted":"0","num_feature":"46","num_nodes":"15","size_leaf_vector":"1"}},{"base_weights":[9.5423457E-4,1.0546211E-1,-9.138827E-2,3.9313767E-2,1.6787426E-1,1.2232686E-2,-1.271631E-1,3.810766E-3,-3.2668293E-4,6.9683716E-3,3.9486233E-3,3.6635029E-6,1.1437487E-2,-4.6659624E-3,1.0124984E-3],"categories":[],"categories_nodes":[],"categories_segments":[],"categories_sizes":[],